nep4 2 C H 
cutoff 8 4 7 7
n_max 4 4
basis_size 8 8
l_max 4 2 0
ANN 30 0
  4.2312196e-01
 -8.9327317e-01
  2.4758303e+00
 -5.4684740e-01
  3.1443248e+00
 -6.1590407e-02
 -4.7518484e-02
  1.6457602e-01
  6.1742537e-02
  5.6553918e-01
 -1.4047888e-01
  2.1462867e-02
  3.1203754e-02
 -6.8532355e-02
  1.1626790e+00
 -1.2174872e-01
 -1.0913704e-01
 -7.2600108e-01
  2.1118377e-01
  3.6014747e-02
 -7.4599776e-03
 -4.2047971e-01
  5.2564923e-02
 -1.6451919e-02
 -8.3666099e-03
 -7.9858154e-02
  2.5619488e-02
  1.9602452e-01
  5.2655921e-03
 -7.5118333e-02
  2.1611965e-01
  2.5643387e-01
 -1.6038252e-01
 -1.1176236e+00
 -1.0873969e+00
  6.9126719e-01
 -1.1820771e+00
  1.6389422e+00
 -9.4527876e-01
  1.7226318e+00
  6.2021828e-01
  2.5968950e+00
  3.2133919e-01
  1.0996085e+00
 -1.1012489e+00
  2.2380702e-01
 -1.9056989e+00
  3.7271624e+00
  1.4623699e+00
  1.5663520e-01
  3.5825706e-01
  1.7437575e+00
 -1.3417903e+00
 -2.3733748e-01
  1.3032029e+00
 -1.5011595e-01
  1.1542808e+00
 -3.2151946e-01
  2.0120096e+00
  6.0138786e-01
  8.9223695e-01
 -2.2683868e-02
  1.6439636e-01
  1.8604036e-01
  1.3131879e-02
 -5.5838436e-02
 -3.5196368e-02
 -2.0711234e-02
 -1.7254483e-02
  5.8577791e-02
 -2.0640421e-01
  7.9441890e-02
 -2.1827258e-03
 -1.0205407e-02
 -4.5980457e-03
 -1.3158406e-01
 -5.4110888e-02
  6.4146675e-02
 -2.2572314e-02
 -1.4125023e-02
 -2.2574676e-02
  6.8235165e-03
 -4.7441989e-02
 -1.4058653e-02
 -3.4746036e-01
 -2.3293796e-01
  6.5387525e-03
 -3.4002429e-03
 -5.1030014e-02
  2.1251012e-02
 -6.7548282e-02
  8.5990103e-03
  2.9642412e-02
  2.3028897e-01
  3.1916389e-01
 -9.0042591e-02
  8.5184801e-01
  5.5374157e-01
 -5.1383138e-02
 -1.5945061e+00
 -1.3338641e+00
  7.3120427e-01
  3.4198600e-01
  2.6080883e-01
 -9.6477461e-01
  5.1968366e-01
  2.3036452e-01
  2.5208700e+00
 -1.0711951e+00
 -2.6321745e+00
 -7.0283169e-01
 -1.2477899e-02
  6.2263888e-01
 -3.1215450e-02
 -8.5052484e-01
 -4.9029717e+00
  9.3581688e-01
 -8.3645773e-01
 -3.0348506e+00
  5.7163423e-01
 -1.0078194e+00
  1.0000226e+00
  2.1951206e+00
  3.1033533e+00
  8.4189653e-01
 -1.8959290e+00
  2.6808670e+00
  1.1740647e-01
  4.8388922e-01
 -6.6705078e-01
  5.7135433e-01
 -3.3887941e-01
 -1.2021530e+00
 -2.4144461e+00
  1.3854660e+00
  1.2305423e-01
 -2.6490939e-01
  3.3334625e-01
 -3.8865650e-01
 -2.0136990e-02
  8.5155153e-01
  4.2725787e+00
 -1.7314923e+00
  2.6337671e+00
 -1.6705159e+00
  7.4658699e-02
 -7.5517505e-02
 -2.4660933e-01
  8.2587577e-02
  5.3112912e-03
 -1.1027033e-02
  8.4543370e-02
 -6.5022096e-02
 -1.5780034e-02
 -8.5493013e-02
  1.8287347e-01
  5.4682069e-02
 -8.7280828e-01
 -1.4364699e-02
 -3.0813184e-01
 -5.9651129e-02
  5.4094350e-01
  1.9419543e-01
 -5.0754470e-01
 -9.8530734e-01
  1.0636602e-02
 -5.7319427e-01
 -1.8950480e-01
 -4.6785690e-02
  1.9691277e-02
  3.3335160e-02
  3.6999592e-01
 -1.7956679e-01
  3.2093021e-01
  4.0195310e-03
 -2.0021934e-02
  5.3664457e-02
  1.3120142e+00
  1.8222717e+00
 -1.1786311e-02
  6.0421735e-01
 -5.5601972e-01
  6.6245013e-01
  6.3009292e-01
  9.4807113e-04
 -5.5003278e-02
  5.2356075e-02
 -3.1800304e-02
 -4.4588502e-02
  2.0652235e-01
 -3.7314475e-02
  3.9979458e-01
 -1.6521159e-01
 -5.0926346e-01
  3.2942170e-01
 -1.5196035e-02
 -2.9488385e-02
  6.4055339e-02
 -4.8244372e-02
  8.8686779e-02
 -3.2395456e-02
  2.6494315e-01
 -2.5267458e-01
  2.6045829e-02
 -3.3346589e+00
 -4.5163792e-01
 -8.8529922e-02
 -3.9303038e-01
  8.7094381e-03
 -2.1487801e-01
  2.1025759e-01
  6.6190469e-01
  4.4600192e-02
 -1.6436939e-03
  7.4619091e-01
 -2.7353246e-02
 -5.7986087e-01
 -2.3626151e-02
 -9.1141629e-01
  2.0137467e+00
 -1.9312155e-02
 -1.1929031e-02
  9.1883969e-01
  2.3378052e-02
  5.5642521e-01
  8.3966535e-01
  8.1188595e-01
  5.2191973e-01
  3.4884229e-01
  1.1056706e-01
  8.2344282e-01
  2.5091484e-01
  6.5910622e-02
  4.2690001e-02
  9.9637479e-02
  1.1027536e-01
 -2.3518884e+00
 -9.0804505e-01
 -3.8806719e-01
  1.1338680e-01
 -7.4182487e-01
 -4.9699408e-01
 -2.3618250e-01
 -2.5087979e-02
  6.7356396e-03
  2.7227022e-02
  5.0197631e-02
  4.9955361e-03
 -4.8348520e-02
 -4.3103252e-02
  1.4005381e-01
 -2.2065930e-02
 -1.8992187e-02
 -3.9794646e-02
  6.3883595e-02
  3.7295233e-02
  1.2858717e-02
 -2.3247458e-02
 -9.4159599e-03
  1.6830176e+00
 -2.1475736e-02
 -5.6786081e-03
  1.6816666e-02
 -1.1568694e-01
  1.4640618e-02
  1.2400698e-02
 -4.9044129e-02
 -4.7486134e-02
 -1.0651780e-02
  7.1743965e-02
 -1.8336876e-01
  2.2093529e-01
  1.5065663e-01
  1.7077072e+00
 -3.2059246e-01
  8.2973111e-03
  2.3328273e-01
 -2.3448633e-02
 -4.7520059e-01
 -1.4509943e+00
 -8.1603885e-02
 -2.4604309e-02
 -7.7261338e-03
 -8.0909002e-01
  2.4782691e-02
  2.2946957e-02
  1.5928128e-03
 -2.0210132e-02
  8.0249766e-03
 -5.2417270e-03
  1.7137004e-01
  8.6200256e-03
 -2.2355771e-01
 -7.5181492e-02
 -7.6569453e-02
  3.8554966e-02
 -1.5548474e-01
  1.1381787e-01
 -1.8285197e-01
 -1.3182108e-01
 -7.4745126e-02
 -1.0428514e+00
 -8.2389802e-02
 -2.1246340e+00
  5.7497293e-02
 -2.8278349e-02
 -7.7268690e-01
 -2.9002330e-01
 -1.0558692e+00
 -5.3056598e-01
  1.0658689e+00
 -1.3469849e+00
 -3.0958064e+00
 -1.4810048e+00
  3.2228699e-01
  7.8380156e-01
  4.0075758e-01
  7.3863935e-01
  1.1794323e-01
  2.3911169e-01
  3.8876867e+00
 -1.0207483e+00
  7.9465680e-02
 -8.0165553e-01
 -1.4997236e+00
  4.9621403e-02
 -2.3980102e-01
 -1.0163703e+00
 -9.0473217e-01
 -1.3438091e+00
 -3.9489165e-02
  1.8234365e-01
 -2.8127613e-03
 -1.1028849e-01
 -1.0384558e-01
 -5.0562348e-02
 -2.7757997e-02
  5.8468655e-02
 -1.8186551e-02
  1.0856336e-01
 -6.0490016e-02
  2.6905350e-04
  3.5275713e-02
 -8.7653443e-02
 -7.1561135e-02
  3.2405119e-02
 -4.2665020e-02
 -8.9658471e-03
  1.6286433e-02
 -2.1386528e-03
 -3.8027503e-02
 -7.0773385e-02
  1.2156256e-02
 -5.4751590e-02
 -6.5508531e-03
 -4.0803615e-02
  9.5932886e-02
  1.1247527e-03
  2.7732823e-02
 -7.9754695e-02
  1.2440016e+00
 -1.2682234e-01
 -4.6793136e-01
 -5.8163524e-01
  1.2549919e+00
 -3.2120112e-02
 -5.5970307e-02
 -1.3424920e-01
  4.8874579e-02
 -7.0649333e-02
  1.2532908e-01
 -2.4621062e-02
  4.5206849e-03
  3.9403096e-02
  9.9254973e-02
  6.1843339e-02
  2.1675993e-02
 -2.4628490e-01
  2.8359365e-02
  4.2275777e-01
  3.0950118e-02
  1.6670534e-01
 -4.5761102e-01
  7.1511015e-02
 -1.5877230e-02
 -3.0308416e-02
  4.4367600e-02
 -5.7817198e-02
 -2.0610647e-02
 -3.3710733e-02
  1.0697258e+00
 -7.6865219e-02
 -3.4257867e-03
  1.4293672e-02
 -8.4559679e-01
  5.8274041e-03
 -3.4287342e-01
 -2.5778886e-02
  1.6212184e-02
  1.5353970e-03
  2.4013847e-01
 -3.7906747e-02
 -7.5759162e-06
 -1.4078688e-02
  8.3739152e-03
  1.3188375e-02
 -2.5525708e-03
  3.2073684e-02
 -1.1254325e-02
  4.1593701e-02
  2.5661999e-01
  1.4398756e-02
  5.1639248e-02
 -8.2461096e-02
 -1.3876200e-02
  6.6810012e-02
  6.5200932e-02
  8.0163567e-04
 -3.7457831e-02
  1.2843486e-02
  2.9021725e-03
  2.4347082e-02
 -4.1472305e-02
 -1.5471779e-02
  2.7330201e+00
  2.6293535e-02
  3.6821538e-03
  5.7388116e-02
  5.1228981e-02
  1.3827424e-02
 -4.6591437e-01
 -1.1504088e-03
 -2.4720002e-04
  1.1953945e-01
  1.8221218e-02
 -4.7002178e-01
 -5.7101585e-02
  4.7975224e-02
 -2.7856262e-02
 -8.3166854e-03
 -1.1216022e-01
  6.6123806e-02
 -2.7643558e-01
 -2.3928540e-02
  1.0218002e-02
  3.0470360e-03
 -6.0616024e-02
  7.1497910e-02
 -7.7368226e-03
 -1.5720947e-02
 -2.3281670e+00
  1.4221338e+00
  1.5808990e+00
 -1.8165951e+00
  2.4900667e-01
 -8.8480860e-03
  2.3952408e-02
  2.3842759e-02
 -6.0483241e-03
 -7.2223052e-02
 -7.7002617e-03
  3.0742984e-02
  3.1274669e-02
  6.9587743e-03
 -4.1422822e-02
  4.1202337e-02
 -1.0801588e-01
  1.7661030e+00
  9.1520911e-03
  7.6874226e-02
 -5.9182709e-03
  1.2288134e-01
  1.5113902e+00
  3.3729225e-02
  5.7873856e-03
 -2.5943670e-02
  3.1562049e-03
  2.3245996e-02
 -3.2309242e-02
 -3.3044571e-03
  3.8417602e-01
 -1.5683098e+00
  1.8707377e-01
  3.5864443e-01
  7.0129894e-02
 -1.6634954e-02
 -5.3761506e-01
 -2.5125229e-01
 -3.9478678e-01
  3.5318443e-01
 -3.5545956e-03
  2.0754075e+00
  3.7839157e-03
 -1.0999689e+00
 -1.8993449e-01
 -6.0767313e-03
 -2.9127830e-01
 -2.3253572e-01
  4.4528738e-02
  1.8017122e-01
 -2.0116841e-02
  1.5562977e+00
 -1.1298645e+00
  1.1399187e-01
 -4.1484248e-02
 -2.3472283e-02
  5.0417669e-03
 -4.4794729e-01
  7.6242484e-02
 -1.4395522e-01
 -1.0461396e+00
  4.1789655e-02
 -7.6470369e-01
  3.6471384e+00
  1.0354105e+00
 -5.0133184e-02
 -1.1332767e-01
 -2.9283330e+00
  2.5900691e+00
 -2.1444728e+00
  6.2087066e-02
 -3.9628789e-01
  1.5908597e-01
  1.3093677e+00
 -1.1092895e+00
 -1.6531383e-01
  8.8085419e-01
  7.9078680e-01
 -9.4519269e-01
  7.6037228e-01
 -1.2581742e+00
 -1.5359174e+00
 -2.4336472e+00
 -2.2618577e-01
 -1.8969060e+00
  2.9507089e-02
  7.1015239e-01
  5.4757458e-01
 -2.5354221e-01
 -5.7611171e-02
 -2.8939924e-01
  6.8498373e-01
  4.4898045e-01
  1.8335989e+00
  3.7057459e-01
 -3.9803013e-01
  1.1816029e-02
 -1.7441949e-01
  3.1093431e-01
  1.0766001e+00
 -2.5729464e-02
  2.9550949e-01
  6.9350380e-01
 -4.5318627e-01
  5.5684611e-02
  3.1118792e-01
 -1.2317383e-01
  1.0237920e+00
  1.1019871e-01
 -1.3466115e+00
 -1.4346945e-03
 -1.1156237e-01
  6.2983745e-01
  1.7831053e-01
  2.3940738e-01
  1.1364377e-01
 -1.0645711e-01
  5.6688082e-01
 -1.8979716e+00
  7.0239283e-02
  5.6548871e-02
 -3.1598869e-01
 -6.2689885e-02
 -4.2355925e-01
  3.6820516e-01
  5.6795314e-02
 -7.3144488e-02
  2.1249121e-01
  2.9049277e-01
  1.1411880e+00
  9.8616984e-03
 -1.9152961e+00
  3.5065511e-01
  8.9346868e-01
 -7.0019853e-01
 -2.6645309e-01
  3.6020499e-02
 -7.4214166e-01
  5.3914303e-01
 -2.5211304e-01
  6.7873818e-01
 -7.3830241e-01
  1.0632465e+00
 -1.4297335e+00
  1.0283820e-01
 -9.3284540e-02
  1.1204735e+00
 -6.7224437e-01
  1.8404999e+00
  1.2790214e-01
  1.7965877e+00
 -2.2704683e-01
 -4.9203815e+00
 -1.1517938e-01
  1.9865581e-01
 -3.6691379e-02
  8.3078638e-02
  4.2725414e-01
 -1.7194623e-02
 -2.7014649e+00
  3.9113447e-02
 -1.7474400e+00
  1.6992232e+00
  2.4543269e-01
 -3.1576109e-01
  4.7176716e-01
  5.0668609e-01
  3.1822363e-01
 -4.3644243e-01
 -5.0165311e-02
  3.5362297e-01
  8.8267124e-01
  4.6204767e-01
  3.8174239e-01
 -1.0133477e+00
  1.0100473e-02
 -4.8061088e-03
 -1.2666104e+00
  5.9973486e-02
 -3.5952038e-01
 -7.7993542e-01
 -2.3743261e-01
 -7.2871083e-01
  4.3309651e-02
  3.4722248e-01
 -4.5546582e-01
 -4.0742379e-02
 -1.3720836e-02
 -7.4013568e-02
  2.3615217e-02
 -5.0898455e-02
  8.6275451e-02
 -5.3962785e-01
 -1.5249099e-01
 -3.8878608e-03
  8.2723391e-01
 -5.5571189e-03
  5.5247259e-01
 -9.9698210e-01
 -1.1889597e-01
  1.1376190e-01
 -8.3057576e-01
 -9.7350872e-01
 -9.8633409e-02
 -2.4376618e-02
 -4.4441290e-02
 -1.2865397e-01
 -6.8378277e-02
  3.2229638e-01
 -7.7375546e-02
 -2.8354940e+00
 -1.0070200e-02
 -4.5194089e-02
 -7.7693743e-01
  1.6302496e-02
  7.3465388e-03
 -7.8458069e-03
  7.5149797e-02
 -7.9248548e-03
 -8.6564906e-03
  8.5930906e-02
 -3.7278153e-02
  6.8631321e-02
  2.8763600e-02
  1.1985004e-02
  8.6628487e-03
 -4.9704809e-02
 -2.5971406e-03
 -2.4263959e-02
  6.8903424e-02
 -5.6357121e-01
  1.4623650e-02
  4.1906759e-02
  2.4783360e-03
 -1.7361309e-02
  9.2015946e-03
  1.3212703e-01
  2.1425294e-02
  2.8432602e-02
 -5.9850279e-02
  7.4938357e-01
 -2.5514126e-01
  1.9766563e-01
 -6.0051882e-01
 -1.4315030e-01
  1.3112070e-02
 -4.4883162e-02
 -5.8074225e-02
 -1.5134362e-02
  1.5337706e-01
 -3.2276444e-02
  5.8017743e-01
 -3.2157853e-01
 -4.0688387e-01
  3.9076161e-01
 -1.4394888e-02
  3.7405115e-02
  6.5335387e-01
  1.0582116e-02
 -2.8131479e-02
 -2.4265885e-01
 -8.0188715e-01
 -1.3310844e-01
 -1.6780502e-01
  7.5436034e-03
  3.7102744e-02
 -7.4127652e-03
 -4.9855590e-02
 -1.6043021e-01
 -6.3348249e-02
 -7.8279591e-01
  3.3392265e-01
  4.4998696e-01
  7.3145026e-01
  2.1507150e-01
  2.5576970e-02
 -1.1821277e-02
 -1.6347398e-01
  3.4419090e-02
  2.9429859e-01
 -7.0949523e-03
  4.4282032e-03
 -1.4856754e-01
 -9.2320517e-03
  7.4774600e-03
  2.5303211e-02
  1.1670101e-02
  3.1928754e-01
  5.6458171e-04
  2.5345387e-02
 -6.6049270e-02
 -2.2593196e-02
  1.0198720e+00
 -1.8618268e-01
  9.4017377e-03
  1.8900528e+00
  4.3415084e-02
  3.7703663e-05
 -2.9854193e-02
 -1.2624757e-02
 -2.3195038e-02
 -5.4137658e-02
  3.1388545e-01
 -1.0116136e-02
 -6.6839290e-01
 -1.2612326e-02
  1.4399162e-02
  8.3673052e-02
 -6.5742835e-02
  2.4169805e-03
  4.3249294e-02
 -6.8090092e-03
 -7.0076302e-02
 -2.9243015e-02
  2.2935404e-02
  1.1140868e-02
  3.0939214e-02
  3.8347549e-03
 -3.9205614e-01
 -1.3007388e-02
  4.4729806e-02
 -7.8783184e-02
  3.9654917e-01
  2.0550357e-02
 -2.6790466e-02
 -6.5535292e-02
  7.3492058e-02
 -7.8576319e-02
  7.8934245e-03
 -2.3567721e-01
  1.1066267e-02
 -8.8946298e-03
  5.4602057e-02
 -3.7081074e-02
  7.0436662e-01
 -6.3128039e-02
 -6.1027434e-02
 -4.6785325e-02
  9.9798646e-03
 -8.9817289e-03
  2.1937122e+00
 -6.4073771e-02
 -2.7809575e-02
  2.9846683e-02
  1.0088572e-02
 -5.9351438e-01
  2.1987079e-02
 -1.1393273e-02
  1.2111383e-02
  1.3273025e-02
 -1.3914705e-02
 -2.1378599e-02
 -3.4420114e-02
  4.0743530e-02
  4.2243429e-02
 -3.6463302e-02
 -1.8889481e-03
 -2.7290387e-02
 -3.0656857e-02
  4.8571628e-01
 -4.9530771e-01
  5.9395432e-01
  5.7090598e-01
  1.0281841e+00
 -7.5637691e-02
  4.0065795e-03
  4.4718069e-01
  1.0087693e+00
 -5.4549527e-01
 -1.8551203e+00
  5.3336942e-01
 -1.4564521e+00
  1.0196723e+00
 -1.6524664e+00
 -2.8966027e-01
  1.1038930e+00
 -2.7550383e+00
 -3.0302957e-01
 -5.7023746e-01
 -2.4898202e+00
  4.4373035e-01
  3.3094206e-01
  5.5234468e-01
  9.7009562e-02
 -1.1857797e+00
  4.9039740e-02
  6.3560534e-01
  6.7101651e-01
  1.8675713e-01
 -1.2380201e-01
 -3.0125111e-01
 -2.3211084e-01
 -1.2722071e+00
  2.3540126e-02
 -6.8595417e-02
  1.0840019e-01
 -9.1688456e-03
  6.9336355e-01
 -1.1142942e-02
 -4.3346547e-02
 -1.3868911e-02
 -6.7110062e-03
 -3.5702392e-02
  2.2178799e-02
 -2.0010015e-01
 -5.1158067e-02
  6.2325494e-03
  7.9948576e-03
  3.3990354e-03
 -2.5136756e-02
 -1.1394918e-04
  9.6566838e-01
 -1.4645417e-01
 -4.7779288e-03
 -1.8103531e-02
 -2.5359043e-01
 -5.7079769e-03
  5.9186444e-02
 -1.2786585e-02
 -2.1350805e-02
  2.1821959e-01
 -1.6143137e-01
 -3.9257914e-01
 -2.7337003e-01
  2.1742347e-01
  3.3516694e-02
 -2.0369884e-02
 -1.6350873e-01
  7.5627017e-01
  9.9326402e-02
 -4.1430421e-02
 -1.8837219e-02
 -5.0215304e-02
 -1.3941936e-02
  2.3580592e-02
  4.6325155e-02
  2.6842267e-03
 -9.3250610e-03
 -2.6044065e-02
 -1.3271854e-03
  8.2964525e-03
 -3.2574903e-02
 -4.1013326e-02
 -1.0663178e-02
  2.9317465e-01
 -7.5389713e-02
  4.1907456e-02
 -1.0942162e-02
 -3.7488258e-03
  4.3984234e-02
  1.7792921e-01
  1.5989926e+00
  1.1140020e-01
  6.2289143e-01
  2.1525590e+00
  9.3646832e-02
  2.4301559e-01
  2.5546819e-01
 -4.6906013e-02
 -6.0769236e-01
  4.1194105e-01
  3.1350769e-02
  5.6550914e-01
 -1.8833609e-01
 -2.7369991e-02
 -9.2686909e-01
 -2.4055970e-01
 -1.3741241e-01
  1.2272588e+00
  1.1096743e-01
  6.1035061e-01
 -4.1287513e-03
 -1.7416883e-01
  2.6701074e-02
 -1.2858660e-02
  2.3733349e-01
  1.6528820e+00
 -1.3302485e+00
 -4.2300180e-01
  3.1352872e-01
  6.6165105e-02
 -3.5848972e-01
  5.5988684e-02
 -1.9788526e+00
 -3.3731058e-01
 -5.9328813e-02
  7.0390487e-01
  1.8966542e+00
  5.4657068e-03
  4.8971388e-01
  2.2614722e-01
  2.9024635e-03
  3.3892386e-02
  1.1281900e+00
  1.0707922e-01
  3.7858564e-01
  5.3381050e-01
 -1.9148684e+00
  8.1206307e-02
 -1.0505027e-01
  4.5786408e-01
  1.0726237e+00
 -2.5039578e-02
  2.6867655e-01
  2.0437144e-02
  1.1509212e-01
 -7.4686236e-03
  3.3454320e-01
 -3.7563466e-02
  7.8023002e-03
  1.5224096e-01
  2.7950045e-01
 -2.2242461e-01
  7.5113297e-02
 -6.9807005e-01
 -3.1741127e-02
  7.2436786e-01
  5.7565403e-01
 -4.4422038e-02
 -1.0035547e+00
 -5.0091952e-01
 -2.5167871e-01
  2.4221531e-01
 -1.1557634e-01
 -3.0414677e-01
  7.9924363e-01
  5.2884889e-01
 -8.4683120e-01
 -7.7348429e-01
 -5.5166084e-01
 -1.4142267e+00
  7.6670724e-01
  1.0313425e-01
 -1.6953883e+00
 -5.4851454e-01
  3.3405036e-01
 -9.2905718e-01
  6.9560802e-01
 -1.4611019e-01
  8.6334482e-02
 -5.2767938e-01
  2.1522710e-02
  3.1738803e-01
 -1.2448641e+00
 -1.3523576e-01
  5.9725934e-01
 -2.4895396e+00
  5.8068824e-01
  1.4752959e+00
 -6.3236141e-01
 -4.6679851e-01
  1.8314205e+00
 -6.8087590e-01
 -1.5248234e+00
  2.1835289e+00
  4.7215840e-01
  6.7124498e-01
  3.5278243e-01
 -2.2525885e+00
  1.5874451e+00
 -6.2707515e+00
  1.9515959e+00
 -2.7608581e+00
 -4.8153865e-01
 -1.8395214e+00
  1.0484402e+00
 -6.5416461e-01
 -1.1339594e+00
 -2.0575078e+00
  1.3678977e+00
 -3.6429125e-01
  5.7050711e-01
 -1.8539915e-02
  1.2201437e-01
 -2.2063036e-01
  4.2538035e-01
  9.8121203e-02
 -2.5849335e-02
 -2.8982174e+00
  1.1828777e-01
  1.8565960e-02
  1.6025776e+00
  1.9383867e-01
 -1.7364787e-01
 -1.5651162e-01
 -8.9626305e-02
  4.3751433e-02
 -2.0863220e-02
 -1.8705857e-01
  3.6011669e-01
  1.8768406e-01
  6.9641608e-01
 -4.1792017e-01
 -1.6534336e-01
  6.1210692e-01
 -3.8428417e-01
 -2.0442611e-01
 -5.7095808e-01
 -5.9862798e-01
  6.2952034e-02
 -9.7485590e-01
  1.4192578e-01
  2.1799426e-01
  5.7791978e-02
 -5.9016269e-02
  9.1007888e-02
  4.7581554e-03
 -1.1913383e-02
 -1.8658515e-02
 -4.3131806e-02
 -4.5246281e-02
 -2.8105136e-03
  2.0585869e-02
 -2.1879347e-02
  1.1734469e-02
 -6.7210579e-03
 -1.7583396e-02
  6.5813214e-02
 -5.7805767e-03
  1.6049590e-02
 -9.1361580e-03
  1.3204813e-02
  3.3625606e-02
 -3.3412356e-02
  6.8802848e-02
 -2.2206411e-02
 -4.8505779e-02
 -2.2544464e-02
  3.1238737e-02
  1.0588840e-01
  2.0032566e+00
  1.5579647e+00
  3.5489924e-02
 -1.1131928e+00
 -1.4136361e+00
 -3.8276538e-01
  1.2239563e+00
 -1.2456516e+00
 -4.4545999e-01
 -1.9936560e+00
 -1.3913116e+00
  2.7776220e+00
  1.8843706e-01
  7.0133135e-03
  2.3434937e-01
 -1.2680135e+00
  1.1867447e+00
 -7.5931299e-01
 -3.2596609e-01
 -1.0579793e+00
  1.0302286e+00
  4.2692009e-01
 -9.6184069e-01
 -2.1650193e+00
  9.3819880e-01
 -5.4840255e-01
 -4.9192756e-02
  1.0882495e-01
  2.0930951e-04
  1.5468465e+00
 -3.3220300e-01
  2.5017066e+00
 -4.4477099e-01
  1.7126594e+00
  1.4085429e+00
  1.7065246e+00
 -3.5415980e-01
 -2.8605928e+00
 -7.4838680e-01
  1.0503174e-01
 -8.2827419e-01
  6.7939222e-01
 -7.0588779e-01
  3.0662441e+00
 -1.8321038e+00
  6.0599226e-01
  4.4129071e+00
  1.4885916e-01
  2.9262716e-01
  3.1831210e+00
  1.9243189e+00
  1.2196589e+00
  8.5208124e-01
 -4.8120135e-01
 -2.6641123e+00
 -3.6873786e+00
  1.7383181e+00
  7.9680377e-01
  4.9692700e-03
 -9.5797122e-01
 -2.6526019e-01
 -9.7266108e-02
 -8.1399173e-02
 -5.1326724e-04
 -1.9492112e+00
  7.3193960e-02
 -6.9359869e-02
 -2.0534289e-01
  3.5405539e-03
 -1.6682846e-02
 -4.2597968e-03
 -1.2273921e-02
 -9.2814244e-02
 -1.9864140e-02
  2.1702217e-02
 -3.0941499e-02
  3.5970654e-02
 -1.1203009e-02
  5.0976556e-03
  1.7894438e-02
  3.7703332e-02
  1.2993301e-01
  2.1998003e-02
 -1.6974321e-01
 -2.0233354e-02
 -2.6824526e-02
 -1.5485018e-02
 -3.4399960e-02
  1.5438180e-02
 -3.3897944e-02
 -1.2010115e-01
  2.6113352e-01
  9.7323066e-01
 -1.9744733e-01
 -7.3803610e-01
  9.0930617e-01
 -1.1513099e-01
 -3.1623805e-01
 -2.3676364e-01
  4.2966804e-01
  4.1212663e-01
  3.7591851e-01
 -8.4137224e-02
 -1.5792526e-01
  2.2938998e-01
 -2.5882632e-01
  4.4678551e-01
  1.9455935e-01
  8.1590474e-02
  7.0719206e-01
 -3.2415026e-01
  1.6552873e-01
  4.9385422e-01
  9.0320043e-02
 -1.9546963e-02
  1.1084802e-01
  1.1917768e-01
  7.3567040e-02
 -5.9300292e-01
  1.1607527e+00
  4.6441287e-02
  2.2224928e-01
  3.9193401e-01
 -1.0417715e+00
 -2.6737741e-01
 -1.7547584e+00
 -1.2062237e+00
 -2.2363415e-01
  9.3188125e-01
 -8.5532272e-01
 -1.9936450e+00
 -2.0659352e-02
 -3.4630071e-02
  1.3593900e+00
 -2.2171393e-01
 -1.8538508e+00
  1.3652682e+00
 -7.3755562e-02
  2.3147400e-01
 -3.7909430e-01
  7.5247705e-01
  5.3067315e-01
  1.7827349e+00
 -5.1958829e-01
 -2.9023510e-01
 -6.9284046e-01
  9.9336542e-02
 -3.2735012e+00
  7.8623480e-01
 -1.4121901e+00
  3.7615013e+00
  3.1808951e-01
  1.6542038e+00
 -1.4283329e+00
 -2.0449717e+00
  1.5301660e+00
 -2.4211013e-01
 -3.7984022e-01
 -1.9098301e+00
 -4.5804226e-01
  2.4813924e+00
 -2.3900337e+00
 -6.4154613e-01
  8.7897420e-02
  2.4137414e+00
  2.0488243e-01
 -1.5858352e-01
 -1.7307529e+00
  8.8853794e-01
  4.3081120e-01
  3.4783542e-01
  5.8236343e-01
  2.3004780e+00
  3.8251822e+00
 -7.3452793e-02
  3.1759179e-01
 -1.0531370e-01
  3.5472247e-01
 -1.4343207e-01
  6.7079943e-01
 -1.8061654e-01
 -5.2338904e-01
  1.2082757e+00
 -4.5768008e+00
 -8.5666239e-01
  2.1220644e+00
 -4.1867175e+00
 -2.6220934e+00
  2.4450634e+00
 -2.0173056e-01
 -1.6379410e-02
  2.7224658e+00
 -1.5644222e+00
  1.1931887e-01
 -1.1627138e-01
 -3.7281325e+00
  9.2104328e-01
 -2.8589338e-02
  2.7608120e+00
  1.1576805e+00
  3.9132724e+00
 -3.9034286e+00
 -5.6915349e-01
  1.6816269e+00
 -6.8370277e-01
 -2.1212394e+00
  5.3665179e-01
  2.4471083e+00
 -3.7645698e+00
  2.6613754e-01
 -1.1793330e+00
 -2.2202101e+00
  1.0371412e+00
 -8.7593353e-01
 -8.2370067e-01
 -1.0100285e-01
  1.3414811e+00
  9.2328280e-01
  6.2469429e-01
  3.7089825e+00
  7.3823249e-01
 -2.5047481e-01
 -2.2989477e-03
  1.0583402e+00
 -1.0575434e+00
 -1.4071918e-01
  3.8274214e-01
  4.2192829e-01
 -8.9056967e-03
 -8.8488799e-01
  1.4080539e+00
  1.4865321e-01
 -4.2154551e-01
 -5.4665387e-01
 -1.2901428e+00
  2.2377861e+00
  3.7957418e-01
 -3.3106828e-01
 -6.7822868e-04
 -7.4934298e-01
 -2.2466274e-01
  7.1573094e-02
 -7.2342388e-02
  7.2075643e-02
 -4.3047377e-01
  5.1093990e-01
 -2.9789954e-02
 -1.0044628e-01
 -2.3990956e-01
  1.0277480e-01
  3.5967138e-02
  2.6165587e-01
  1.0801867e-01
  3.8255873e-01
  1.6963980e-01
 -6.6191614e-02
  1.3769786e-01
 -1.7209227e-01
  4.8051644e-02
 -2.0391878e-01
 -5.6911695e-01
  7.2861654e-01
 -1.7212784e-01
 -2.0884624e-01
 -3.4368560e-01
  3.3459941e-01
 -2.8339613e-02
 -8.1800528e-02
  1.0102768e+00
 -2.3830667e-01
  6.9561489e-02
  4.8543975e-01
  4.0379962e-01
  1.0896009e-01
 -2.8234425e-01
 -7.4174035e-01
  8.1578749e-01
  1.0241503e-01
  1.4656017e+00
 -1.6477429e+00
  3.2716259e-01
  7.9860970e-02
  1.1272420e+00
  3.1500664e-01
  5.0827146e-01
  2.9687338e+00
 -5.3460360e-01
  9.4389987e-01
  6.9266856e-02
  3.2613578e-01
  1.5708929e-01
  1.5723279e+00
 -2.8394774e-02
  2.1383065e-01
 -8.0781035e-02
  1.5607179e+00
  3.6343649e-01
  6.9678593e-01
  2.4834570e-01
 -4.9416628e-01
  8.7543733e-02
 -9.5085365e-01
  2.5813422e-01
 -2.9948866e+00
 -1.0592312e-01
  3.3155015e+00
 -3.6130852e-01
 -7.4234772e-01
  2.1646754e-01
  1.0579751e+00
 -3.1066689e-01
  2.3310874e-01
 -2.5126934e-02
 -9.1858292e-01
 -2.6558161e-01
 -1.0397122e-01
  9.8517001e-02
  3.5234887e-02
 -4.4435635e-01
 -1.1476916e+00
  1.9130149e-01
 -2.8936176e-02
  1.5606248e-01
 -9.9844597e-02
 -1.4880681e+00
 -3.7752578e-01
 -1.2568388e+00
  2.4592845e-01
  1.3697733e-01
 -9.2072982e-01
 -5.9979491e-02
  4.6520421e-01
 -1.4782870e-01
 -1.3960454e-01
 -4.6740842e-01
  6.1668489e-02
 -5.7226375e-02
 -4.8216484e-03
 -7.1892008e-02
  2.9414192e-01
 -1.5744634e-01
 -1.7842972e-01
  1.0481762e-01
 -2.0334753e-01
 -3.1743979e-01
  1.5614270e-02
  9.7463809e-02
 -4.4673204e-02
  3.1007120e-01
  6.0306764e-01
  1.2407584e+00
  8.6227936e-01
 -6.3551897e-03
  6.9583625e-01
  9.4946718e-01
 -7.2285396e-01
 -3.3707435e+00
  8.6518630e-02
  1.9043757e-01
  4.2323661e-01
 -9.5082529e-02
 -6.2125665e-01
  5.6979644e-01
  1.1662641e-01
 -3.7707052e-01
  5.3232968e-01
 -1.0128459e+00
  3.6092535e-01
 -2.1055233e-01
 -1.8060617e-01
  5.8553874e-01
  2.0473416e+00
  1.2627235e-01
  1.0635388e+00
 -8.5849249e-01
  1.3656120e+00
 -5.3694963e-01
 -2.2621578e-01
 -2.1154860e-02
 -1.3764478e-01
  1.2076526e+00
  2.5282681e-01
 -1.6100889e+00
  3.7996578e-01
  2.1343501e-01
  3.8968465e-01
  5.3916126e-01
  3.4980804e-01
 -3.1392720e-01
 -9.8390698e-01
  9.9345905e-01
 -5.2149653e-01
 -4.0682757e-01
 -3.3105674e+00
 -1.3310074e+00
 -1.2803249e+00
 -3.2855766e+00
 -1.4639993e-01
  2.9435980e+00
  2.6456695e+00
  1.2970695e+00
 -4.7243047e+00
 -2.8047475e-01
 -3.0370462e-03
  2.7683773e+00
  3.8285083e-01
  7.3265886e-01
 -1.1118411e+00
  1.8490112e+00
 -1.9618378e+00
  4.3674123e-01
  4.6506805e+00
  6.8847948e-01
 -1.0145016e+00
 -5.2772431e+00
  1.5747349e+00
  1.0231234e+00
 -1.5630597e-01
  2.7890487e+00
 -8.3722699e-01
 -1.0684072e+00
 -1.8320991e-01
 -1.2575581e+00
 -1.4626638e+00
  2.0940609e+00
 -3.0804486e+00
  3.2568014e-01
  5.2175289e-01
 -1.8970957e+00
 -2.6820895e-01
 -1.4712489e+00
  2.6268384e-01
 -2.2905798e+00
  2.5685859e+00
 -2.5025477e+00
  9.0364655e-03
 -2.9280301e-02
 -2.0355836e-02
  1.9043525e+00
  2.8291438e-02
  3.2400012e+00
  7.6025802e-01
  9.2373514e-01
  2.0986319e+00
  2.8475404e-01
 -1.0313249e-01
 -6.0976738e-01
 -4.4510257e-01
  1.8076012e-02
 -2.7468646e+00
 -2.4203618e+00
  2.7775793e+00
 -8.1327403e-01
 -3.5158840e-01
 -1.3870193e+00
  2.2137990e-02
 -3.0154139e-02
 -3.9023007e-03
 -1.2000568e-01
  9.1001654e-01
 -2.5996697e+00
 -3.1573865e-01
  3.9547488e-01
 -9.4760209e-01
 -9.2464566e-02
 -2.8663152e-01
 -1.3973770e+00
 -3.1375516e-02
 -6.5072006e-01
 -1.4924730e+00
 -1.1364197e+00
 -1.8550844e+00
  2.7579105e-02
  3.6574739e-01
 -5.6624466e-01
  2.4331205e-01
 -8.8483500e-01
  5.6022775e-01
 -1.8612579e-02
 -2.3284363e-02
 -1.3152055e+00
 -2.5231254e-01
  2.9546991e-01
 -5.1018262e-01
  2.5566973e-02
  1.1641847e+00
  7.6594663e-01
 -6.6633873e-02
  3.0660183e+00
 -5.1898617e-01
  4.1205153e-01
  8.3775407e-01
 -1.2754631e-01
  5.9169835e-01
  5.5972713e-01
 -1.3413770e-01
 -2.0896137e+00
  1.2088571e+00
  3.0079111e-01
 -1.8624460e+00
 -1.1121172e-01
 -1.8739613e+00
 -3.2011589e-01
 -1.0198592e-01
  2.4645343e-01
  2.1734117e-01
  1.1498915e+00
  1.7546803e+00
  8.4176175e-02
 -4.2339110e-01
 -6.1567050e-01
 -1.7341508e-01
 -1.8180605e+00
 -5.8692873e-02
 -1.5199274e+00
  7.6922339e-01
  1.5212911e+00
  8.4108561e-01
 -3.0360078e-02
  2.6188436e+00
 -1.9850572e+00
  7.6818609e-01
 -4.7428527e-01
  8.3012897e-01
  1.6109186e-01
  1.6280667e+00
  1.9079816e+00
 -1.0386635e+00
  6.4785892e-01
 -2.8425510e+00
  1.4222538e+00
 -1.7319064e+00
 -2.8986388e-01
 -2.7817714e+00
  3.0833743e+00
  2.6909511e+00
 -1.0927856e+00
  1.4112826e-01
  3.3946583e+00
 -1.9266865e+00
  1.2917621e+00
  1.7419425e-01
 -4.8099447e-02
  4.8765745e-02
 -1.4042433e-01
 -3.2160945e-02
  4.4420082e-02
 -1.3499672e-02
  1.9810993e-02
  9.8764226e-03
 -8.7214887e-02
 -6.0827240e-02
 -4.8632022e-02
  1.1115703e-02
  9.1928616e-03
  1.2737175e-02
 -9.8367959e-02
 -1.8085821e-02
  8.6202193e-03
 -3.7987154e-02
 -1.6515455e+00
  5.7911664e-02
  4.3900061e-02
  5.3868223e-02
 -2.1702003e-02
  4.7352951e-02
 -2.5105340e-02
  6.5795511e-02
  5.1762246e-02
 -5.7334453e-04
 -1.1206630e+00
 -2.8813584e+00
  1.6287439e+00
 -1.1486052e+00
 -3.5781629e+00
  2.6798813e+00
  4.7659624e-01
  2.1422944e+00
 -1.0418173e+00
  7.4610066e-01
  5.1658332e-01
  1.6547661e+00
  1.9092346e+00
  1.8945381e-01
  1.1475809e+00
 -1.0811330e+00
 -3.9955106e+00
 -1.4940383e-01
 -5.8726985e-02
 -1.6092430e-01
 -5.8896887e-01
 -7.4936074e-01
 -3.6768413e-01
  7.3807143e-02
  1.7384280e+00
  1.6574648e-01
 -1.8409242e-01
 -1.2571745e+00
  9.0882252e-04
  1.1335667e+00
 -1.7044017e-01
 -2.6740777e-01
  5.7721061e-01
  6.6032648e-01
  1.5101656e-01
  5.6069460e-02
 -6.9923002e-01
  1.5671624e-01
 -5.7311963e-02
  2.2908054e-01
  6.6461056e-02
 -6.3361031e-01
  2.9862821e-01
  4.2186466e-01
 -1.3806374e-01
 -4.9654782e-02
 -2.0426154e-01
 -2.2374630e-01
 -7.6803899e-01
 -1.3349234e-01
 -1.5716781e-01
  9.3316305e-01
 -9.3209016e-01
 -1.6118338e-02
 -2.5396660e-01
 -9.9734999e-02
  2.7976295e-01
 -2.5963202e-01
 -1.6292385e+00
  1.1801407e-02
  2.9972889e+00
 -3.1837869e-01
 -1.4687445e+00
  5.5190903e-01
 -1.7896569e+00
  1.6609404e+00
  8.2932347e-01
 -2.8671529e+00
 -1.6209693e+00
 -5.8440727e-01
  3.3938158e+00
 -7.2712409e-01
 -1.6706896e+00
  1.2240236e+00
 -1.7300037e+00
 -1.4885998e-01
  3.0859786e-01
  7.7886182e-01
 -1.2140907e+00
 -6.3092363e-01
  4.9058983e-01
  7.9333854e-01
  7.4205768e-01
 -5.4642689e-01
 -9.7282839e-01
  4.7064149e-01
  6.5546381e-01
  4.6613124e-01
  1.4473141e+00
 -9.1298032e-01
 -1.0587989e-01
 -2.0200400e+00
  8.6427504e-01
  1.3113337e+00
  9.9947706e-02
  1.6826682e+00
 -4.2984190e+00
  2.4735589e+00
  1.7659899e+00
  7.6882118e-01
  1.3350955e+00
  1.6091652e+00
  1.9205253e-01
 -1.7293256e-02
  3.9154223e-01
 -1.2843312e+00
 -2.8757403e+00
  2.9751943e-02
 -1.1381595e+00
  1.1200871e+00
  3.0890834e-01
  2.9475918e+00
 -9.2544967e-01
 -2.3663881e+00
  3.1288943e+00
 -5.1041257e-01
  4.6568322e-01
  1.5394615e-03
 -2.5643462e-01
 -2.2156303e+00
  2.2726958e+00
  2.1467383e-01
 -1.1147155e+00
 -2.6298565e-01
 -2.6549792e+00
  1.5036249e+00
 -3.2724323e+00
 -1.1279504e+00
  1.3164076e-01
 -2.4647984e-01
 -1.7333183e+00
 -1.3880988e+00
  6.0282892e-01
 -2.3682294e+00
  2.4872643e-01
 -1.1002344e+00
  4.3054730e-01
 -3.1902716e-01
 -4.9935400e-01
  2.7172711e+00
 -1.5825683e-01
 -9.7836860e-02
 -3.2880664e+00
  2.4181614e+00
 -1.5597310e+00
 -1.1040788e+00
  2.8988137e+00
  1.8236442e+00
  2.2500709e-01
 -4.7302589e-01
  7.5652361e-01
  1.5209550e+00
  3.5037420e+00
  6.2776750e-01
  8.6160254e-01
  1.2600543e+00
 -5.3863358e-01
 -1.4591058e+00
 -2.4376221e+00
 -1.9715903e+00
  1.2203568e+00
  2.5501873e+00
 -1.3217121e+00
  4.1941619e-01
  3.6021733e-01
  2.2210228e+00
 -6.7722220e-03
  1.8393734e-02
  1.3652474e+00
  1.3115732e-01
  3.3544116e+00
  2.3069973e+00
  5.4910612e-01
  1.8541899e-01
 -1.1768074e+00
  1.8457792e+00
  1.5746631e-01
  1.2691174e+00
 -1.3438579e-01
  2.4750643e+00
 -3.8128803e+00
  5.1130044e-01
 -1.6698378e+00
  3.8634223e-01
 -2.4774618e-01
 -3.4512124e+00
  4.9241647e-01
  1.8821112e+00
 -1.6842092e+00
  1.1688421e+00
  2.7172047e-01
  9.0788436e-01
  9.3465978e-01
  2.2645032e+00
  1.0679297e+00
  1.2635998e+00
  1.3258495e+00
  1.2169668e-01
 -2.9748002e-01
 -1.4960573e+00
  9.1486824e-01
 -3.9093944e-01
  6.1311805e-01
  1.0706238e+00
  1.9955024e-02
 -7.9645151e-01
  1.7249370e+00
 -1.7232032e+00
 -1.1697810e+00
 -2.1352081e+00
  9.6144676e-01
 -6.6137439e-01
  1.2784091e+00
  2.7856534e-02
 -8.1502515e-01
  2.6673834e+00
  4.2031355e-02
  7.3866598e-02
 -1.9535748e-02
 -6.9075161e-01
  1.3719062e+00
 -4.4483241e-01
 -9.4258614e-02
  1.1092359e-01
 -9.1464925e-01
  4.2765838e-01
  2.0537034e-01
 -5.8374071e-01
 -1.0830417e+00
 -8.9079946e-01
 -8.3083481e-01
 -8.5607302e-01
 -3.6217620e+00
 -2.4372864e+00
 -6.7124970e-02
  1.0402160e+00
 -7.5593811e-01
 -1.7558489e+00
  1.6330464e-01
 -1.0415377e-01
  7.9328591e-01
 -1.1741965e-01
 -8.4360994e-02
  2.3772011e-03
  1.4784718e+00
 -3.2585502e-01
  9.7459875e-02
  4.0772569e-01
 -2.0019461e-01
  3.4517837e-01
  2.3357634e-01
 -7.0402545e-01
  4.8623048e-02
  7.2536126e-02
 -3.7574425e-01
 -1.7460329e-02
  1.1598305e+00
  2.4505322e+00
  8.4635639e-01
  9.8009360e-01
 -9.6438907e-02
 -9.4540423e-01
  9.9140508e-03
  5.3581786e-01
  5.4171079e-01
  8.8286501e-01
  9.5832020e-02
 -1.2922552e+00
 -1.2926506e+00
  2.0279317e-01
  1.0310875e+00
  3.7204533e+00
  1.0697014e+00
 -9.0923184e-01
  1.1027910e+00
  4.1041353e-01
  7.4365634e-01
 -3.4592628e-02
  1.1474835e+00
 -3.3644587e-03
 -1.6029004e+00
  2.8213507e-01
 -1.0038469e+00
  4.4813809e-01
 -3.4305224e+00
 -1.6381543e+00
 -1.8705461e+00
 -1.4166845e+00
 -2.0674878e-01
  1.0538460e-01
  2.0811341e+00
 -3.3243587e+00
  1.5288644e+00
 -9.1187710e-01
 -9.1584641e-01
 -1.4912571e-01
  6.8239492e-01
  6.0580140e-01
  8.4728736e-01
 -2.3846319e+00
 -8.7596250e-01
  3.2387774e-02
  6.8987137e-01
  1.1922152e+00
  9.2082307e-02
 -1.2980978e+00
  1.1113834e-01
  1.2001354e+00
 -3.0620405e-01
  4.6949720e-01
  5.9909111e-01
  1.8218824e+00
  5.4360986e-01
 -1.3823731e+00
 -7.6475042e-01
  2.8235951e-01
 -1.1099674e+00
  2.0623393e+00
 -2.0248508e+00
  1.0793769e+00
  6.1296010e-01
 -1.0567714e+00
  5.6742555e-01
  1.3767689e-02
  3.6285675e-01
  2.4461575e-01
 -2.4012780e+00
 -2.2488801e+00
 -1.8903627e+00
  4.6393067e-01
 -7.2349161e-01
  2.3573281e-01
 -5.7892936e-01
  5.1923960e-01
 -1.8806411e+00
 -1.0100936e+00
  1.1003183e+00
  1.5545616e+00
  1.6412432e+00
 -2.2076733e+00
  6.3684247e-02
 -8.9113230e-01
  2.5811131e+00
  4.2611713e+00
 -4.7111699e-01
 -2.5045350e+00
  2.2205801e-01
 -1.3944153e-01
  1.3580109e-01
  2.1112907e-01
  1.5584807e-01
  7.2072601e-01
 -1.9450164e+00
 -6.1167333e-02
 -1.0580286e+00
 -9.2909977e-02
 -1.3460387e+00
 -1.7329260e+00
  1.3438151e+00
 -1.8185252e+00
  5.7774359e-01
 -3.7225726e+00
  1.4798731e+00
 -3.3677556e-02
  7.4974263e-01
  2.1023450e+00
  8.0731243e-01
  1.5694067e+00
 -4.6702471e-01
  1.3697265e-01
 -8.5673779e-01
  7.7764787e-02
  8.2920718e-01
 -2.2703960e+00
 -1.3305624e+00
 -3.7198610e+00
  2.0597608e-01
 -4.1664171e+00
 -1.6206530e+00
  6.9285280e-01
  9.1213858e-01
 -3.7690395e-01
  2.9594931e-01
  3.3869493e+00
  3.7131196e-01
 -1.3432485e+00
 -5.1193815e-01
 -1.3205702e+00
 -1.6228021e+00
 -5.6619352e-01
  3.0304823e+00
 -1.3572754e+00
 -4.4599172e-01
  3.8775519e-01
  8.6872801e-02
  6.3317001e-01
 -1.4345583e+00
  9.8723525e-01
 -1.5785847e+00
 -1.7318949e-01
  8.5240674e-01
 -3.3205447e+00
  8.2455128e-01
  6.3173485e-01
 -1.0744226e+00
  1.6699095e+00
  1.2512118e+00
 -2.6104827e+00
  2.5399777e-01
 -3.2246649e-01
  3.5708049e-01
  5.3283358e-01
 -6.9639653e-02
  2.8397918e-01
  4.2919275e-01
 -2.7980473e+00
 -4.4941682e-01
  1.2048115e+00
  1.4475529e+00
 -2.6461521e-01
 -1.8059258e+00
 -8.1891543e-01
 -1.1392509e+00
  1.0308543e+00
 -6.3801754e-01
 -2.3761134e+00
 -3.9578429e-01
 -1.3295720e+00
 -2.4243620e-01
 -3.6487446e+00
  2.6455448e+00
 -1.2390623e+00
  1.2015325e-01
 -1.1119075e-01
 -1.6365419e-01
  4.4362652e-01
  9.7479150e-02
 -3.0313692e+00
  7.4051380e-01
 -1.2384633e+00
  1.1558973e+00
  2.7276177e+00
 -1.1825624e+00
  1.3192860e+00
 -1.0785784e-01
 -4.7665471e-01
  3.7769273e-01
 -7.6744950e-01
  5.2799022e-01
 -2.4268305e-01
 -3.2616884e-01
  2.1757746e-01
 -1.2757548e+00
 -1.8247318e+00
  1.8826336e+00
  5.9191239e-01
 -2.2589770e-01
  7.7668160e-01
  2.1076459e-01
  1.9442980e+00
 -6.7125803e-01
 -1.0802664e+00
 -3.8275042e+00
 -1.9328054e+00
  1.8049225e+00
  8.7289864e-01
 -1.0584716e+00
  2.4045091e+00
 -7.0388418e-01
  2.1114645e+00
  1.0163486e+00
 -2.2101555e+00
  6.1812216e-01
 -3.9811337e-01
  1.8921067e-01
 -2.6409855e+00
  9.6855122e-01
 -1.8152051e-01
 -1.1366975e+00
 -2.3014846e+00
 -7.7820987e-01
 -4.7365456e+00
 -1.3710088e-01
 -3.6437801e-01
  1.1503992e+00
 -2.0267916e+00
 -9.8085588e-01
 -1.5579435e+00
  1.2793168e-01
  5.7762515e-02
 -2.0299716e+00
  2.8770034e+00
  2.8082010e-01
 -2.8494012e-01
  1.7550670e+00
 -2.6650939e+00
 -1.3869904e-01
 -1.4184887e+00
  2.8435174e-01
 -9.3822140e-01
  6.1935019e-01
  1.0602083e+00
 -1.1893473e+00
  1.0631362e-01
  2.0167144e-01
 -7.9802549e-01
  7.2106934e-01
 -3.5129306e+00
  8.0087489e-01
 -4.7996704e-02
 -4.0332079e-01
 -3.6355398e+00
 -2.5466639e-01
 -2.8077703e+00
 -1.6285468e+00
  3.3726499e+00
 -6.0139501e-01
 -2.7967599e-01
 -8.1939131e-01
  7.1163307e-04
  2.9544529e-01
 -1.1885364e+00
 -4.3829876e-01
  2.0907395e+00
 -3.6017290e-01
 -1.4067808e+00
 -2.7712637e-01
  7.8134727e-01
  1.6115860e+00
  2.1232563e-01
 -5.0428808e-01
 -7.2526246e-01
 -1.5846909e+00
  8.9638150e-01
  2.4839728e+00
  6.8340445e-01
 -2.0681000e-01
  1.7826018e-01
 -1.2239061e-01
  8.6436850e-01
  1.5698905e+00
  1.5701357e+00
 -3.9862385e+00
 -1.6124914e+00
 -4.6921900e-01
  1.5498363e+00
  1.0529053e+00
 -8.5596073e-01
 -7.8431118e-01
  1.9572937e+00
 -1.0139598e+00
  1.1717829e+00
 -5.0739080e-01
  2.8512815e-01
  2.4525254e+00
 -8.7010437e-01
  2.2398548e+00
 -6.3708477e-02
  2.6242375e+00
 -2.4597744e-02
  2.1525459e+00
  1.2733368e+00
  4.2144263e-01
  6.3531667e-01
  3.3256557e-02
 -2.4157765e+00
  3.9527481e+00
 -6.0591114e-01
  5.7167715e-01
  5.8686042e-01
  1.4582725e+00
  3.6724809e-01
  3.0992448e-01
  2.5033352e+00
 -7.1702379e-01
 -2.0046911e+00
 -1.4590320e-01
 -1.0458684e+00
  2.5038166e+00
 -7.3639989e-01
 -1.5882567e+00
 -9.2632353e-01
  2.5291994e+00
 -4.4665557e-01
  1.6875378e+00
 -1.9781442e+00
 -1.3128108e+00
  1.1101313e+00
 -9.1929770e-01
 -5.9077821e+00
  1.8258153e+00
 -1.2590755e+00
 -6.8150055e-01
  1.4690726e+00
 -1.3223913e-01
 -9.9626273e-02
  8.1953228e-01
 -1.2755611e+00
 -6.1618894e-02
 -3.3300883e-01
  9.6716917e-01
 -5.8792269e-01
 -2.1392395e+00
  1.0221007e+00
  1.7724013e+00
  8.2812166e+00
  6.9710028e-01
 -1.6573588e+00
 -7.8146225e-01
  1.0423608e+00
 -8.9768881e-01
 -7.0468932e-01
  6.0735935e-01
 -2.1244884e+00
 -1.0216223e+00
  8.8176824e-02
  1.0462903e+00
  2.5694600e-01
 -6.7386903e-02
  6.8601501e-01
  2.1268885e+00
  1.3530244e+00
 -1.6892151e+00
  1.9169450e-01
  3.7893459e-01
 -1.5835251e+00
 -3.2795760e-01
 -9.4354349e-01
 -2.4019709e+00
 -1.7923101e+00
  4.2049888e-01
  2.5812665e-01
  2.5812665e-01
  2.5812665e-01
  2.5812665e-01
  2.5812665e-01
  2.8173376e-02
  2.8173376e-02
  2.8173376e-02
  2.8173376e-02
  2.8173376e-02
  3.9238561e-02
  3.9238561e-02
  3.9238561e-02
  3.9238561e-02
  3.9238561e-02
  1.0548169e-02
  1.0548169e-02
  1.0548169e-02
  1.0548169e-02
  1.0548169e-02
  1.7803196e-02
  1.7803196e-02
  1.7803196e-02
  1.7803196e-02
  1.7803196e-02
  2.9532490e-02
  2.9532490e-02
  2.9532490e-02
  2.9532490e-02
  2.9532490e-02
