nep4 2 C H 
cutoff 8 4 7 7
n_max 4 4
basis_size 8 8
l_max 4 2 0
ANN 30 0
  6.5462643e-01
 -6.4597857e-01
 -1.5549215e+00
 -1.2350086e+00
 -1.6129591e+00
  3.5548306e+00
 -1.1401063e-02
  6.0167171e-02
  1.6826559e+00
  1.1175430e+00
  3.6984210e+00
 -3.8701313e+00
 -7.1533942e-01
  3.3327729e-01
 -6.1287642e+00
  3.2973122e-02
 -5.5670547e-01
 -2.5215964e+00
 -1.9737465e+00
 -7.7651137e-01
 -1.7996482e+00
 -1.8795674e+00
 -1.6107658e+00
  5.6025095e+00
  9.0774512e-01
  1.9508958e-01
  2.5611138e-02
  8.7767914e-02
 -6.3477695e-02
  2.5472972e+00
  1.1056084e-03
  2.2132535e-02
 -1.4008598e+00
 -9.5724007e-03
 -1.2093842e-02
 -7.8105247e-03
 -1.9743504e-02
 -2.5873224e-03
  4.7702868e-03
  9.2739552e-02
 -2.8678028e-02
 -7.7693616e-03
 -1.1383516e-02
  8.1565976e-04
  6.0565766e-02
  8.5824311e-02
 -1.7607253e-02
  6.2605790e-03
 -4.9484046e-03
 -7.7312186e-02
 -1.1452667e-02
 -1.1742792e-01
 -6.4581692e-02
  1.1658236e-02
  9.8034829e-01
 -1.3776202e-02
 -2.3875134e+00
  9.9696238e-03
 -1.4823796e-01
  5.4973461e-02
 -4.4645852e-01
 -2.0386225e-01
  6.0628897e-01
 -4.4499415e-01
 -3.7524220e-01
  5.8932382e-01
 -1.0807355e-02
 -2.2281229e-01
  4.6474714e-02
 -2.3320837e-01
  1.1121307e-02
 -2.6632839e-01
 -9.1141596e-02
 -7.4013513e-01
 -1.0459961e+00
  2.3855247e+00
  5.8329761e-01
 -5.8009517e-01
  1.2693357e+00
  1.4395181e+00
  1.3459101e+00
  3.2258740e-01
  5.2620453e-01
  7.9812527e-01
 -7.1116917e-02
  1.8596494e-01
  1.7398261e-02
  5.5164233e-02
 -1.6639591e+00
  2.3424853e-01
  4.6120491e-03
 -1.1160768e-01
 -4.1956931e-02
  6.4189416e-01
 -1.4103274e-01
  4.3121662e-02
  2.9141735e-02
 -3.9488450e-03
  2.8202713e-01
 -1.5039095e-03
  3.8465749e-02
 -1.8352566e-02
 -1.1638047e-02
  1.9335326e-02
 -1.3664847e-02
  4.1510072e-03
 -2.4231214e-02
 -3.0566942e-02
 -8.8699991e-03
  1.9364433e-02
 -7.7440731e-02
 -7.6749623e-03
  2.4964627e-02
  3.2281596e-02
 -1.4025624e-02
 -8.4812082e-02
 -5.1184505e-02
  5.9053248e-01
  1.1503802e-01
  9.4668195e-02
 -4.9155784e-01
  8.3355975e-01
  1.0303321e+00
 -4.4778270e-01
  5.9067603e-02
 -1.5850650e-01
 -4.7099840e-02
 -8.2300878e-01
  1.1433630e+00
 -6.0630739e-01
  7.7043515e-01
 -2.3257236e-01
  3.1779509e+00
  2.1252036e+00
  1.7024337e+00
 -1.0102727e-01
  1.3492061e-02
 -5.1809248e-02
  3.3422685e-01
  2.2770225e-01
 -1.5727450e+00
  2.3681710e+00
 -5.4324579e+00
  9.8267592e-02
  1.0883577e+01
  6.4299298e-03
 -6.9976032e-02
 -3.4394145e-03
 -1.5656192e+00
 -7.4239611e-03
  5.7099462e-01
  3.4290791e-02
 -1.9630725e+00
  1.4539008e+00
 -1.2045343e+00
  8.0255771e-01
  1.0663550e-01
  7.2568595e-01
  1.0120332e+00
  1.7768329e-01
  3.8011560e+00
  2.0750153e+00
 -1.1355308e+00
  4.3649539e-01
  1.3064967e-01
  7.9105586e-02
  9.5389777e-01
 -2.0980499e+00
 -2.3460593e+00
  1.5446061e-01
  8.3513117e-01
  8.7643999e-01
  1.7700678e-01
  6.9849592e-01
  2.9753301e-01
  2.7124971e-01
  1.1868826e-01
  2.1504600e-01
 -1.9460982e+00
  1.7764105e-01
 -8.4098019e-02
  6.6218859e-01
 -1.7022815e+00
  1.0245977e-02
 -2.1382270e-02
 -9.5333355e-03
  6.0927044e-03
 -1.8163661e-02
 -2.7561220e-03
 -1.9089956e-02
  9.6011814e-04
  7.4799314e-02
 -5.3417079e-02
 -6.9487430e-02
  1.9827059e-02
  7.8605991e-03
 -8.7278625e-03
 -1.7530932e-01
 -6.5687902e-02
  2.0875761e-03
  5.3284224e-02
 -3.4469891e-01
  3.0878393e-02
 -1.3429381e-02
  2.3975500e-03
 -1.4632374e-02
  2.0773571e-02
  3.4433460e-01
  8.6841974e-03
  3.2817684e-02
  6.3191706e-01
 -7.2873197e-02
 -1.9876744e-01
 -4.6212265e-01
 -1.9806746e-02
 -3.4208781e-01
  5.3189114e-02
 -8.1924694e-03
 -3.0928543e-02
 -9.0371463e-03
  9.9123120e-01
 -2.9137241e-02
  5.9298114e-03
  1.0238159e-02
 -2.6748816e-02
 -5.0537281e-02
 -2.1498404e-03
 -1.0188790e-03
 -5.7325628e-02
  5.3581938e-02
  1.3647208e-02
  3.6627285e-02
 -9.5866695e-02
 -1.9660604e-01
 -1.2932850e-01
 -3.7065102e-03
  4.9628310e-02
  1.8455088e-02
 -3.6809884e-02
 -3.0827973e-02
 -2.2303194e-02
  6.5815686e-03
  2.5791228e-03
  2.5237368e-03
 -2.3680057e-02
 -2.8292868e-02
 -3.4770302e-02
 -5.3757597e-03
 -8.7068170e-02
  1.5865469e-02
  8.3142012e-02
  4.2757314e-02
  1.6639506e-02
 -1.0204341e-03
 -1.0093590e-03
  4.0284406e-02
 -2.0837488e-02
  1.8706942e-02
 -4.9646895e-02
 -6.9493830e-02
 -2.9637842e-03
 -5.2626349e-04
 -1.1671306e-02
 -1.0792573e-01
 -4.6223704e-02
 -1.5166819e-02
  1.7269060e-02
 -6.6570030e-03
 -7.0482038e-02
 -9.7608879e-02
  1.4402013e-01
 -2.4978969e+00
 -1.1267607e+00
  3.4004593e+00
  6.6805445e-02
  8.5809833e-01
  1.8144848e+00
  1.1831438e-01
 -1.2646163e+00
  1.4836962e+00
  1.4020574e+00
  7.0014471e-01
 -1.2975854e+00
 -7.7748275e-01
  1.5205921e-01
 -1.0541357e-01
  3.8497391e-01
  6.6931999e-01
  1.8569608e+00
 -2.5288918e+00
  8.8279146e-01
  9.9797755e-01
 -3.1468472e-01
  5.3272104e+00
  1.2786685e+00
 -1.0883281e-01
  4.1420221e-02
  2.2019435e-02
  3.5876820e+00
 -1.3391019e+00
 -1.6389114e-01
  1.9959128e-01
 -4.0078184e-01
  1.0641946e+00
 -1.0507699e+00
  4.3557429e+00
 -4.6636357e+00
 -3.5645490e+00
  2.5098495e+00
 -4.1241908e-01
  3.2877155e-02
 -2.3092737e+00
  1.8562585e+00
 -3.1133556e-01
 -2.0874588e+00
 -6.0832101e-01
  1.0362866e+00
  3.4617319e+00
 -9.2310160e-01
  7.0190388e-01
 -5.9388202e-01
  6.9018178e+00
  2.4311674e+00
  6.7859817e-01
 -1.5803211e+00
  2.7047527e-01
 -1.6662912e-02
  1.3522173e+00
 -3.6011577e+00
  9.7311461e-01
  5.8783650e-02
  5.2690500e-04
  3.5776205e-02
 -4.2104404e-03
  7.0240937e-02
 -4.1790124e-02
  6.2055625e-02
 -4.6374395e-02
 -3.6729142e-02
 -4.3858043e-03
  3.3789002e-03
 -5.3570490e-02
 -9.3871728e-02
 -9.5343115e-03
  2.8545335e-02
  3.2940209e-02
 -4.7252964e-02
 -7.4895158e-02
  1.2753211e-02
  5.6649458e-02
 -5.8310255e-02
 -3.0394128e-01
 -9.0537220e-04
  3.5051122e-02
  9.2015825e-03
 -8.7668516e-02
 -4.6812138e-04
 -2.1118559e-02
  3.8452842e-03
 -3.3393815e-02
  7.1332701e-02
 -2.0705633e-02
  4.0722728e-02
 -1.3496630e-02
 -3.0824672e-02
 -3.4394488e-02
  1.4393199e-02
 -3.9502632e-02
 -3.0129759e-02
  5.4404640e-01
  3.7464313e-04
  1.8707413e-03
 -7.6896930e-01
  2.1771647e-02
 -3.1009449e-02
 -2.3175426e-02
 -2.7179183e-02
 -2.5126671e-02
  4.2529929e-01
 -2.1957061e+00
 -6.1995708e-03
  3.4753587e-02
  6.0246475e-02
 -4.0574716e-03
 -5.1849204e-01
  7.6791859e-01
  4.3301642e-02
  1.1665627e-02
 -9.6360248e-01
 -1.1156151e-02
  6.7909700e-01
 -8.6539924e-01
  3.3482307e-01
 -3.0725233e-03
 -1.5485508e-02
 -1.9988585e-01
  1.3320687e-02
 -1.5440415e-01
 -5.7613537e-02
 -2.7889115e-01
  1.7700690e-01
 -9.4299994e-02
 -5.0125408e-01
  1.6015112e+00
 -2.4720992e-01
 -1.0233420e-01
 -1.0552420e-02
 -3.6134586e-01
  2.6733878e-01
 -4.6426322e-02
 -2.2891293e-01
  2.0840713e-01
 -7.4054420e-01
 -9.7732574e-01
 -8.3987433e-01
  1.1245993e+00
  9.1119446e-03
  1.3781677e-02
 -8.1851703e-01
 -1.0086243e+00
  5.6946158e-01
  7.7062184e-01
 -3.8968056e-02
 -7.0027643e-01
 -1.2082732e+00
 -5.6589931e-01
  5.0487369e-01
 -3.0362146e+00
 -4.3133106e+00
 -4.9442264e-01
 -4.7302064e-01
 -6.1776733e-01
 -4.5165256e-01
 -5.8512431e-01
  5.0107771e-01
  8.7488848e-01
 -2.2667372e+00
 -3.0954118e+00
  2.4191573e+00
 -9.3900609e-01
  1.2124858e+00
 -2.4687780e-02
  2.9859012e-01
 -2.0152545e-01
 -3.1514216e-02
 -2.2884205e-01
  3.2405462e-02
  5.6157517e-01
 -6.9049156e-01
  6.0786784e-01
  2.4912860e+00
 -4.2745769e-03
  4.1727304e-02
  3.9495520e-02
 -2.7521909e-03
 -6.3611843e-02
  5.5617448e-03
  8.4312670e-03
 -5.6775552e-03
  3.8995471e-02
 -6.6275029e-03
 -1.6382646e-02
  5.3731620e-02
 -4.9785905e-02
  1.4001223e-01
  8.1399560e-01
  2.9332807e-02
 -2.5930194e-02
 -1.5793681e-02
 -3.7118066e-03
  3.8249441e-03
  7.9892073e-03
  2.9899919e-02
  8.4193945e-03
  7.9189986e-03
  2.6102946e-03
  2.6840527e-02
  5.4835742e-03
  3.8645614e-02
  2.1255966e-02
 -1.5957347e+00
  9.2022829e-03
  9.2705607e-01
 -3.3089476e+00
  1.7293291e-01
 -2.4747388e+00
 -1.8355241e-01
 -3.6564555e-02
  1.2275205e+00
  1.1365213e-01
 -2.5556960e+00
 -4.6485391e-01
 -8.2553715e-01
 -5.3471696e-01
  1.4400383e+00
  2.7560303e+00
  1.8060887e+00
 -8.1325620e-01
  3.2530624e-01
 -1.6050458e-01
  8.9304328e-01
 -9.3362230e-01
 -2.9742813e+00
 -1.0651171e+00
 -1.9451351e+00
  1.8616526e+00
  3.7854165e-01
  9.9926901e-01
  1.5868530e+00
  1.3237473e+00
 -7.7519238e-01
  5.7836766e-03
  6.1049465e-02
  3.6766659e-03
 -6.0064819e-02
 -2.1583216e-02
 -9.8356931e-03
  1.7956136e-02
 -1.9764144e-02
  4.3687243e-02
 -7.9499157e-03
  2.8262213e-02
  2.1477832e-02
 -6.2796444e-02
 -2.0545576e-02
 -1.9332645e-02
 -3.8768237e-03
  8.1052398e-03
 -3.9168686e-02
 -3.3445310e-02
  4.9288824e-02
 -2.4359228e-02
  7.5553739e-03
 -3.0798340e-02
 -7.6925703e-03
  1.2010179e-02
 -8.5529394e-02
 -2.0760283e-02
  3.3161450e-02
 -7.3352598e-02
 -3.9002654e-01
  1.1622378e+00
  3.7855673e-01
  4.0312999e-01
  1.3301955e+00
 -1.2264724e+00
  8.3148591e-02
  1.0510144e+00
 -4.1849198e+00
 -3.6219978e-01
 -1.6796428e-01
  3.2944551e-01
  1.8854674e+00
 -9.0491199e-01
  1.1673309e-01
 -8.9544021e-03
 -5.9862178e-02
 -4.9479075e-02
  6.5453872e-02
  1.5937185e-01
 -1.0495703e+00
 -3.2575271e-01
 -1.7964206e+00
 -1.0519851e+00
  1.3447597e+00
 -5.5388201e-02
 -2.0491149e-02
  1.1888811e-02
 -4.3508959e+00
  1.0559707e+00
  2.0155461e-01
 -2.3273183e-01
 -9.4078463e-03
  1.4515995e+00
 -2.7202687e-01
  5.7672262e-03
  2.7138988e-02
  2.2795198e-02
 -2.0906481e-01
 -2.2717077e-02
  1.8238227e-01
 -6.7529328e-02
 -1.6003612e-01
  1.3102859e-01
 -7.3519683e-01
 -1.5162545e-01
  3.0169230e-02
  2.6209347e-02
  1.3070390e+00
 -5.4012939e-02
 -3.8823083e-02
 -6.5357597e-03
 -1.0713292e-02
 -7.0124173e-01
  1.1628966e-02
  3.6495356e-03
 -8.0604725e-02
  8.4756073e-03
  3.5088140e-01
  7.4725233e-02
  2.3552267e-01
  1.8168111e-01
 -5.3954512e-02
 -2.5045636e-01
 -4.0609446e-01
 -1.0687406e-01
 -7.9331100e-03
  4.2451717e-02
 -6.3897111e-05
 -5.7581038e-04
 -8.3097555e-03
  3.0567408e-01
  1.4121903e-01
 -1.8358915e-01
  4.1407351e-03
  1.6319630e-01
  8.2205720e-02
  3.7429698e-02
  6.5279655e-02
  1.0581668e-03
 -2.1329062e-02
  7.3613262e-01
  2.6588085e-01
  6.2873226e-01
 -4.8824802e-02
 -7.9229865e-03
 -6.9585793e-02
 -1.7117767e-02
  2.4520652e-02
 -8.7007470e-02
 -5.0148505e-01
 -1.4660824e-02
  2.5333521e-01
  1.9296639e-02
 -1.2564364e-02
 -3.5162386e-02
 -2.1708170e-01
  4.7932519e-03
 -5.2731641e-02
 -1.1730596e-01
  1.1329681e-02
  2.8531447e-03
 -1.9935712e-02
  3.0795621e-02
  3.0277034e-02
 -3.0825527e-03
  2.5429252e-01
 -3.1803332e-02
  8.2226522e-02
 -2.4745502e-01
  2.1077683e-03
 -5.6409672e-02
  5.4730650e-02
 -6.1557079e-03
  2.1953456e-02
  2.3421496e-03
 -2.9077239e-02
 -2.9633608e-02
  2.3480374e-03
 -5.7318028e-02
  9.4759172e-01
  1.1227308e-03
 -1.6596366e-03
  2.9924192e-02
  1.0336220e+00
 -1.7881218e+00
 -2.5351295e-02
  4.2462882e-02
  6.5730577e-03
  2.8481573e-02
  1.1071067e-02
 -2.2462666e-02
 -1.8794030e-02
 -7.0617348e-02
 -2.9827854e-02
  5.1217426e-02
 -1.3701649e-02
 -3.8161129e-04
  1.5624177e-02
  3.2057557e-02
 -2.1348374e-02
 -2.4223000e-02
 -3.3243578e-02
 -1.2428607e-03
 -1.8797426e-02
 -1.7829306e-02
  8.1116213e-03
  3.6549643e-03
  6.5753676e-02
 -6.3365987e-03
 -1.4383813e-02
  1.2470154e-01
  8.2666002e-02
 -2.7680505e-02
  6.9652013e-03
 -3.0468531e-02
 -3.9946111e-03
  1.3611507e-02
 -3.9001189e-02
 -3.6602631e-02
 -4.3314017e-02
  4.1095387e-02
  1.7964257e-02
 -2.2646299e-02
  3.8166620e-02
  1.5850775e-02
  2.7428631e-02
 -1.1829499e+00
 -1.3416027e-01
 -4.7623489e-02
  2.4488837e-02
 -9.3952067e-02
  1.9128965e-02
  5.8234543e-02
  2.5005262e-02
 -6.4564697e-02
 -3.2349017e-02
  2.9968143e-01
 -3.5525899e-02
  2.4190951e-02
 -7.7574754e-01
  1.5356606e-01
 -8.8634253e-02
  1.8596579e-01
  1.9503087e-01
  1.2468774e+00
  5.6326795e-01
  1.6347307e+00
 -5.7049200e-02
  8.1511718e-01
  8.5116011e-01
  1.7977700e+00
 -1.2232821e-01
  3.9404336e-01
  3.1791183e-01
  1.0023898e+00
 -6.7014641e-01
 -4.1874996e-03
 -9.0060338e-02
 -7.4454099e-01
  3.4482199e-01
 -6.8243176e-01
  8.1668377e-01
  3.2247892e-01
  1.1542782e+00
 -7.2844994e-01
  2.2925445e-01
  1.9461843e-01
  1.3923026e-02
  5.2078569e-01
 -4.9011001e-01
  2.6432562e-01
  3.3885354e-01
 -2.1586655e-01
  1.4183691e-01
  5.7317764e-01
  3.0564223e-03
 -4.3447545e-01
 -9.2270315e-02
  4.8902187e-01
  1.3405366e-01
  7.1239688e-02
  7.7861744e-01
 -3.0927747e-01
  1.2485936e-01
 -1.5420774e-02
  8.0475658e-03
  1.7674397e-01
  1.8679116e-02
  3.1762481e-01
 -8.9700393e-02
  6.2416330e-02
 -4.6801558e-01
  4.2856607e-01
 -3.4881076e-01
  1.5319322e-01
 -1.1079446e-02
 -1.4751945e-01
 -1.0272454e-02
 -5.6754801e-02
 -4.0328276e-01
  2.1894629e-01
  1.0853561e-01
  3.5071802e-01
  3.7375793e-02
 -1.4374704e-02
 -2.2435982e-02
 -2.5660148e-02
  1.0140146e-01
  2.8901029e-02
  1.3925129e-01
  2.4301009e-03
 -4.3747555e-02
  2.3079517e-01
  4.9980965e-02
  2.5942834e-02
 -4.6589389e-03
  3.9455444e-02
  2.6224606e-02
  1.7271934e-02
  1.6156553e-01
 -1.2558489e-01
  1.0892034e-01
  1.4117214e-01
  2.2694506e-02
 -1.4219806e-01
 -6.7037679e-02
 -1.0461050e-01
 -1.4337217e-03
 -2.1812712e-01
  5.2992743e-01
  3.9546266e-01
  1.6318252e+00
 -3.0841550e-01
  1.2141985e-01
  3.2654792e-02
  1.0775853e+00
  2.6842020e+00
  4.7960702e-02
  1.0732331e+00
 -2.6975149e-01
  5.2923083e-01
 -8.1721467e-01
  1.1002084e+00
  7.6136625e-01
 -1.3607502e+00
 -5.7561928e-01
  4.6693987e-01
  4.2498723e-01
  1.7459642e+00
 -8.3217375e-02
 -1.2817667e+00
  6.3961542e-01
 -3.0505815e-01
 -4.0536004e-01
  1.4010993e+00
 -4.9302122e-03
  5.0585303e-02
 -3.0009012e+00
  1.5221798e+00
  2.5417796e-01
  6.4297265e-01
  4.1675210e-01
  8.0380630e-01
 -8.2794480e-02
  1.4151260e+00
  9.8509872e-01
 -2.3851404e+00
 -1.5204565e-02
 -3.6266980e-01
 -8.0819112e-01
 -1.0644562e+00
 -1.9990195e+00
 -9.3334693e-01
  7.9874504e-01
  5.8002776e-01
  1.5448190e+00
 -3.0591371e+00
  9.9013969e-02
 -1.6210155e+00
 -3.9967224e-01
 -3.1923797e+00
 -2.8439190e+00
  4.1015449e-01
 -5.5068627e-02
 -9.1827446e-01
  3.9320337e-03
 -3.5560411e-01
  9.6997952e-01
  1.3044228e-01
 -7.1753860e-02
  5.9300947e-01
  1.3179846e-01
 -1.0495690e-01
  5.5213904e-01
 -4.7429630e-01
  4.7578644e-02
  8.6932089e-03
  5.1448113e-01
 -2.3448493e-02
  9.0272039e-02
  9.5073211e-01
 -1.4820425e-01
 -4.5564014e-01
 -5.2641691e-03
  9.9434614e-02
  1.0079768e-01
  1.8698819e-01
 -6.8099940e-01
  4.1145739e-01
  3.0960977e-01
  1.8918976e-01
  1.4875095e+00
  5.2559298e-01
  8.5466468e-01
  1.5439303e-01
  2.0270502e-02
 -2.3788334e-01
  3.8827382e-02
  5.0977644e-02
  2.3488677e+00
 -4.8754655e-02
 -3.7682882e-01
  2.0620346e-02
  5.7749784e-01
  4.7561225e-02
 -3.2311790e-02
  5.3947252e-01
  9.1906916e-04
 -2.8226537e-01
 -1.6341316e+00
  5.4739084e-02
  3.2998973e-01
 -3.5186401e-01
  1.0195565e+00
  3.8314401e-04
 -1.6238860e+00
 -9.9777449e-03
 -2.5690642e-01
 -6.2932479e-01
  1.6799791e-01
  4.4391848e-02
 -2.3413312e-02
 -1.5653048e-01
 -3.2715374e-01
 -1.8340725e-01
 -1.8237455e-02
 -2.4599296e-01
 -9.6955812e-01
  2.1551475e-01
  1.2042160e+00
  2.9729909e-01
 -1.3932788e+00
  1.2489525e-03
 -5.5826616e-01
 -7.4841064e-01
  6.0951915e-03
 -4.1433734e-01
 -3.5460652e-03
 -1.5538282e+00
  5.0448096e-01
 -3.7127337e-04
 -2.4481018e-03
 -8.6186297e-02
 -7.7138388e-01
  1.7623190e-02
 -2.1530042e+00
 -2.2280684e-02
  1.1209331e-01
  1.5555307e-02
 -6.5188244e-02
 -2.5422329e-01
 -1.7376171e-02
  1.1422860e-02
  5.8126855e-01
  2.7335605e-01
 -6.3811892e-01
 -2.7060780e-01
 -1.0041286e+00
 -1.8515861e-01
  6.2000781e-02
  1.2400708e-01
 -2.3487033e-01
  9.7038895e-02
  1.8368976e-02
 -1.1864058e-02
 -1.2454169e-01
  4.0077951e-02
 -4.1530159e-01
  5.8825213e-02
 -6.2707148e-02
  5.6540899e-02
  3.4253708e-01
 -5.6615707e-02
 -1.8199237e-02
 -1.8408515e-02
  1.7686355e-01
  5.7910532e-01
  8.9349411e-02
 -2.9287301e-02
 -1.3419031e-01
 -1.0111073e-01
  1.8432023e-02
 -1.2503156e-01
  4.9184807e-02
  1.1285945e-02
 -5.5535655e-02
  6.8858676e-03
  1.5938409e-02
 -7.9598822e-02
  3.8873366e-01
 -2.9809427e-01
 -3.6061051e-01
 -1.1736538e-01
 -2.4456690e-01
  2.9387133e-02
 -2.8175302e-03
  4.5165715e-01
  1.5122863e-02
  8.3869072e-03
  9.1792038e-04
 -1.3982099e-03
  3.3946794e-03
  1.2421076e-01
  3.9717094e-03
 -3.9970394e-02
 -4.5516107e-02
 -3.2163590e-02
  5.2241355e-02
 -2.8414181e-02
 -2.3107430e-02
 -2.9324343e-02
 -1.4375356e-01
  9.5495448e-02
 -1.3924411e-02
  2.3048386e-02
 -8.1495335e-03
  3.6694508e-02
 -7.0588633e-02
 -2.6921898e-01
 -3.5330769e-01
  3.9163917e-01
  9.4437711e-02
 -2.5609899e-01
 -1.4627050e+00
 -1.1348554e+00
  1.6789649e-01
  4.2886066e-01
 -7.7329504e-01
  1.7198952e+00
  5.0972098e-01
 -2.3809483e+00
  7.3321515e-01
 -5.6510723e-01
  8.1480443e-02
  1.8232729e+00
 -2.4953430e+00
 -6.9631591e-02
 -1.0943257e+00
  5.7730997e-01
  3.9449829e-01
 -1.2118092e-01
  1.1390026e+00
  1.4438003e+00
 -7.2288506e-02
  8.5874665e-01
 -2.4457820e-02
  1.3001342e-01
 -4.9014926e-01
  4.1509628e-01
  5.6913339e-02
  1.0911667e-01
 -1.6932707e-01
  4.9443522e-01
  1.0149213e-02
  1.9932399e-03
  7.6281287e-02
  9.1238178e-02
  1.1702847e-01
 -5.3483643e-02
  9.1639355e-02
 -6.4321039e-03
  3.1984487e-01
  7.8215353e-02
  1.1730481e-02
  2.8860288e-02
  7.8720594e-04
  1.0605335e-02
 -2.9890865e-02
  3.6644682e-03
 -1.1372872e-02
  1.7949430e-02
  1.7118062e-01
 -2.7519919e-02
  7.0827834e-02
  2.9944438e-02
 -3.8711201e-02
  1.4411481e-01
  2.0249892e-02
  4.4731927e-01
 -4.8361231e-02
  6.6248822e-01
  8.4127247e-01
  3.0748162e-01
 -4.8000112e-01
  3.7458929e-01
  1.0959695e-01
 -1.3451477e+00
 -7.8484029e-01
 -3.7906018e-01
 -9.5599765e-01
 -1.3056631e+00
 -1.8185791e-01
  8.3214307e-01
 -1.0947978e+00
 -4.6569127e-01
  3.9283350e-01
  6.3442543e-02
  2.4109128e+00
  5.3606182e-01
  1.2071675e+00
  4.2746118e-01
  1.9266543e-01
  5.6337941e-01
 -2.1375144e-01
 -1.6296493e+00
  1.6778977e+00
  1.5371086e-01
 -2.9543546e-01
  1.5089462e+00
 -1.5832517e-01
 -1.1776427e-01
 -3.5032115e-03
  2.0143181e-01
 -3.3087414e-03
  4.2940894e-01
 -1.6873132e-02
  3.7747510e-02
 -1.2879840e-02
 -5.6612372e-02
  2.2273535e-02
  6.9285328e-03
  4.7477849e-02
 -2.7726053e-03
  8.9197066e-03
 -7.1574080e-01
  1.4857632e-02
 -4.5345280e-02
 -1.4315080e-03
 -5.5370070e-03
  4.8137207e-02
 -8.4311273e-03
 -1.9425549e-02
 -1.2698594e-02
 -8.0731697e-03
 -1.0818821e-01
 -3.1130809e-02
 -7.5921351e-03
  1.6537545e-03
 -8.2249373e-02
  3.6801980e-03
  1.0875313e+00
  3.4403116e-01
  4.4418707e-01
 -6.4037484e-01
 -1.6495341e+00
 -5.1239210e-01
 -9.5423311e-01
  6.0468638e-01
  1.8104355e+00
  4.5133895e-01
  1.3553333e+00
 -1.9572859e+00
 -8.3281510e-02
  7.5725156e-01
  5.2810121e-01
 -1.1890332e-01
 -7.3158270e-01
 -2.8983109e+00
 -3.9298412e-01
 -3.5348670e+00
 -1.4117900e+00
  1.1687768e+00
  1.0435278e+00
  1.8181780e-01
 -1.0036385e+00
  6.4408827e-01
  1.2125800e+00
 -3.6441147e-01
 -3.9579341e-01
  2.6157761e-01
 -3.6877224e-01
 -2.0320911e-02
  1.9600183e-01
  2.5971091e+00
 -1.9669933e+00
  3.9943793e-01
 -8.6868006e-01
 -5.4975456e-01
 -3.2794014e-01
  2.5974041e-01
 -1.6607566e-01
  5.2366918e-01
  8.3367787e-02
 -9.8969012e-01
 -3.0524963e-01
 -7.6138198e-01
 -7.2223854e-01
  6.5101320e-01
  4.7638696e-01
 -2.9258544e+00
  3.5967121e-01
 -3.2327518e-01
  2.6521411e+00
  1.1804980e+00
  8.2979405e-01
  6.8100034e-03
 -3.5947235e+00
 -2.3434494e+00
 -1.0411035e-01
 -1.7669339e-01
 -3.3515716e-01
 -3.6321276e-01
 -5.3146911e-01
 -7.5288343e-01
  5.3034937e-01
 -8.2958007e-01
 -1.1722466e-01
 -2.1044886e-01
  1.7301728e-01
  7.1606869e-01
 -5.1613128e-01
  4.5015588e-01
 -1.9561718e-01
 -1.9246434e+00
 -2.8169049e-02
 -8.6299106e-03
  3.5561875e-01
 -2.7171400e-01
 -8.1354803e-01
 -5.7524419e-01
 -3.5399419e-01
 -4.6223459e-01
  1.2219329e-01
 -5.5430019e-01
  1.1079249e-01
 -1.3870415e-02
  1.4473474e-02
  1.0767621e+00
 -9.9086046e-02
 -3.3153582e-01
  1.4130563e-01
 -5.6909174e-01
 -8.0825649e-02
  1.2586728e+00
  1.0833051e-02
  2.1582093e+00
 -8.9845322e-02
 -1.5878406e+00
 -5.2843547e-01
  9.4527216e-04
  2.1666633e-01
 -1.2215717e-01
 -3.9057192e-01
 -2.0490677e+00
  7.8554916e-01
 -8.5074484e-01
 -1.6126730e+00
 -4.3144572e-01
 -1.0099038e+00
  4.9814552e-01
  3.1050932e-01
 -7.5580990e-01
 -6.7294770e-01
 -3.4069854e-01
 -5.4004180e-01
  1.0495697e+00
  2.2123299e+00
 -1.1475605e+00
  2.0172050e+00
  9.5327981e-02
 -6.1943391e-03
  1.1036349e-01
 -8.1350811e-02
  9.8977081e-02
  3.4233224e-02
 -2.2490269e-02
  1.4027150e-02
 -1.4063285e-01
  1.5562096e-01
 -2.4314180e-01
 -5.1089119e-02
  1.5729223e-01
  1.7317711e-01
 -2.9318029e-02
 -2.9511493e-02
  8.4174238e-02
  4.1016915e-01
 -2.4709027e-02
 -7.3894858e-03
 -1.6137369e-02
 -5.2997410e-01
  1.6084084e-01
 -1.0134904e-02
 -1.8969411e-03
  2.7875653e-02
 -3.5641789e-02
  2.9666731e-02
 -1.0209190e-01
 -3.3350833e-02
  6.1162245e-01
  7.4664694e-01
  3.2530371e-02
 -9.9550700e-01
 -4.9677253e-02
  3.5480216e-02
 -1.0362298e-01
 -2.2605818e-02
  3.3925760e-03
 -1.7892562e-02
  2.7193001e-02
 -1.3515093e-02
  1.6119072e-02
  3.2973997e-02
 -4.8425820e-02
  3.6262502e-03
  5.7590064e-03
  2.9368326e-02
 -1.4423100e-02
 -6.7693065e-03
 -2.4018001e-02
 -1.9083647e-02
  8.5759974e-01
 -1.2441581e+00
 -5.0576948e-02
 -4.7266126e-02
  9.8015917e-03
 -5.7945959e-02
 -8.2933575e-02
  2.0874016e-02
 -4.3369666e-02
 -1.5045287e-02
  2.3372923e-03
 -4.8277172e-01
  3.3769690e-02
  1.1597461e+00
  4.4339239e-03
 -2.8825786e-02
  2.2359483e-03
  4.4828486e-03
  9.9921534e-03
 -1.6811665e-02
 -7.2945277e-03
  2.5956616e-02
  7.9991929e-03
  6.8754718e-02
  6.7490324e-02
  4.7091275e-02
  5.1527862e-03
 -2.8566997e-02
  9.5910174e-01
  1.9680514e+00
 -3.0213583e-02
  2.0535022e-02
 -8.6860746e-02
  4.2919118e-02
 -1.4319149e-01
 -3.3367017e-01
  1.6323222e-02
  4.5447011e-02
 -2.0709863e-02
  5.2997601e-01
  8.7495938e-02
 -1.7969024e-01
  3.7523873e-02
 -1.0629006e-01
 -7.0391726e-03
 -4.4632658e-02
  2.4383988e-02
  1.1410182e-02
 -6.5367877e-02
  1.4788790e-02
  1.3736740e-02
 -1.6426923e-02
 -1.6015369e-02
  4.4413224e-02
  1.8002987e-02
  8.4252702e-03
 -1.5632663e-02
  4.1969799e-02
  1.9989515e-02
  6.8325323e-01
 -1.5754165e-02
  2.1972987e-03
 -2.1654926e-03
  2.8428461e-02
  7.3441654e-02
  2.2984198e-03
 -2.3512751e-02
  7.6351757e-03
  2.1357255e+00
 -8.1395656e-01
  1.0528855e+00
 -4.2741675e-02
 -3.9449370e-01
 -1.6058514e-02
 -8.3118975e-01
  5.5737925e-01
  3.2891613e-01
 -4.3872923e-01
  7.4289459e-01
 -5.1043451e-02
  4.0358362e+00
  2.9085474e-02
 -7.0670581e-01
  1.3477824e+00
  2.2728518e-02
  6.5380596e-02
  5.8146976e-02
  4.3967277e-02
 -2.6001456e-01
  5.0796908e-01
  5.4978800e-01
  5.8256233e-01
  8.9683652e-01
  1.2487154e-02
  7.4337602e-02
  1.2211945e+00
  3.8409252e-02
  3.0913290e-01
  1.7208228e-01
  1.2623039e-01
  3.9584193e-01
 -3.2741803e-01
 -6.4234918e-01
 -1.7729091e-02
 -3.5303968e-01
 -4.2193965e-04
 -2.3539549e-01
  5.7487273e-01
  4.2434213e-01
  1.1841309e+00
 -1.1758683e-01
  1.6444649e-01
  1.8585764e-01
 -2.9313605e-02
 -1.2159771e-01
 -2.0177355e-01
 -3.7306212e-03
  4.1712460e-01
 -5.7000457e-03
 -1.3598926e+00
 -7.7492344e-01
 -4.9912691e-02
  1.4063396e+00
  2.3837028e-01
  4.6907354e-02
  7.0800394e-02
 -7.1811223e-01
 -5.9135342e-01
 -2.3396941e-01
 -3.0450430e-02
 -5.8260864e-01
 -2.0089990e-01
 -1.3675807e+00
 -5.2992836e-02
  1.1618115e+00
  4.5255807e-01
 -6.2901646e-01
 -2.7720970e-01
 -1.3205633e-01
  9.1790372e-01
  6.0768165e-02
 -6.0253584e-01
 -3.4948651e-02
  1.2827459e-01
  1.9824150e+00
 -9.2812681e-01
  4.5420060e-01
  1.0439314e-02
 -3.5681552e-01
  1.0777661e+00
 -1.0716603e+00
 -9.4572484e-01
 -2.0028035e-01
 -4.1637594e-01
  8.6490333e-02
  3.3734375e-01
  5.7673141e-02
 -3.4131309e-01
 -8.0633182e-03
 -2.6940119e+00
 -3.1317111e-02
  3.7935011e-02
 -1.0279184e-02
 -9.7807571e-03
  2.0829903e-02
 -9.2112981e-03
 -2.7746432e-02
 -3.0861948e-02
  1.8804364e-02
 -1.0444446e-02
  1.2647012e-02
  1.6823422e-02
  2.5912212e-02
  2.7965378e-02
  8.3364677e-03
  1.3825872e-02
 -1.4081574e-02
 -1.4409288e-02
  4.5471244e-02
  8.3149420e-03
 -3.2612115e-02
 -7.5850472e-02
  2.5928770e-03
  1.4400361e-02
 -1.5917758e-02
 -1.2238421e-02
  2.2845482e-02
 -5.1795966e-03
  5.8760168e-03
  5.3686192e-03
 -7.6902220e-03
  6.9220878e-02
  4.5296047e-02
 -9.2912717e-03
  4.4635981e-03
  4.1002478e-03
 -7.2436715e-03
  2.2891508e-02
 -3.2120261e-02
  2.4523262e-02
  1.7037468e-02
  1.0133713e-02
  2.3514951e-02
  3.4583528e-02
 -1.1307755e-02
  1.2258801e-01
  8.4368512e-06
 -4.8214950e-02
  2.2961555e-02
  4.3330234e-03
 -7.0216477e-02
  1.8156283e-02
 -1.1361714e-02
  2.0223937e+00
  7.5159647e-02
 -2.0430367e-02
 -4.0561695e-02
 -3.3477601e-03
  2.9164199e-02
 -8.7706558e-04
  8.9629555e-01
 -3.2658163e-02
  4.6205964e-02
  2.9410310e-03
 -1.5007815e-02
  7.5574750e-03
  4.2904522e-02
  1.1656818e-02
 -2.9994426e-02
  9.7981757e-03
 -2.3286004e-02
  5.9748767e-05
  1.7774232e-02
 -2.7648386e-02
  4.1666463e-02
  2.8181821e-02
 -2.0591526e-03
  1.8351393e-02
 -5.0124958e-02
  3.4703486e-02
  2.0270098e-02
  4.2178936e-02
  1.8594274e-02
  1.2820707e-02
  1.5014687e-02
  5.7734014e-03
  1.0977494e-02
  1.1136180e-02
  1.2942588e-01
 -1.0548681e-01
  4.0148478e-02
  2.2837812e-01
 -7.2825330e-01
  8.6390477e-01
 -1.3786379e-01
  2.1608987e+00
  9.8862559e-01
  1.0476750e+00
 -1.0540764e+00
  8.5082871e-01
 -7.1557426e-01
  1.3575091e+00
  5.4557437e-01
  4.4005504e+00
 -3.3717330e+00
  8.5027218e-02
 -1.1272838e+00
  2.3484640e+00
  2.5951983e-02
 -7.3753968e-02
 -6.4201117e-02
  1.8704044e+00
  6.9208002e-01
 -2.0242302e+00
 -5.9018178e+00
 -7.8096521e-01
  2.1016192e+00
  3.0525368e-01
 -2.9259232e-01
 -2.8909287e-01
  1.5236467e-01
  7.3114000e-02
  2.6816502e-02
  6.7699008e-02
 -1.6368907e-02
 -6.6964282e-03
 -1.6551819e-02
 -3.2085907e-02
  2.7315849e-03
  2.3915602e-02
  9.8362667e-03
 -2.1528175e-02
 -4.3627668e-02
  1.8946256e-02
 -6.1157793e-03
 -6.6013865e-02
 -6.5575846e-02
  1.0646108e+00
  9.6801482e-03
  2.8455075e-02
  5.5626404e-02
  2.6259452e-02
 -1.9905984e-02
  2.0123575e-02
  2.0674507e-01
  2.2629654e-02
  5.3359229e-02
 -3.9791971e-02
  1.5289751e-01
  8.7055542e-02
 -7.5342514e-02
  2.2532819e-01
  2.7661439e-02
 -7.8130847e-01
  9.1632640e-01
 -3.0344608e-01
  9.1508663e-01
 -7.0674554e-02
  2.5446352e-01
 -7.2895229e-01
 -3.7664264e-01
  1.2047127e-01
 -3.2472450e-02
  2.3139487e-01
 -1.9182745e-01
 -1.1672224e+00
 -1.3119555e-01
  1.2570325e-01
  1.8893011e-01
  3.9358181e-01
  1.1884499e-01
  4.8975295e-01
  7.1752770e-03
 -5.8292381e-02
  8.5686147e-03
  3.5671106e-01
  2.4350565e-02
  9.6725017e-02
  8.7624156e-01
  1.3828933e+00
  2.0026059e+00
  6.9627744e-01
  4.0124026e-01
 -4.7362559e-03
 -2.5622764e-01
  7.3336475e-02
 -4.0591213e-01
 -2.1225550e+00
  5.4269665e-01
  6.0322481e-01
  4.4029978e-01
  1.3112414e+00
 -1.6335402e+00
  6.0931545e-01
 -1.8274152e-01
  1.5990840e-01
 -1.9342550e+00
  2.2358604e-01
 -1.1563472e+00
  2.5423862e-02
  1.1024504e+00
 -1.3287834e+00
  6.9597387e-01
  2.0029220e-01
 -4.0609334e-02
 -4.0698876e+00
 -1.2857147e+00
  2.4264468e-01
 -5.3025302e-03
 -2.3890211e-01
  6.1475817e-02
  2.3747022e-01
 -2.3094658e-02
  7.0496097e-02
  1.1390261e-02
 -6.0537197e-02
 -4.7451127e-03
  3.0013116e-02
  5.7213776e-02
  3.6162220e-02
  9.5568849e-03
 -5.3513434e-02
  3.3414707e-02
 -9.3543073e-03
  3.1684381e-03
 -3.9991434e-03
  4.9490690e-02
 -1.1828916e-02
 -4.6185710e-02
 -1.8145507e-02
 -4.5022737e-02
  7.4035287e-02
 -1.3508650e-02
 -2.4360191e-02
 -3.2183436e-01
 -8.3917594e-03
  1.9609349e-02
  4.8801836e-02
  2.8859105e-02
  5.0034183e-03
 -1.8895198e-01
 -2.0489035e+00
 -3.4399182e-02
 -6.9236144e-02
  4.9403787e-02
 -1.5125906e-02
  1.8834807e-02
 -1.1182157e-02
  2.6092928e-02
 -1.4065396e-02
 -7.8706458e-02
 -9.4013065e-03
 -2.0233640e-02
  3.3696044e-02
  2.0200264e-02
  3.9920893e-02
  4.4532541e-02
  1.5368627e-02
 -1.9352863e-02
 -5.2569997e-03
  2.1727901e-02
 -7.7166714e-02
  8.5612260e-02
 -5.4882043e-03
 -1.9866494e-02
 -1.6520404e+00
  3.6995627e-02
  6.2399623e-03
  7.5294346e-01
 -1.7687914e+00
 -2.9479275e+00
  1.1648157e+00
 -1.4255123e+00
  3.0769110e-02
 -9.4881666e-01
 -1.0326937e+00
  1.9646941e-01
  2.8005707e+00
 -6.1080549e-02
 -3.2072377e+00
 -1.5219951e+00
  2.3900315e-01
  2.8227928e-01
 -1.1356725e+00
 -1.9387194e+00
 -1.6082124e+00
 -1.5483938e-01
 -4.0406460e-01
 -2.6766673e-01
 -8.5456468e-02
  2.6195589e-01
 -3.3443620e+00
 -9.8948872e-01
  1.3587723e-02
  2.5361544e-01
  2.4801161e+00
 -7.8778028e-01
  4.0369374e-01
  2.9303912e-02
  2.7377531e-01
 -8.5754886e-02
  7.9308622e-02
  1.1550093e-02
 -2.5346847e-03
  1.6846541e-02
  2.2547191e-02
 -6.3550510e-03
  2.7299859e-03
 -4.1518221e-03
  1.3892492e-02
  9.1569342e-02
 -4.5495324e-02
  6.6893026e-03
 -5.5185938e-03
  1.2108504e-02
 -2.5076821e-02
 -3.6551105e-04
  4.7118675e-02
  1.8871913e-02
 -8.4921122e-02
  7.1604736e-03
 -1.7771512e-02
 -5.9919339e-04
 -3.5320013e-03
  2.2425219e-02
  4.0739268e-02
  2.5806967e-02
 -6.5298523e-03
  8.5126698e-02
  3.0657730e-01
  1.1674332e-02
 -5.8798082e-03
 -3.3311695e-01
 -6.2460568e-02
  1.6477397e-02
  3.5397168e-02
 -1.4859293e-01
  2.0413778e+00
  2.2413934e-02
  1.8712176e-02
 -3.4287434e-02
 -4.8355108e-01
 -2.0685918e+00
 -6.3776173e-02
  2.4591085e-02
  1.0447301e-01
 -6.5456972e-02
  8.2439083e-01
 -1.5658295e-01
 -3.7651766e-02
 -7.5087629e-02
 -3.9919540e-03
 -2.6676063e-03
  9.3671113e-02
  6.0099311e-02
 -3.6790662e-02
 -4.1737342e-03
 -4.2806040e-02
  5.6856060e-01
 -2.1554084e-01
  2.9013379e-02
  2.9497570e-01
  1.4134188e-01
  1.7032216e-01
  3.4632578e-01
 -1.1524075e-01
 -4.8328665e-01
  5.7765287e-01
 -1.0850770e-01
  6.1809236e-01
  8.0011046e-01
  2.5121382e-01
 -3.4577897e-01
  5.9945919e-02
  4.2382488e-01
  1.3662149e+00
  2.1693693e-01
  2.4166067e-01
  1.2352116e+00
  1.0145167e-01
 -4.5097223e-01
 -3.1801364e-03
 -1.5175192e-01
 -1.6870510e-02
  1.5821792e+00
 -1.6991812e+00
 -4.9850557e-02
  5.1421955e-02
 -2.3388779e-02
  8.3499856e-02
  6.1073840e-01
 -1.0761826e-01
  1.0473547e+00
  7.6732829e-02
 -3.7984291e-01
 -2.6377353e-01
  5.4134820e-02
  7.2044492e-01
  1.4356694e-01
  5.9235939e-03
  9.3012452e-03
  2.6147261e-02
 -8.2598472e-01
  1.5092683e-01
 -1.3811827e-01
 -9.0127289e-03
  3.0139020e-02
 -3.1438895e-02
 -1.3585939e+00
 -1.0441649e-02
  9.2893280e-02
  5.5361283e-01
 -8.1378467e-02
  6.4731636e-03
 -1.2180123e+00
  1.4411123e-02
  8.5788228e-02
  3.7476370e-01
  8.9625157e-02
  3.6183350e-02
 -1.0140483e+00
 -1.1705176e-01
  2.0207179e+00
 -4.1912780e-03
 -7.4223387e-01
 -9.8537099e-01
  2.0357910e-01
 -3.8014448e-01
  2.2321237e-02
  3.3547655e-02
  6.6380382e-02
 -1.5614185e-02
 -4.2871785e-01
  9.4303280e-02
 -1.7203621e+00
 -5.4684118e-03
  5.8908565e-03
 -1.1064577e-03
  5.8729953e-01
 -2.9177541e-01
 -8.5816048e-02
 -5.4770523e-01
  8.4750861e-02
 -1.2497788e-02
 -2.8557904e+00
 -6.0693435e-03
  7.0976548e-02
  1.4292266e+00
 -5.5771428e-01
  7.2187525e-01
 -1.3626130e-01
  5.0396889e-01
  1.3229970e-02
 -1.3604912e-01
 -5.4864317e-02
 -1.4312983e-01
 -4.3739941e-02
 -6.4618923e-02
 -2.2050624e+00
  1.4430566e+00
  1.0770134e+00
  2.2705188e+00
 -6.8397659e-01
  3.4759700e+00
  1.0997719e+00
 -1.3641884e+00
 -1.4049105e-01
  3.2514155e-01
 -5.6975657e-01
  3.0015728e-01
  1.8239793e+00
 -3.7467997e+00
  1.7843760e+00
  1.0758449e+00
  7.0745409e-01
  1.0211391e+00
  7.0275271e-01
 -9.4543111e-01
  1.4415551e+00
 -4.1759387e-01
  2.0069067e+00
 -8.2853907e-01
  6.8352437e-01
 -1.5409694e+00
  6.1707157e-01
 -4.9073275e-02
 -3.0963394e-01
  2.0843225e+00
  2.1527982e+00
  4.1116485e-01
 -2.8553305e+00
  1.5198795e-01
  1.6235415e+00
  1.3754913e-01
  1.5614972e+00
  1.8043730e+00
 -1.3687608e+00
  5.3370085e-02
 -1.6227633e+00
 -2.8542132e+00
 -9.5518064e-01
  5.9212828e-01
  7.3444766e-01
  1.9729160e+00
  6.7809600e-01
 -1.1748320e+00
  1.6194230e+00
 -1.1155175e+00
 -1.0108862e+00
 -4.2481327e-01
  1.1516982e+00
  2.6063454e+00
  1.1735600e-01
 -1.1086168e+00
  1.6349530e+00
  2.3333852e+00
  8.3283347e-01
 -6.9618398e-01
 -5.8064812e-01
 -3.1565529e-01
  1.4283961e-01
  1.4922874e-01
 -9.0787835e-02
  2.2232224e-01
 -8.4902562e-02
  2.0482125e+00
 -1.9195391e+00
  5.3096735e-01
 -1.7300946e-01
 -2.8184714e+00
 -2.0283863e-01
 -1.4279362e+00
 -6.5082496e-01
  1.7237003e+00
 -3.2653878e+00
 -7.8095078e-01
  1.3011534e+00
 -6.2260634e-01
  8.5432351e-01
 -4.6259613e+00
 -1.3431975e+00
  1.3907957e+00
 -8.4443396e-01
 -4.1495652e+00
  1.1948484e+00
  3.3333954e-01
  7.6106861e-02
 -2.3214691e+00
 -4.6331871e-01
  9.4049799e-01
  1.3177197e+00
 -1.7793204e+00
  1.8659744e+00
 -3.0441868e+00
 -1.4474550e+00
 -2.8043768e+00
  1.7070515e-01
 -8.5811484e-01
  7.7308583e-01
 -4.7649257e-02
 -4.1789904e-01
  1.1324265e+00
 -2.4291265e+00
 -4.9525099e+00
 -3.2302809e+00
  3.8856998e-01
  5.7782656e-01
 -1.5921456e+00
 -9.6297973e-01
 -3.2304602e+00
  4.1270310e-01
 -2.0410230e+00
 -5.7536936e-01
 -2.8027841e-01
 -8.7507510e-01
 -1.9276451e+00
  4.2795187e-01
 -1.4593453e+00
  2.3816629e-01
 -3.5218200e-01
 -1.8585637e-01
 -2.1244392e-01
 -6.0311101e-02
  5.3552461e-01
 -8.8756734e-01
 -1.0411788e+00
 -6.2825602e-01
 -1.1184444e+00
  4.0473178e-01
 -5.4295921e-01
  1.8901256e+00
 -2.5803783e+00
 -5.5715692e-01
  6.2596560e-02
  4.0743899e-01
  1.1025530e+00
 -5.5209774e-01
  2.2207501e+00
  8.7398964e-01
  7.5959170e-01
  2.4357766e-01
  2.3685944e+00
  9.7802706e-02
 -1.2554795e+00
 -1.9259613e+00
  1.5196849e+00
  4.4008246e-01
 -3.7678695e-01
 -7.7826494e-01
 -7.8039873e-01
 -4.5647642e-01
 -2.1401596e-01
  3.7637579e-01
 -2.0536423e-02
  2.3989886e-01
  1.1753945e+00
 -8.5276079e-01
 -1.6508433e+00
  1.3555993e+00
  1.1311454e+00
 -7.3181462e-01
  1.9068935e+00
 -4.1559419e-01
  2.3834090e+00
 -2.2239938e-01
  7.9257590e-01
 -6.9049564e-03
 -3.5856378e-01
 -2.9545018e-01
 -3.4083349e-01
 -7.4103200e-01
 -3.0079675e-01
 -4.3857396e-01
  8.7006408e-01
  6.0781610e-01
  2.5065723e-01
 -6.6449428e-01
  8.2488328e-01
  1.0466660e+00
 -1.8186271e+00
 -3.9918175e-01
  1.7683440e-01
 -5.7306457e-01
  2.6193757e+00
  2.8403464e-01
  1.5387963e+00
 -1.2319306e+00
 -2.3420379e+00
  2.7456896e+00
 -3.8381398e-02
  1.7622095e+00
 -2.4113090e+00
 -8.8225538e-01
 -4.3579893e+00
  3.4433711e+00
  3.0460817e-01
  1.6051739e+00
  1.0085727e+00
  3.1331947e+00
 -2.1126583e+00
 -7.4980772e-01
 -1.9053712e+00
 -1.4325160e-01
  1.1717200e+00
  1.4763639e+00
 -2.1731812e-01
 -1.0034906e+00
 -6.0703903e-01
 -2.0223076e+00
 -1.4345827e+00
 -8.9416683e-01
  1.2786853e+00
  6.3061438e+00
 -2.6254684e-01
 -6.3282239e-01
 -6.6421237e+00
 -5.7628083e-01
  8.5212338e-01
 -2.2535744e+00
 -1.2904372e+00
 -1.1046090e+00
  1.3276109e+00
 -1.5217794e-01
  3.5631692e-01
 -2.6601243e-01
  2.2873480e+00
  2.0232553e+00
  8.3904701e-01
  1.2930844e+00
  1.6623406e+00
  4.2869091e-01
  4.0268960e+00
 -1.9964971e-01
 -7.2122967e-01
  1.2474779e+00
  1.2145376e+00
 -1.3175279e+00
  1.8643019e+00
  9.9839789e-01
  7.0918638e-01
 -2.1458025e+00
  3.6947031e-02
 -2.5505045e-01
 -2.9486561e-01
 -1.3975337e-01
 -1.0574358e-01
 -1.0521291e+00
 -1.0560616e+00
  1.0020468e+00
  3.6937397e+00
  1.0862015e+00
 -1.6320007e+00
 -4.5461502e+00
  1.3758066e+00
  5.7706302e-01
  1.5263970e-02
 -1.0593055e+00
 -2.2090118e-01
  6.6847241e-01
  4.4212678e-01
 -7.5483161e-01
 -7.8511053e-01
 -1.7683277e+00
  6.6952187e-01
  3.8736963e-01
  1.2954884e+00
 -1.3763067e+00
 -4.8311110e+00
 -8.9428753e-02
  4.6493763e-01
  6.4681008e-02
 -9.3086225e-01
  8.2669109e-01
  5.6894964e-01
  9.3213528e-01
  3.1385098e+00
  8.5488981e-01
 -1.3683006e-01
  6.4986974e-02
  9.9382418e-01
  6.8361259e-01
 -4.6863270e+00
  1.0348485e+00
  9.9956518e-01
 -1.7167844e+00
 -1.1992496e+00
  4.9523778e+00
 -3.2058993e-01
 -2.6191924e+00
 -1.0022069e+00
 -1.7341636e-01
  1.3470616e+00
  1.0165510e+00
 -1.0828526e+00
 -1.0387508e+00
  9.4106406e-01
 -9.1437124e-02
  2.5829077e-01
 -3.0422962e+00
  1.1826292e+00
 -8.2270485e-01
 -7.4511218e-01
  1.3168058e-02
  8.2874012e-01
 -2.6431406e-01
 -2.9478036e-02
 -1.5187860e+00
  2.1869202e+00
  1.9568386e+00
 -8.3940953e-01
 -1.0424322e+00
 -1.2556955e+00
  7.3275048e-01
 -8.8983834e-02
  1.3792088e+00
  1.1849307e+00
 -5.2424088e-02
  1.8594844e+00
 -2.3255646e+00
  9.7397214e-01
  1.0115815e-02
 -1.6712742e+00
 -3.6592302e+00
 -3.1004419e+00
 -2.4847929e+00
 -4.2231891e-01
 -1.1742871e+00
  1.5032302e+00
 -7.3591441e-01
  2.4137340e+00
  3.9090213e-01
  4.4455522e-01
 -1.3266391e+00
  8.1011707e-01
 -1.1176163e+00
  4.9883914e+00
 -1.6472568e-01
 -1.1233561e+00
 -1.9771364e+00
 -4.6882683e-01
 -1.8904477e-02
 -2.2200930e+00
 -1.8902110e+00
  4.7459979e+00
  1.3029152e+00
 -1.5262641e-01
  3.7317786e-01
 -4.6670318e+00
  2.1669602e+00
  2.5812665e-01
  2.5812665e-01
  2.5812665e-01
  2.5812665e-01
  2.5812665e-01
  2.8173376e-02
  2.8173376e-02
  2.8173376e-02
  2.8173376e-02
  2.8173376e-02
  3.9238561e-02
  3.9238561e-02
  3.9238561e-02
  3.9238561e-02
  3.9238561e-02
  1.0548169e-02
  1.0548169e-02
  1.0548169e-02
  1.0548169e-02
  1.0548169e-02
  1.7803196e-02
  1.7803196e-02
  1.7803196e-02
  1.7803196e-02
  1.7803196e-02
  2.9532490e-02
  2.9532490e-02
  2.9532490e-02
  2.9532490e-02
  2.9532490e-02
