nep4 2 C H 
cutoff 8 4 7 7
n_max 4 4
basis_size 8 8
l_max 4 2 0
ANN 30 0
  2.1593799e-01
  3.7363908e-01
 -6.3803744e-01
 -7.7365562e-02
 -2.4720788e-02
 -1.1212913e-01
 -1.4364852e-01
  1.0429863e+00
  1.7876880e+00
  4.9727896e-01
 -2.8105626e-01
 -1.4124314e+00
  9.3048477e-01
  1.5297735e+00
 -1.2824737e-01
 -3.2740925e-02
 -2.5905080e+00
 -5.8698982e-01
  1.1996552e-01
 -2.0658785e-01
  1.5913957e-01
 -4.8980985e-02
 -3.3972648e-01
 -6.3023269e-01
  1.3741082e+00
  1.3633667e-02
  3.1705027e+00
 -2.9021256e-02
  1.4172819e-01
 -4.9614313e-01
 -4.7907397e-01
  7.4203140e-01
 -3.0907121e-01
 -4.2554829e-02
  5.0682947e-02
 -1.2197819e-01
 -3.6821164e-02
  4.9913645e-02
 -2.2130121e-01
 -1.3649595e-01
 -2.0337847e-01
  2.5765544e-02
  1.1481728e-01
  2.8995648e-02
 -1.3489372e-01
  3.0491497e-02
 -1.1716254e-01
 -7.3448271e-02
 -1.1201724e-01
  3.6561020e-02
  5.5890273e-02
  2.2282610e+00
  9.1050074e-02
  4.3226120e-01
  3.8678065e-01
  6.5847754e-02
 -9.3461260e-02
 -3.2159260e-01
  7.7256703e-01
  1.6903310e-01
  1.0993239e-01
 -4.2917840e-02
 -8.4735203e-01
  4.6923476e-01
 -3.2643175e-01
  1.2608720e-01
  7.5284475e-01
 -1.2629011e-01
  1.1674052e+00
  8.1693009e-02
  2.3291288e-01
 -4.5053807e-01
 -1.7250945e-01
  9.5209450e-01
 -1.8678111e-01
  1.9059524e-02
  1.8027669e-01
  1.3741891e-01
 -2.2439910e-01
  2.8220547e-02
 -3.5256151e-02
 -5.0212093e-02
 -1.5414411e-01
  6.4606744e-01
 -1.3445531e-01
 -1.0854492e+00
 -2.1870929e-01
 -4.1368648e-02
  2.7142813e-02
  1.2986613e-02
 -1.3205665e+00
  3.0319291e-01
 -4.7292057e-01
 -1.4875869e+00
  8.7680835e-01
  5.9690809e-01
  1.4528967e+00
  2.9398617e-01
 -6.6723590e+00
 -2.9643865e+00
  5.7318205e-01
 -1.5705392e+00
  1.2975207e-01
  1.8290240e+00
 -2.2588692e+00
 -2.3197091e+00
  5.3534096e-01
  3.7522111e+00
  1.5825043e+00
 -1.7717264e+00
 -2.5996593e-01
 -5.4365838e-01
  6.4801669e-01
  4.1887038e-03
 -6.6382933e-01
 -2.9847655e-01
  5.7514727e-01
 -3.1041723e-02
 -6.9581312e-01
 -2.0115039e-01
  5.4536290e-02
 -3.0139977e-01
 -9.4074601e-01
 -5.6441840e-02
 -1.2032908e+00
 -5.8550233e-01
 -4.4671288e-01
 -3.0812833e-02
  4.3302044e-01
 -4.9320045e-01
 -9.3146376e-02
  1.0756914e-01
 -1.0181452e-01
 -1.1577500e-01
 -1.8957611e-02
  2.0963310e-01
  1.8653072e-01
 -4.1201536e-02
  1.9370576e+00
  1.1554490e-01
  4.2071663e-02
  1.3639671e-01
 -9.3804039e-03
  4.3747827e-02
 -5.5107996e-02
 -1.5599576e-01
  2.6601988e-01
 -1.6499844e-01
  4.5787264e-02
  1.3659872e-02
  9.5109779e-01
  2.0204814e-01
  1.4218955e+00
 -1.3234740e+00
 -2.3463423e+00
 -6.8752420e-01
  4.9213132e-01
 -2.1861935e+00
 -7.3698469e-02
  1.9505942e+00
 -4.4072413e+00
  2.3321707e+00
 -7.8765571e-02
 -2.4042926e+00
 -1.9767016e+00
 -8.4718388e-01
 -1.3801309e-01
  1.7849755e+00
 -5.7284278e-01
 -1.2951853e+00
 -1.4811363e+00
  1.7084558e+00
 -1.9967833e+00
 -5.7085252e-01
  1.4661516e-01
 -1.1688257e-01
 -5.2250642e-01
 -7.2301961e-02
 -4.5714509e-02
  2.9394846e+00
 -1.2681508e-01
 -1.6304991e-01
 -5.2366436e-02
 -4.2217981e-02
 -4.0068421e-01
  4.2146311e+00
 -1.3009322e+00
  1.6493165e+00
 -1.7640846e+00
  6.8152040e-01
  5.0345111e-01
 -2.5925982e-01
 -1.5740851e+00
 -1.3440803e+00
 -1.4201350e+00
 -1.2052881e+00
  1.0870600e+00
 -3.5518825e-01
 -4.1733785e+00
 -3.4487138e+00
  5.2336133e-01
  6.0611331e-01
 -2.0177804e-01
 -7.6955235e-01
 -2.7244809e+00
 -1.7360017e+00
 -2.8797042e-01
 -1.4692284e+00
  3.0221517e+00
 -2.2355329e-01
  1.8636712e-01
 -2.6178055e+00
 -5.9883874e-02
 -3.7415433e-01
 -1.3430165e-01
  3.4283793e+00
 -4.7796071e-02
 -5.6351170e-02
 -5.1703438e-02
 -1.2895021e-03
 -5.9160008e-03
  3.9933152e-02
  2.3979682e-01
  4.8963089e-02
  2.1832463e-01
 -1.9049147e-01
  1.3252430e-01
  2.7789513e-02
  4.7167044e-02
  1.3415417e-01
 -1.7941067e-01
  5.6790775e-03
 -1.3141709e-02
  9.2382878e-02
 -8.0175012e-02
  8.2596436e-02
 -3.5008561e-02
  1.1371231e-01
 -1.8740964e-01
 -4.0322888e-01
  2.6445761e-01
 -1.5464154e-01
 -9.6651331e-02
 -8.0281919e-01
  1.6194522e-01
  5.9173208e-01
  2.6397824e-01
 -9.0230651e-02
 -4.2020962e-01
  1.8438978e-01
 -3.6143801e-01
  3.9475828e-01
 -5.6706637e-01
 -1.7404945e+00
  6.8320215e-01
 -5.5428665e-02
 -1.5276686e-02
  4.7524413e-04
  5.9352621e-02
  1.2882021e-02
 -6.9470152e-02
 -1.6930093e-01
  1.1335619e-01
 -2.4943568e-01
  2.2113772e-02
 -3.0150952e-02
  1.7417362e-02
 -2.6366997e-01
  5.4352766e-01
 -8.4216252e-02
 -1.2076186e+00
  6.8364000e-01
 -9.9234664e-01
  1.1900009e+00
 -1.3863423e-01
 -1.0172193e-01
 -1.6723448e-01
 -2.8522730e-01
 -1.6742067e+00
 -5.5937755e-01
 -1.1282820e+00
 -4.0890908e-01
  8.3165884e-01
 -1.6206652e+00
  1.1570989e-01
  3.6299322e+00
 -9.6466899e-01
 -3.6250327e-02
  8.9115882e-01
 -7.1116632e-01
 -1.1172594e+00
  7.5689894e-01
 -5.5973607e-01
 -1.0187471e+00
  1.4245770e+00
  6.6972598e-02
  1.2845711e+00
 -3.0027961e-02
  3.8432360e-02
  3.7022769e-01
  1.2286102e+00
 -1.9364901e+00
 -9.2420638e-02
 -2.8937912e-01
 -1.1731562e-01
  5.5624926e-01
  1.0616001e-02
  2.2816820e-01
  1.4930451e-01
 -1.1013471e-01
 -2.8825927e-01
  2.9040482e-03
  1.5728104e-01
 -2.1345574e-01
 -1.3932132e+00
 -1.4213435e-02
  2.5064278e-01
 -3.8681763e-01
 -2.8881025e-01
 -9.3083754e-02
  2.7103379e-01
 -2.5409326e-02
 -1.0080213e-01
 -1.9717408e-02
 -1.7456848e-03
  4.0426854e-02
  2.8519943e-01
  2.7892572e-01
 -3.2360494e-02
 -4.3800693e-02
  1.4606392e+00
  5.4305595e-01
  8.4525740e-01
  1.0739009e+00
 -6.9285639e-02
 -6.4045835e-01
  5.9387583e-01
  2.4519372e+00
 -4.1897054e+00
  3.3475866e+00
 -2.5329154e-02
  8.0352604e-01
 -7.8413045e-01
 -1.7675717e+00
 -2.8410978e+00
  8.9055765e-01
  1.6213436e+00
  2.2334139e-01
 -2.0411451e-01
 -1.2035409e+00
 -2.3258097e+00
 -1.5075619e+00
  2.6273448e+00
  8.3359808e-01
  7.1222434e+00
  3.1684861e-01
 -7.0028138e-01
 -4.1435006e-01
  4.0640872e-02
 -3.0180484e-01
  2.6297138e+00
  1.7575142e-01
 -5.6247324e-01
  1.7056784e-01
  1.0778323e+00
 -1.4566144e-01
  1.4798173e-01
  3.3003155e-02
  4.1200802e-01
  2.5999201e-02
 -2.1355414e-01
 -1.4288410e+00
 -2.1127798e-04
  2.1092856e-02
  6.8723345e-01
 -5.1581359e-01
 -3.6007822e+00
  2.9451877e-01
 -7.7137195e-02
 -9.7231865e-02
  5.1302534e-01
 -2.5902012e-01
 -8.9303237e-01
  8.7534338e-01
 -2.2026334e+00
 -2.1438813e-01
 -1.6893592e+00
 -9.5297657e-03
  3.0755494e-03
  5.2849513e-01
 -3.4816805e-01
  1.5583440e-02
 -1.5061721e-01
  1.9134410e-01
  1.5651572e-01
 -4.8128042e-01
  1.0211341e+00
 -4.9437780e-02
 -1.7348249e-01
 -2.8774977e-02
 -8.4645279e-02
  6.6410989e-02
 -2.1942782e-01
  7.7259317e-02
 -1.3630242e-02
 -1.1463527e-01
 -7.1867540e-02
 -7.2555131e-01
 -8.4395391e-01
 -8.1787515e-01
  1.6240124e-01
  1.3898853e-02
  7.0179673e-03
  8.4893219e-02
  2.4663648e-01
 -6.6571712e-02
 -1.6164409e-01
  1.2927401e-01
 -2.9211057e-02
 -1.9354744e-01
 -1.3838817e+00
 -1.6614959e-01
 -2.2173002e-01
 -1.5099415e-01
 -9.9190027e-02
  1.2148290e-01
 -1.2826365e-01
 -1.9372055e-01
  3.0524526e-02
  5.2555740e-01
 -1.0723121e-01
 -1.8400957e-01
 -2.0969063e-03
 -5.8715545e-02
  1.8396516e-01
  8.1878603e-02
  1.4062332e-01
  1.3217898e-01
 -2.6038942e-01
 -4.2472966e-02
  5.4199519e-03
 -2.7446303e-01
  2.0854041e-01
  1.0152832e-01
  5.4395955e-02
 -5.4208480e-02
 -1.6915997e-02
  9.4455779e-02
  9.0340331e-02
 -1.1543836e-02
  9.1020137e-01
 -4.1809309e-02
  5.5159751e-02
  2.4347588e-01
  4.0922578e-02
  8.7410474e-01
  4.2318353e-01
  1.2285682e+00
 -5.4855013e-01
 -7.5653750e-01
 -7.6200709e-02
  3.8123009e-01
  4.7159177e-01
 -1.2051557e-01
  4.5200130e-01
  1.6497962e+00
 -1.8283529e+00
 -1.6946541e-01
  8.5029125e-01
  7.2719258e-01
  5.8844769e-01
  6.5250701e-01
  4.0442756e-01
  8.8237017e-01
 -1.4413837e-01
  7.1016037e-01
  2.7241576e-01
 -1.7944492e-01
 -5.4542291e-01
 -4.9361315e-01
  1.7307684e-02
  1.8852380e-01
  1.9720043e-01
  2.0787206e-01
  4.1991830e-02
  3.7468988e-01
 -2.8817419e-02
  2.5922734e-01
  6.5088406e-02
  1.2524888e-01
  3.1434358e-03
  3.6373589e-02
 -1.8431515e-01
  8.8127933e-02
  2.3260154e-01
  1.3051080e-02
 -1.3990721e-01
  4.5596674e-02
 -1.1588119e-01
  1.3555078e-01
 -1.2813152e-01
  3.7881237e-01
  1.6142592e+00
 -3.8741112e-02
  8.4317178e-03
  6.6322461e-02
  7.2649613e-02
  1.5780872e-01
 -1.3154517e-01
  1.8066305e-01
 -6.6062981e-01
  2.2765116e-01
 -1.4853159e-01
  2.8138715e-01
 -5.7195985e-01
  5.2944575e-02
 -1.1676584e-01
 -1.0019919e-01
  5.5409867e-01
 -1.1957047e-01
 -3.6985296e-01
  4.1471329e-01
  3.6433855e-01
 -4.6380284e-01
  1.9167469e-01
 -7.5332358e-02
  5.6037292e-02
  8.0340123e-01
 -2.2715453e-02
 -4.3266004e-01
 -3.2725271e-02
  1.0663604e+00
  1.3716023e-01
 -1.9757661e+00
  2.3222449e-03
 -1.3708501e-01
  7.4375890e-02
  1.8508601e-01
 -4.9255192e-01
 -7.4041978e-02
  6.5470785e-01
  1.3590997e+00
  2.3569663e-01
  1.5249760e-01
  2.3615804e+00
  3.4682667e+00
 -7.0268559e+00
  2.0054746e-01
 -3.2033377e+00
 -2.8729968e+00
 -9.0710655e-02
 -7.5921917e-01
 -5.5971110e-01
  3.9840636e+00
  7.4612074e-02
  5.3414518e-01
 -8.4402829e-01
 -2.2580645e+00
  2.6659691e+00
  2.5792700e-01
 -9.9625319e-01
  2.3471270e+00
 -1.5368308e+00
 -2.5303647e-01
 -2.2702287e-01
 -1.7866524e+00
  9.1870409e-01
 -1.8898913e-01
 -1.8238223e+00
  3.6174901e+00
  6.6805169e-02
  5.5274308e-01
 -5.3923410e-01
  1.9165644e-01
  8.0241799e-02
  1.9627148e-01
  5.6768316e-01
 -4.1172531e-01
  5.6687828e-02
 -7.2046354e-02
 -4.5588128e-03
  4.1406408e-02
  2.3839898e-01
  5.8268189e-01
 -1.4409436e-01
 -4.7657025e-01
  3.3552758e-02
 -1.0460785e-01
  1.5613237e-01
 -2.2049332e-01
  8.1420720e-02
 -1.6105704e-01
 -2.1681626e-01
  1.1345471e-01
  1.5481584e+00
  1.5191083e-01
 -4.9130745e-02
 -6.2343431e-01
  3.8589342e-03
  4.0361114e-02
 -7.4515903e-01
 -7.2136885e-01
 -1.0178467e-01
  2.3554885e+00
 -1.3330995e+00
 -5.5443831e-03
 -3.6305735e-01
  1.4860098e-01
  5.3011137e-01
  1.3862798e-01
  3.4096223e-01
  1.0712579e+00
  1.3390434e-01
  9.2877954e-01
 -6.3203745e-02
  6.4526981e-01
  2.3774788e-01
 -1.1719687e-01
 -6.6716271e-03
  1.1581415e-01
 -1.9372796e-01
  6.1620736e-01
  1.2903260e+00
  2.8834561e-01
  2.0359600e+00
 -2.0469561e-02
 -3.1332672e-02
  1.2632015e-01
 -1.1846304e-02
  1.4063357e-01
  1.8635686e-02
  1.8766704e-01
 -8.4044069e-01
 -1.1797640e-01
 -4.8417211e-01
 -9.0896899e-01
  9.5378682e-03
  1.1987738e-01
  1.2944974e-03
 -1.9564498e-02
 -1.3165857e-01
 -2.7108455e-02
  9.9742047e-02
 -1.8144116e-01
 -2.9161307e-01
 -2.0044377e-02
 -8.5416383e-01
 -1.6599949e-02
  4.3738045e-02
  1.6457261e-01
 -3.8332638e-01
  5.2799419e-02
 -4.7857769e-02
 -1.5928224e-01
 -2.8997529e-01
  8.2683295e-02
 -1.1498982e-03
 -2.4485965e-01
  8.9362353e-02
 -2.4426514e-01
 -1.4403292e+00
 -1.2537678e+00
 -1.1201392e+00
  2.8650871e-01
 -1.6355128e+00
 -7.2579116e-01
  2.6664128e+00
 -3.7037489e+00
 -7.6713003e-02
  1.2440126e+00
 -6.0107380e-01
 -5.9170628e-01
 -2.2523379e+00
 -9.8365885e-01
  3.1097877e+00
 -1.1230955e+00
 -5.9706464e+00
 -6.9377428e-01
 -1.6478809e+00
 -8.2187849e-01
  5.5898470e-01
 -1.8572536e-01
 -1.3095354e+00
  6.4997333e-01
  2.7945346e-01
 -1.1486699e-02
 -1.4424630e+00
  2.2168554e-01
 -1.9099315e-01
 -1.1251590e+00
 -5.2823043e-01
  6.4419758e-01
 -5.4511987e-02
  1.0999912e-01
 -3.0517299e-04
 -5.8351555e-03
 -1.5767285e-01
  2.4698112e-02
 -7.7709287e-02
 -2.0710215e-01
  6.3925087e-02
  5.7895638e-02
 -2.8183123e-01
 -1.3841598e-01
 -2.3228354e+00
 -1.0511068e-01
  9.1046458e-01
  1.7087786e-02
  5.2533321e-02
  1.3631213e-01
 -1.1889393e-02
 -8.5925326e-02
  1.4273472e-02
  1.7188604e-01
 -3.4418741e-01
 -1.6793598e-01
  1.3363495e-01
 -3.0425259e-01
  3.4546327e-02
  1.2410853e-01
  6.8626595e-01
  2.7028531e-01
  7.3361433e-01
  9.0143031e-01
 -6.5973532e-01
  4.1487575e+00
  1.7802128e+00
  1.1582928e+00
 -2.5257969e+00
 -2.3250482e+00
 -1.7761711e+00
  1.5185686e+00
 -2.6410153e+00
  7.3694193e-01
 -9.3773389e-01
  1.2114010e+00
  2.2806089e+00
 -2.4907403e+00
 -1.5350771e-01
 -2.2001866e-01
 -2.5780218e+00
 -1.6026560e+00
 -1.7517847e+00
 -6.0157162e-01
  3.7782917e+00
  7.1807730e-01
  2.6953812e+00
  1.4157798e+00
 -9.1767464e+00
 -2.3253141e-01
 -3.4409371e-01
 -1.5125997e-01
  1.1012194e-01
  6.4814132e-01
 -2.2925763e+00
  6.3736133e-02
 -2.3657136e-01
 -5.5178255e-04
  6.5567309e-01
  2.0813417e-01
 -1.1212072e-01
 -4.1045809e-01
 -1.1410008e-01
 -2.6325592e-01
  2.1569246e-01
  4.3703709e-03
  7.3766208e-01
  1.3163896e-01
  1.2575682e-01
 -2.1460503e-01
 -7.5320721e-01
 -4.6083834e-02
 -1.7439243e-01
 -2.8870401e-01
 -1.0653706e+00
 -1.7862581e-01
 -6.5284520e-01
  1.2922725e-01
  5.1022422e-01
  1.2909232e-01
 -1.7110668e-01
 -1.6701342e-01
  8.7779379e-01
  5.3538643e-02
  6.6568591e-03
 -4.2434506e-02
 -5.0961480e-02
  2.0135863e-01
  8.2450956e-03
  2.0572245e-02
  5.1724616e-02
 -3.3261102e-01
 -1.5207149e-01
  5.3292632e-01
 -6.1366186e-02
  3.2410008e-01
 -3.4111148e-01
 -3.9008635e-01
 -2.9890510e-01
 -1.6410837e-01
  1.6242567e-02
 -2.1401267e-01
  4.5417929e-03
  1.4256284e-02
  4.2025585e-02
 -1.8929134e-01
  4.6948172e-02
  1.2048504e-01
 -2.1232837e-01
  3.2595754e-01
  2.1163072e-02
 -6.7829803e-02
  9.6697107e-02
 -3.2257047e+00
 -2.0338671e-01
 -5.4496020e-01
  9.4875604e-02
  1.4609502e-01
 -1.1463059e-01
 -6.4352520e-02
 -1.7205983e-02
 -1.1868145e-01
 -1.4482474e-01
  1.8132739e-03
 -2.0402077e-01
  2.6335062e-02
  6.3124895e-02
 -1.1555011e-01
 -5.7239313e-02
  1.4639622e-01
  6.7441940e-02
 -1.5483326e-01
  1.9164896e-01
  9.9733233e-02
 -5.7766248e-02
  2.1265645e-02
  2.3165090e-01
 -1.2985845e-01
 -3.1465583e-02
 -2.8818607e-01
  7.9785794e-02
 -7.1019179e-01
  8.8077062e-01
  3.4878075e-01
 -2.3719602e+00
 -2.6301754e+00
  5.7886070e-01
 -2.2147605e+00
  3.7207890e+00
  1.0649551e+00
  1.0177652e+00
 -1.1865665e+00
  3.2084468e-01
  3.5125327e+00
 -1.9531377e-01
  9.2602032e-01
 -1.2188427e+00
 -2.6827626e+00
 -1.6485178e-01
 -8.2635313e-01
 -1.4884632e+00
  1.7270374e-01
  1.1906471e+00
  1.7796752e+00
 -2.9958618e-01
  1.0031296e+00
 -1.9933348e+00
 -7.2180055e-02
  2.8844388e+00
  5.3673834e-01
  4.7302219e-01
  8.8694042e-01
 -2.3978256e-01
  5.4976743e-01
  3.0758293e+00
  2.0659223e+00
 -5.4139853e-01
  2.7824128e-01
  2.3446892e-01
  4.7164962e-01
 -6.7493284e-01
  8.4279805e-01
  2.7430263e+00
 -9.6063219e-02
 -1.4862649e-01
 -6.0297620e-01
  2.4726164e-01
  3.7796810e+00
  7.0828646e-01
 -2.0400016e+00
  3.1740585e-01
  3.3505514e-01
  7.3826879e-01
 -1.1919042e+00
 -8.5892595e-02
 -1.3089085e-01
 -2.9231958e-02
 -1.2372918e-03
  8.5874957e-01
  4.3049473e-01
 -6.5443724e-01
  1.2701501e-01
  4.2727014e-01
  1.3853394e+00
 -1.6220865e-01
  5.6185741e-02
  6.6528475e-01
 -1.4655465e-01
 -2.4497351e-01
  1.6015552e+00
  7.2860271e-03
  4.1710526e-01
 -8.0574495e-01
 -1.1072499e-01
  9.3339644e-02
  3.3848397e-03
  1.1426865e-01
 -3.8828763e-01
 -9.6892762e-01
 -5.0182521e-02
 -2.9196283e-02
 -2.8332654e-02
 -1.0622166e+00
  9.9478871e-02
 -1.0563213e+00
  2.2163419e-01
 -1.4849177e-01
  4.4500954e-02
  3.6079228e-01
  3.9400709e-01
  8.4425443e-01
 -4.2529680e-02
  2.4433613e-01
 -5.2909100e-01
  4.0825593e-01
  1.8346120e+00
 -1.9848832e+00
  2.6311210e-01
 -4.2937960e-02
 -2.4573658e+00
 -1.0791994e-01
 -4.5172396e-01
  5.1495973e-02
  1.8106746e-03
  5.4318057e-03
 -2.2544503e-01
  1.1934037e-03
  1.9142821e+00
 -1.3614291e+00
 -1.3364571e-01
  1.8667449e-01
 -4.0518668e-01
  1.3435681e-01
  3.1929810e-02
 -4.8417819e-01
  1.0736097e+00
 -6.6072203e-02
 -3.8021147e-02
  1.1801416e+00
  1.1649047e+00
 -2.4861090e+00
 -4.3405712e-02
  1.2757183e+00
  3.2931641e-01
  5.0538796e-01
 -3.4528676e-01
 -5.7916456e-01
 -5.7225424e-01
  6.3713789e-01
 -5.1239556e-01
  1.8912570e+00
  5.9354824e-01
  1.3687043e+00
  2.3864780e-01
 -1.4374067e+00
 -1.2119277e+00
 -5.0692342e-02
 -5.1298100e-01
 -8.2666540e-01
  3.5484705e-02
 -4.6899456e-01
 -5.4059780e-01
 -1.1592881e-01
 -3.2965872e-01
 -3.2072330e-01
 -4.7129230e-03
  2.7583557e-01
 -1.6304049e+00
 -1.9459205e+00
  2.9053882e-01
 -1.3086142e-01
 -1.7338148e+00
 -3.3089450e-01
 -9.1637290e-01
  2.5252086e-01
  2.2379217e+00
 -2.0015681e+00
 -1.6761624e+00
 -1.0902144e+00
  6.0351932e-01
 -3.2046072e+00
 -2.4253616e+00
 -2.2390139e+00
  1.8887962e+00
 -9.6227854e-01
  9.4845790e-01
  1.2740362e+00
  1.7561746e+00
  8.0203623e-01
 -4.2660375e+00
  8.5914260e-01
 -1.8811432e+00
  3.0341787e+00
  7.8945106e-01
 -1.1218491e+00
 -5.5186725e-01
  2.2106698e+00
  2.9735048e+00
 -2.2854095e+00
  2.5516684e+00
  1.6434089e+00
 -1.4289724e+00
 -4.1813689e-01
 -2.2787466e+00
  7.3499489e-01
  1.0786387e+00
 -7.5600606e-01
 -6.6953570e-02
  1.2466819e+00
  3.6230996e-01
  1.6318550e+00
  5.3059745e-01
 -2.2533519e+00
  2.3305724e+00
 -2.3116019e+00
  1.5652283e+00
  1.4366338e-01
  8.5936502e-02
  2.3812807e+00
 -3.0892378e-01
  1.9220223e+00
 -1.4655857e+00
  1.0733364e+00
 -5.4952765e-01
  4.3291591e-02
 -6.7680186e-01
 -2.3436700e-01
 -1.8552206e+00
 -3.6690423e-01
 -5.7020736e-01
 -1.8248984e+00
  5.0746705e-02
 -8.8582791e-02
 -5.7340346e-02
  8.9026302e-02
  2.7974153e-01
  7.1683240e-01
 -1.8633755e+00
 -2.2196876e-01
  1.2020950e+00
  2.2103539e+00
 -1.8328764e+00
 -3.8347490e+00
  1.6507193e+00
  1.2830346e+00
 -1.9767513e+00
  2.7482980e-01
 -2.6889198e+00
 -1.1024638e+00
  4.9420187e-01
 -1.5675142e+00
  8.0800736e-01
  1.0077253e-01
  4.7897503e-01
  5.4743946e-01
  3.1274016e+00
  8.1940675e-01
 -1.4436184e+00
  1.9025593e+00
  2.0308064e-01
  1.8651340e+00
  3.7567773e-01
 -5.2317840e-01
 -3.6447448e-01
 -2.8914521e+00
 -5.0910342e-01
  6.4139318e-01
 -1.6716967e+00
  2.4060078e-01
 -1.5823159e-02
 -4.3492785e+00
 -3.6515167e-01
 -2.5524661e-01
  9.7609174e-01
  2.0466490e+00
 -1.3546997e-01
 -9.4400489e-01
 -5.1819795e-01
 -4.7215521e-01
 -1.0330129e+00
 -6.4156991e-01
 -2.5076253e+00
 -8.5707557e-01
  3.3499500e-01
 -1.3934712e-01
  4.2397436e-02
  1.7591573e-01
  2.1277244e-01
 -3.9979434e-01
 -1.1721874e+00
  4.2322537e-01
  8.5541838e-01
 -3.7690300e-01
  1.0329548e-01
  4.9097222e-01
  1.3258388e+00
  1.3953367e-01
  3.4853086e-01
 -1.0847952e+00
  1.6763262e-01
  4.5134631e-01
 -9.7838676e-01
 -2.3986587e-01
 -2.8044704e-01
  4.6185717e-01
 -3.9531362e-01
 -9.0419345e-02
  9.8378670e-01
  9.4423497e-01
  6.0011911e-01
  1.6266473e-01
 -3.2157445e-01
  1.1886362e+00
 -1.4857994e-01
  7.7799186e-02
 -5.9100455e-01
 -1.3664672e+00
  6.4233333e-01
 -5.7563132e-01
 -5.2565998e-01
 -3.0114359e-01
 -1.8760031e-01
  9.7296393e-01
  1.1681124e+00
  3.3131261e+00
  1.2931888e-01
 -9.1028166e-01
  2.1189678e-02
 -1.4418334e+00
 -1.2833111e+00
  9.6297292e-03
  2.4332700e+00
  6.8303502e-01
  1.7269570e+00
  6.3554806e-01
 -4.1561371e-01
 -1.5963596e+00
  9.9595380e-01
  1.0024612e+00
  1.5641087e+00
  7.7774888e-01
 -5.3976579e-03
  1.0630783e+00
  1.7430938e+00
 -2.2759726e+00
  3.6189809e-01
 -8.9459699e-01
 -6.7831731e-01
 -1.5383312e-01
 -1.8458759e+00
 -5.6894243e-01
  1.1256336e-01
 -2.5170771e-02
 -1.0652237e-01
 -6.9298315e-01
  1.0885826e+00
 -4.0446380e-01
 -2.2956541e-01
  3.7277970e-01
  4.7277188e-01
  1.4086825e-01
  6.8829888e-01
 -4.2952535e-01
  2.9520765e-01
  1.1107779e-01
  2.3274592e-01
 -2.9706582e-01
 -8.3106214e-01
  8.6349714e-01
  4.6357665e-02
 -4.3389684e-01
 -8.9054488e-02
  6.0284477e-02
 -1.2420125e-02
 -2.9135409e-01
 -1.6014753e-01
  6.1077151e-02
  1.1692945e-01
  6.3791925e-01
 -6.1106449e-01
 -3.6307615e-01
  1.5088022e+00
 -5.4855727e-02
  1.8672986e+00
  2.1061727e-03
  1.6493140e+00
 -7.9058759e-02
  1.0819553e+00
 -3.3497801e-01
  4.2743888e+00
 -1.1531261e+00
 -4.3288183e-01
  8.5002708e-01
 -8.3837867e-01
 -1.1429296e+00
 -3.1241117e+00
  7.0999700e-01
 -6.5662986e-01
  1.7182328e-01
  1.8007849e-01
 -1.5784848e+00
  1.6344470e+00
  5.4587632e-01
 -7.2059840e-01
  7.9358447e-01
 -2.9295146e-01
  2.3478029e+00
  3.6338778e+00
  7.0941406e-01
 -3.6418581e-01
  5.5956066e-02
 -4.2423435e-02
  2.1764634e+00
 -1.3767758e-01
  7.8441083e-02
  3.7619568e-02
  1.7767493e-01
  1.1477331e-01
 -5.3370804e-02
 -1.3019632e-01
  5.8380645e-02
 -1.6738381e+00
  1.7481804e-01
 -4.4897135e-02
  1.5620463e-01
  1.0395927e-01
 -4.4203883e-01
  1.8012055e+00
 -7.7920067e-01
  1.0167672e-01
  1.0336486e-01
 -3.3379081e-01
  2.2197396e-01
  3.4044760e-01
  4.7405515e-02
  3.4709781e-02
 -5.0031949e-02
 -1.0411686e-01
  3.7221897e-01
  4.8324451e-01
  6.0083103e-01
  7.5847709e-01
 -2.2612166e-01
  2.6894823e-01
  3.3084698e-02
 -1.9456673e+00
  3.7902209e-01
 -3.7176814e+00
 -5.4014832e-01
 -7.4744147e-01
  2.4705696e+00
 -7.8885809e-02
 -2.1350333e-01
 -9.7003078e-01
 -3.6492044e-01
  1.0545081e+00
 -5.3093948e+00
 -2.1928234e+00
 -1.2186182e-01
  2.7226293e-02
 -1.6454860e+00
  7.2665185e-01
 -8.1143463e-01
  5.5593830e-01
 -1.0533111e+00
 -9.0500969e-01
  2.3528864e+00
  1.0402683e+00
 -3.3453934e-02
 -6.2654871e-01
 -1.0177125e+00
  4.4168168e-01
 -2.9025087e-01
 -1.6718620e-01
 -4.7222802e-01
 -2.1321130e+00
  3.9734975e-01
  3.6871559e-03
  9.8751706e-01
  9.2661142e-02
 -9.6184403e-01
  1.5619178e+00
  1.3180690e+00
 -7.9324760e-02
  6.7519367e-01
 -2.2279232e+00
 -6.3952243e-01
  4.5833555e-01
 -1.4293530e+00
  4.2738453e-01
 -1.4165157e+00
 -9.4340003e-01
 -2.7431331e+00
 -1.2003005e+00
  4.5441370e+00
 -7.5965804e-01
 -4.6104326e+00
  1.1542031e+00
 -1.0350548e+00
 -6.8053281e-01
 -3.5470478e-02
 -2.1800056e-02
  2.0029293e-01
 -9.2824382e-01
 -1.8651089e-01
 -1.2450913e-02
 -2.9043588e-01
 -1.2787779e-01
 -1.0601766e-01
 -1.5792055e-01
  1.4132605e-01
  1.3055655e-01
 -1.7591419e+00
  2.6512727e-01
 -2.4017760e-01
  5.4499155e-01
  1.6298173e-03
  1.7346627e-01
 -4.0434539e-01
  1.5302810e-01
  9.5432729e-02
 -5.8930915e-02
 -1.7313467e-02
  3.3570483e-02
 -9.5754343e-01
 -3.5399355e-02
 -3.7690368e-02
  1.6525225e-01
  5.9201837e-02
 -1.9110461e-01
 -1.2665366e+00
  1.4484190e+00
 -1.4413484e+00
  6.4382315e-01
 -3.6966249e-01
  2.7812929e+00
  2.5984511e-02
 -8.4877974e-01
 -1.1121099e+00
 -3.5945985e+00
 -1.1817403e+00
  9.9172610e-01
  2.0738909e+00
 -1.0197291e+00
  8.6927617e-01
  1.2710903e+00
  3.5246050e-01
  9.8429418e-01
  1.0717514e+00
 -3.6412206e-01
  2.0109236e-01
 -1.0773728e+00
  9.2298037e-01
  2.6646063e-01
 -2.7294734e-01
 -5.8689862e-01
  3.1192377e-01
  5.3988492e-01
 -2.1914532e+00
 -1.6023380e-01
  5.5428736e-02
 -2.9768634e-01
 -1.0704850e-01
  4.8800707e-01
 -3.2763470e-02
  2.9359263e-01
  6.7270088e-01
 -1.2063183e-02
  6.0701185e-01
  7.1865186e-02
  6.3942820e-03
 -1.2098654e-01
 -4.8112243e-02
  2.3088984e-02
  8.0464974e-02
 -2.9886983e-02
 -2.0293748e-01
 -1.8221585e-01
  2.3756247e-02
 -5.9631523e-02
 -1.9765897e-02
 -8.5672766e-02
  1.0607868e+00
  2.3848183e-01
  2.3651287e-01
 -5.9926987e-02
  1.5781827e-02
 -4.1203551e-02
 -1.7961923e-02
 -1.6203666e-01
 -1.1516368e-01
 -1.5243006e-01
 -9.1090128e-02
 -6.7930436e-01
  7.1239188e-02
 -1.6711731e-01
  6.6164598e-02
  1.5358262e-01
  1.1478195e+00
 -2.2498968e-01
 -3.0645684e-03
 -7.1459040e-02
  3.8674328e-01
  2.1018219e-01
  2.2700928e-01
  2.4302240e-01
 -3.7178648e-01
  2.5698900e-01
  1.1384387e-01
  8.5232444e-02
 -3.2380840e-01
 -1.1045458e+00
  8.0478862e-02
 -9.7086348e-02
 -8.7447822e-01
 -2.2968183e-01
  5.6454980e-01
 -1.1003753e+00
  7.0423216e-02
  7.7455521e-01
  3.4235060e-02
  3.1176463e-01
 -8.4157556e-02
  1.4313256e-02
  1.0237832e-01
 -1.5528844e-01
  1.0170662e-01
  4.4945747e-01
 -8.5386211e-01
  9.9021140e-03
 -1.2886981e+00
 -8.4960347e-01
 -7.5715268e-03
 -9.2074968e-02
  5.1338774e-01
 -1.2047926e-02
 -2.0529510e-02
  2.1439558e-01
  1.7122513e-01
 -5.9404172e-02
  2.6212120e-01
 -7.4675627e-02
 -2.6942473e-02
  1.1237293e+00
 -1.4900357e+00
 -2.2944354e-02
  1.0656803e-03
  6.7272656e-02
  2.1315050e-01
  3.1198096e-01
  8.1233988e-03
  1.6740781e-01
  1.8883015e-01
 -5.4117614e-01
  1.7655063e-02
 -1.3741139e-01
  4.0244982e-03
  3.5774445e-03
 -1.2896276e-01
 -2.9365373e-01
 -5.6045301e-02
  1.9969642e-01
  8.6527419e-01
  3.5301164e-02
  1.0144280e-01
  1.8102603e-01
  1.7229742e-01
  2.5817037e-01
  7.9424608e-01
 -1.4676586e+00
 -2.0531572e-02
  1.1498873e-01
 -1.5112048e-01
  1.8388258e-01
  3.3128958e-02
  4.7375139e-02
  1.4934173e-01
  1.5752837e-01
 -1.0016564e-01
 -1.4755183e-02
 -6.9058406e-01
 -1.0849619e+00
 -4.0244228e-01
 -2.4190956e-01
  4.2359754e-01
  7.8218989e-02
 -1.2237411e+00
 -6.0059470e-01
  3.8657973e+00
 -4.6855175e-01
 -6.0858977e-01
 -1.8437965e-01
  2.4754910e-01
 -5.1502031e-01
  4.6704500e-03
 -2.8595856e-01
 -1.1168880e-01
 -1.6897222e-03
  1.0717036e+00
 -1.4701798e-02
 -1.0288887e-01
  2.3114768e-01
  3.8412288e-01
 -2.8861466e-01
  8.5107774e-01
 -4.6102089e-01
 -4.0050200e-01
  1.8433684e-02
  4.8998058e-01
 -4.0771805e-02
 -8.7553883e-01
  5.0398958e-01
  2.9096028e-01
  5.4732580e-02
 -1.4651151e-03
 -7.0756960e-01
  1.1762759e-01
 -6.5283090e-01
  4.8954484e-01
 -4.6445765e-02
 -5.8103506e-02
  9.4759539e-02
  1.8775578e+00
  5.1470852e-01
  1.5771076e-02
  3.7892148e-01
 -2.3205390e+00
  1.9738843e+00
  7.9472762e-01
 -9.1187291e-02
  1.1890672e+00
  1.1343780e+00
  1.5781629e-01
 -9.1820844e-02
 -7.2920847e-01
  8.5668409e-01
 -3.1866860e-01
  1.4530084e-01
 -7.1970725e-01
  2.8235996e-01
 -1.9504459e-01
  4.3252522e-01
 -6.1017655e-02
 -4.0100837e-01
 -2.1032438e-01
 -3.9472470e-01
  1.0102469e-01
  1.5288335e-01
 -3.7652090e-02
  6.9484740e-02
  2.2411284e-01
 -1.7424046e-01
 -2.8108633e-01
  3.7371166e-02
  1.3026776e-02
 -6.2473696e-02
  2.0461451e-01
 -2.3822524e-02
 -3.2656059e-01
 -1.1820238e-01
 -4.4535697e-01
 -9.0747420e-03
  1.6301529e+00
 -4.7944412e-03
 -1.0604909e-01
 -2.1500452e-01
 -1.2132032e-02
  7.6685959e-01
 -2.9039249e-02
 -1.2323190e-01
 -4.7818828e-02
  4.1386569e-01
 -6.0359412e-01
  8.5024387e-02
  2.1086998e-01
  1.3234557e+00
  1.2566247e+00
  1.4218515e+00
  8.0130410e-01
 -8.4638041e-01
 -7.7890342e-01
  7.9423942e-02
 -1.2438840e+00
  1.0172264e-01
 -5.7309836e-01
  3.7265593e-01
 -2.7231340e+00
  1.3255589e+00
  2.0747787e-01
 -2.9829937e-01
  2.0951537e-02
 -2.2429025e-01
 -5.2747134e-02
 -5.0980234e-01
 -3.9239767e-01
 -6.0044285e-02
  5.4458272e-01
  1.1246988e+00
 -2.1920936e+00
  1.2220515e+00
  2.0032264e-01
  6.0200429e-01
  9.6262723e-01
  1.9908631e+00
  4.0363926e-01
 -5.5333418e-01
 -6.8583451e-02
  8.1016469e-01
 -7.2768164e-01
 -1.0116761e+00
  1.8334979e-01
  7.8018081e-01
 -1.5605375e+00
  1.8122658e-01
 -5.8849198e-01
 -8.5804388e-02
  3.8215694e-01
  5.6912642e-02
  2.9298422e-01
 -1.0243671e+00
 -1.0834394e+00
 -5.1683159e+00
  1.7432110e+00
  2.1007136e-01
 -3.9472467e-01
 -9.4691628e-01
  1.5683259e+00
 -5.1067805e-01
 -3.9044386e-01
  2.9016197e-01
 -2.9743207e-01
 -4.5988125e-01
  1.3138964e+00
 -9.2599857e-01
 -1.2748433e+00
  1.3859878e+00
  4.5101058e-01
  2.3390377e-01
  4.0163064e-01
  2.4670975e+00
 -3.3568603e-01
  2.4901268e+00
 -1.7896105e-01
 -6.0624933e-01
 -3.0812415e-01
  1.6692062e-01
  1.5406410e+00
  8.2967877e-01
 -1.1899813e+00
 -8.9386696e-01
 -2.2871232e+00
 -2.7919536e+00
  6.6910356e-01
 -2.1565765e-01
 -1.1727329e-01
 -1.1875525e+00
 -1.5195421e+00
 -1.1724657e+00
 -6.8917185e-01
 -5.5033869e-01
 -2.1255916e-01
 -1.9821228e-01
  4.5716834e-01
  5.8481497e-01
  1.3062719e-01
 -1.2592096e+00
 -5.1910210e-01
  4.7407091e-01
  5.6064719e-01
 -1.2388220e-01
 -7.8755282e-03
  6.2164783e-01
  8.7646134e-02
  4.5318672e-01
  4.0966254e-01
  5.5317295e-01
 -2.6701719e-01
 -2.2442298e+00
 -1.9616760e-02
  2.3681870e-01
  8.2380694e-01
 -8.7769675e-01
 -1.6380179e+00
 -6.6882208e-02
  7.1498215e-01
  9.2420822e-01
  6.1776936e-01
 -2.4293590e-01
  1.8532312e-02
 -4.6156877e-01
  4.2830977e-01
  2.6789171e-01
  4.6837743e-02
  8.3401537e-01
  1.2140638e-01
  1.0405328e-01
  1.4734438e-01
 -1.3206942e-01
 -1.9130662e-01
 -7.1174681e-02
  9.7238004e-01
  5.9339423e-03
  3.0572155e-01
 -1.4813034e-01
 -3.0596809e-02
  2.0095082e-01
 -2.1725683e-02
 -6.0364716e-03
 -5.7887232e-01
 -3.4317634e-01
  3.1506851e-02
 -1.5298699e-01
 -2.3130882e-01
  2.1180242e-01
  3.5995178e-02
  1.8641275e-01
  5.9104186e-01
  5.7498616e-01
 -6.7041266e-01
  2.2011280e-01
  2.1949045e-01
 -4.4287321e-01
 -1.0492119e+00
  8.6354858e-01
 -1.3853585e-02
  6.8728685e-01
 -1.2846279e-01
  6.9526359e-03
  6.6229999e-02
 -2.6100213e-03
 -1.1712844e-01
 -4.3709567e-01
 -3.2777527e-01
 -8.0391449e-01
 -1.1607841e-01
 -5.7999158e-01
 -1.6289931e-03
 -1.0044765e-01
 -4.9267355e-01
 -2.4175930e-01
 -1.8711301e-02
  5.4185480e-01
 -4.6320859e-01
 -2.8534904e-01
  3.0706999e-01
  2.6409459e+00
  6.2449366e-01
 -7.5387967e-01
 -7.0141226e-02
  5.6083298e-01
  6.1612570e-01
 -6.6751041e-02
 -1.8451011e-01
  7.6998246e-01
 -1.4281942e-01
 -3.5083577e-01
  1.1018365e-01
 -1.3020498e+00
  2.6432174e-01
 -1.8491817e-01
  3.2922816e-01
  6.1557031e-01
 -3.2667797e-02
 -7.5455290e-01
  1.0241685e-02
 -1.5033771e-01
 -4.8801419e-01
  6.8812156e-01
 -3.3480838e-01
  6.9295138e-01
  2.3525847e-01
 -5.5436898e-02
 -4.7697723e-01
  1.4679815e+00
 -1.1581949e+00
  7.7224803e-01
  5.4604679e-01
  1.3580875e+00
 -1.5554881e-01
 -7.1583420e-02
 -2.7597482e+00
  7.0954762e-02
  1.3338799e+00
  1.2075512e+00
  4.8830688e-01
 -3.0502572e+00
 -1.5716089e+00
 -8.3220571e-01
  1.2909057e+00
  1.6431570e+00
 -1.6222667e+00
 -3.5126662e+00
  1.6645253e+00
  2.4768710e+00
 -1.8947167e+00
  3.7652340e+00
 -3.3795562e-01
 -2.2657332e+00
 -1.1616128e-01
  2.4729731e+00
 -2.3440139e+00
  3.2939258e-01
  6.4795357e-01
 -1.1616000e+00
  6.7439002e-01
  1.2611748e-01
  8.0832011e-01
  2.3884060e+00
 -2.9503510e+00
 -1.3496971e-01
 -2.7029061e-01
 -1.8739951e-01
 -5.4301631e-01
 -1.6276827e-01
 -3.3427060e-01
 -3.8806060e-01
  8.0840480e-01
  1.2722462e-01
 -3.7149251e-01
  6.2981176e-01
  1.5760225e+00
 -6.4961031e-02
  1.8907928e-01
  5.7284427e-01
  7.4327970e-03
  5.0339776e-01
 -8.8466763e-02
  7.5789607e-01
 -2.5780204e-01
  2.4170639e-01
  8.7379314e-02
  4.7679627e-01
 -1.0064429e-03
 -1.5009287e-01
 -2.0638540e-02
 -4.7168863e-01
  3.9988446e-01
  1.4768803e+00
 -5.6607777e-01
 -1.5764169e+00
 -8.9536262e-01
  3.9751992e-01
 -2.1617112e+00
  1.3054706e+00
 -1.8537160e+00
  5.5954432e-01
 -1.5014325e+00
 -1.0182542e+00
  3.8847405e-01
  6.3351279e-01
 -8.1941998e-01
 -2.4125593e+00
 -5.2430010e-01
 -3.4910076e+00
 -1.0365448e-01
 -9.3772626e-01
 -2.7651784e-01
 -1.0953871e-01
  5.9834141e-02
  1.7025249e+00
  5.8243804e-02
  2.1442750e-01
 -4.2974863e-02
 -7.4844009e-01
 -3.0883253e-02
 -2.0147057e-01
 -5.4852438e-01
  8.8657129e-01
  9.8116964e-01
  4.4383369e-02
 -5.3412133e-01
 -6.3274235e-02
 -2.8578562e-01
  1.5839982e+00
  2.1896994e-01
  7.6286614e-01
 -1.0127500e+00
 -1.1178622e-01
  1.0759748e+00
 -4.8820186e-02
 -1.1405939e+00
  3.4451336e-01
 -1.8165655e-01
 -3.0472221e+00
  1.5376760e-02
 -2.8933564e-01
  1.0759380e-01
 -4.1350063e-02
 -1.2110639e-01
 -1.1138110e+00
  7.8063615e-02
 -5.1617193e-01
  4.7078446e-01
 -8.1979923e-02
 -8.1375414e-01
  3.4066433e-01
 -1.7934202e-01
  3.3707130e-01
 -8.6679047e-01
  1.7449684e-01
  1.3655369e+00
  2.6643777e-01
  3.4441340e-01
 -1.4426974e+00
 -4.5979500e-01
 -2.7024081e+00
  2.3621440e-01
  2.5539556e+00
 -7.2290003e-01
  8.3155447e-01
  2.5872152e+00
 -1.9618030e-01
  6.3674217e-01
 -1.7258477e+00
  2.2418687e-01
 -5.4528568e-02
 -5.2889132e-01
 -2.0392053e+00
 -2.2886080e-01
 -4.8836005e-01
  1.2153652e-01
  1.9527071e+00
  2.3611438e-01
 -4.7893843e-01
  1.1155468e+00
  1.3226160e-01
 -1.1383874e+00
  4.8534697e-01
  2.8978953e+00
  8.9206350e-01
 -8.7075967e-01
 -2.0766277e+00
  6.2554687e-01
  1.1196848e+00
  4.3600300e-01
  1.4625740e-01
  3.4595689e-01
  7.5839597e-01
  2.3267077e-01
  2.1117151e-01
 -1.5990520e+00
  3.2234228e+00
 -1.8114793e+00
  5.0801331e-01
 -1.0912971e+00
  2.0076042e-01
  6.6822872e+00
 -2.4375296e+00
 -8.8063902e-01
 -2.7364391e-01
  1.9840508e+00
  3.5788772e-01
 -1.0456753e+00
  5.8743936e-01
  4.4722851e-02
 -5.7220978e-01
 -3.3457428e-01
 -6.0200974e-02
  1.4412658e+00
 -1.2271495e+00
 -1.1617737e+00
 -4.6494588e-01
  1.1366020e+00
 -2.3910654e+00
  9.8442167e-01
 -1.3848380e+00
  7.0488608e-01
  1.3924909e-01
  8.0963635e-01
 -5.5539387e-01
 -3.9874369e-01
 -1.5158596e+00
 -6.3629740e-01
 -1.2304885e+00
 -4.3209288e-02
  1.3977152e+00
  8.6113322e-01
  1.3885961e+00
 -8.8681245e-01
  4.3774712e-01
  3.0929897e+00
  1.0389252e+00
 -1.0745714e+00
 -6.4692572e-03
  2.4087760e-01
 -1.8210314e-02
 -2.0905397e+00
 -4.8537296e-01
  1.0171294e+00
 -4.4638994e-01
 -5.9294444e-01
 -2.5362754e-01
 -2.3923731e+00
 -9.4818234e-01
 -1.1388984e-01
  3.7142437e+00
  2.5199854e-01
 -4.3082199e+00
  1.6587281e+00
 -1.5928075e-01
  4.3143073e-01
  5.7910830e-01
 -3.8062382e-01
 -4.5860957e-02
  1.9330031e+00
 -5.2669487e+00
 -1.7383626e-01
 -4.8660116e+00
 -1.3330921e+00
  3.4525399e+00
 -1.6938937e+00
  1.7505027e-01
  1.9362854e+00
  1.7486858e+00
  8.0653030e-01
  2.7483068e+00
  4.7670093e+00
 -2.1724348e+00
 -4.4232652e-02
 -4.0278453e-01
  1.6566680e-01
 -2.1528533e+00
  7.8378630e-01
  2.5938160e+00
  8.3132058e-02
 -9.8376018e-01
 -1.3894165e+00
  4.7521105e-01
 -2.2703752e-01
  2.6849934e-01
  1.0940278e-01
 -3.1926757e-01
 -4.6698314e-01
 -1.5924121e-01
  1.0942441e+00
  4.0273128e+00
  1.5823277e+00
  1.0193897e+00
 -3.4432298e-01
 -9.1458666e-01
 -7.9941440e-01
  1.5639712e+00
  7.4709758e-02
 -1.3692046e-02
 -9.3931025e-01
  1.8935318e+00
 -6.2896538e-01
  1.2801613e-01
  2.2559331e-01
 -5.9155470e-01
  3.7330201e-01
  2.6732998e+00
 -2.4312050e+00
  1.0091375e+00
  9.1786724e-01
  8.2225651e-01
 -1.1165534e+00
  3.1334150e+00
  1.2042843e-01
 -2.2438807e+00
 -1.1184300e+00
 -3.7090755e-01
 -8.9108336e-01
 -2.3703401e+00
  9.1313332e-01
 -7.1505827e-01
 -5.9948894e-03
 -7.9609412e-01
 -1.7439672e+00
  1.0687689e+00
 -1.1447239e+00
  9.9584065e-02
  8.3907455e-01
  1.3117183e+00
 -4.3156871e-01
  1.4308701e+00
  3.2593125e-01
  1.2566698e+00
  2.5930822e-01
 -7.8050184e-01
 -6.1847436e-01
  8.6763585e-01
  9.7465926e-01
  7.2160703e-01
 -6.7478365e-01
 -1.3693944e+00
  6.9303119e-01
  4.1194978e+00
  1.5198272e+00
 -1.9098069e-01
 -2.2591994e+00
  1.7220715e+00
 -2.1257031e+00
 -1.0220679e+00
  8.4831125e-01
  4.0084038e+00
  8.7026733e-01
  2.2011776e-02
  2.5167638e-01
  2.4009626e-01
  4.3339896e+00
  3.7522492e-01
 -1.4684752e+00
 -1.0337486e-01
 -8.4110880e-01
  2.0065410e+00
 -7.8252101e-01
  5.7107501e+00
 -1.1597084e+00
  1.7946362e-01
 -1.1618255e+00
  1.4851862e+00
  1.2479862e-01
 -7.5369257e-01
 -1.6048366e+00
  1.0106826e+00
 -1.8353659e+00
 -2.0539939e-01
 -1.0400580e-01
  3.3124453e-01
 -9.8734683e-01
  2.3501097e-01
  1.2628611e+00
  5.2825469e-01
 -4.6312577e-01
  5.5821687e-01
  2.0331099e+00
 -2.5869730e+00
 -1.5685234e+00
 -6.7783582e-01
 -1.1691279e-02
 -2.2447414e+00
 -1.0727850e+00
 -5.0710225e-01
 -2.2344673e+00
  3.1305299e+00
 -1.7696191e+00
 -1.1150922e+00
  6.4160007e-01
 -8.1976824e-02
 -6.3864183e+00
 -6.7227894e-01
  7.4630797e-01
  1.5308501e-01
 -2.8304951e+00
 -3.2807691e+00
  6.6020209e-01
 -1.5123277e+00
 -1.3704892e-01
 -1.5699501e-01
 -2.8236938e+00
  1.5398397e+00
 -3.5376725e-01
 -6.7754233e-01
 -3.8287438e-02
 -2.2138352e+00
  9.8768212e-02
  2.3283985e-01
  8.7226816e-02
 -4.2934409e-01
  1.8224025e+00
 -2.2628770e+00
  7.3115993e-01
  1.1916941e+00
 -1.1132261e+00
 -2.3245702e+00
  1.0936866e+00
  3.0437930e+00
 -3.3839133e+00
 -1.4331362e-01
 -2.6007140e+00
 -1.4201469e+00
  1.7295572e+00
  3.7591350e+00
  8.7652206e-01
 -2.0017276e+00
 -9.7883618e-01
 -6.1905724e-01
  1.0821561e+00
 -1.3126695e-01
 -1.1890351e+00
 -1.2094296e+00
 -1.7744216e-01
 -4.0303195e-01
 -2.2658317e+00
 -5.6110644e-01
  1.0226552e+00
  1.4270064e+00
 -1.5555146e+00
  1.9469814e-01
  5.2966124e-01
  2.3428307e-01
  1.1625779e+00
 -1.4829638e+00
  7.5613338e-01
  1.2403467e+00
 -1.6033598e+00
 -2.1935594e+00
  1.4703047e+00
 -6.4391565e-01
 -3.0136704e+00
 -1.2735230e+00
  8.7731647e-01
  1.0905672e+00
  2.7049208e-01
 -1.9339669e+00
 -4.7399014e-01
  1.4553313e+00
  3.1215720e+00
 -1.0715242e-01
  1.8533957e-01
 -3.7422308e-01
 -3.4397066e+00
 -4.8024449e-01
  5.5097693e-01
  2.9289341e+00
  1.0474691e-01
  2.8545599e-02
  9.7683126e-01
  1.1531652e+00
 -3.2469660e-02
 -1.6707574e+00
 -1.3737193e+00
  1.3838673e+00
 -9.4395357e-01
  1.4154495e+00
  5.5441600e-01
 -3.4027960e+00
 -1.9530550e+00
 -2.1584551e+00
 -1.4077792e+00
  1.7525566e-01
 -1.3944675e+00
  2.4638715e+00
 -4.3236214e-01
 -8.9216328e-01
 -4.0717444e+00
  1.0317622e+00
  1.8729995e+00
 -8.4779108e-01
 -7.4506241e-01
 -9.1913933e-01
 -5.2605480e-01
 -1.5281408e+00
 -3.1361268e+00
 -3.7269428e-01
 -1.4182900e+00
 -1.5644951e-01
  9.2744000e-02
 -2.0355569e-01
 -1.9303920e+00
 -2.1401117e+00
  2.4346895e+00
  9.6132004e-01
  5.4970199e-01
 -3.0164713e-01
 -1.7404731e-01
 -9.0377766e-01
  8.9225107e-01
  3.9502469e-01
  5.5636543e-01
  2.5812665e-01
  2.5812665e-01
  2.5812665e-01
  2.5812665e-01
  2.5812665e-01
  2.8173376e-02
  2.8173376e-02
  2.8173376e-02
  2.8173376e-02
  2.8173376e-02
  3.9238561e-02
  3.9238561e-02
  3.9238561e-02
  3.9238561e-02
  3.9238561e-02
  1.0548169e-02
  1.0548169e-02
  1.0548169e-02
  1.0548169e-02
  1.0548169e-02
  1.7803196e-02
  1.7803196e-02
  1.7803196e-02
  1.7803196e-02
  1.7803196e-02
  2.9532490e-02
  2.9532490e-02
  2.9532490e-02
  2.9532490e-02
  2.9532490e-02
