nep4 2 C H 
cutoff 8 4 7 7
n_max 4 4
basis_size 8 8
l_max 4 2 0
ANN 30 0
  2.8243175e-01
 -1.3910328e-01
  2.8678948e-01
 -1.2302166e-02
  1.6059380e-03
 -2.3027068e-02
  7.3601976e-02
  5.3070832e-02
  9.2255318e-01
  9.8259084e-02
  4.9327936e-02
 -8.7026171e-02
 -4.8917793e-02
 -1.9102174e-01
  3.0445619e-02
  2.6046325e-02
  9.4002739e-02
  9.6958168e-02
  9.8368444e-02
 -3.2150948e-01
 -1.4795544e-02
  8.4554125e-03
 -1.1444623e-02
  2.0662189e-01
 -4.6988759e-02
 -2.0699757e-01
 -3.6876816e-02
  7.8120269e-02
  9.8261632e-02
 -1.6504341e-01
  1.6097136e-01
 -7.6743305e-01
 -2.3713647e-01
  1.8441479e-01
 -1.4693575e+00
 -7.8825146e-01
 -1.4095619e-01
 -1.5356051e+00
  6.8356997e-01
  3.4177819e-01
  1.9900503e+00
  2.0129976e-03
 -1.1516596e-01
  1.7852546e-01
  4.7106832e-01
 -1.2503324e+00
  6.8485820e-01
  1.7886700e-01
 -9.1726226e-01
 -1.0769369e-01
 -9.6118188e-01
  7.5069612e-01
  8.3917100e-03
 -6.7968774e-01
 -1.0249931e-01
 -3.6141115e-01
  1.4190516e+00
 -1.5171144e+00
  3.0130578e-02
 -6.2134141e-01
 -1.7553723e-01
  2.1048559e-02
 -1.7858837e-02
 -3.3754334e-01
 -6.0811672e-02
 -1.6331319e-02
 -1.6719546e+00
  2.0426769e-02
  9.9264726e-02
 -9.3451470e-02
  1.4506435e-01
  1.9210353e-02
 -1.1903414e-01
  3.6591489e-02
 -2.2060651e-01
 -2.6025081e-02
  9.4128504e-02
  3.8075428e-02
  9.8174810e-02
  1.1719777e-01
  5.6643850e-01
  1.2765774e-01
  3.0635811e-02
  1.0717122e-01
 -2.1905278e-01
 -1.0028183e-01
 -2.5944758e-02
 -6.2709145e-02
 -4.1882235e-01
 -2.0961650e-03
  1.1119146e+00
 -5.8814007e-01
  1.3539004e+00
 -3.3591396e-01
  9.2897063e-01
 -7.7676874e-01
 -2.0307026e+00
 -3.4227648e-03
  2.1909866e+00
  2.7768078e-01
 -7.0804083e-01
  2.5043604e+00
  5.1089114e-01
 -2.5690975e+00
 -1.2719530e+00
  2.4683971e-02
 -3.0982623e-01
 -1.1201826e+00
  3.3401835e+00
  1.3317748e+00
 -2.4996884e-01
  1.8639348e+00
 -1.4545822e+00
  6.7798108e-01
  1.4053251e+00
 -6.6091530e-02
  9.3469266e-03
 -3.4628764e-01
  1.4445463e+00
  1.6772222e-02
 -2.6941695e+00
 -9.9628216e-01
  3.1567931e+00
 -5.4446302e-02
  2.1542768e+00
  3.7243841e+00
 -2.2797334e+00
  9.0198606e-02
  5.5326080e-01
  2.8368518e+00
 -1.3246559e+00
  3.6024854e-02
  2.4781981e+00
  2.8359151e-01
 -1.5883932e+00
  2.7905238e+00
  3.6257035e-01
  7.8667469e-02
 -6.1704504e-01
 -1.0795631e-01
  2.2141539e-01
  2.8766099e-01
  8.2543272e-01
 -3.5892090e-01
  1.4532988e+00
 -2.5988982e+00
  2.4758102e-01
 -4.1105416e-01
 -1.2692881e+00
  3.3493991e+00
 -3.3821169e-01
  9.9093521e-01
 -2.2405746e+00
  1.0933596e+00
  4.2327660e-01
  1.9241872e+00
  3.6398810e-01
 -6.9296278e-02
  1.2603684e-01
 -5.4422047e-02
  3.1911309e+00
 -7.4310243e-01
  1.7452714e+00
  6.5775567e-01
  4.5435697e-01
  2.8223135e+00
  2.4535327e+00
  9.3584228e-01
 -9.9347299e-01
  2.0732663e+00
  4.0963441e-01
  2.3760655e+00
  2.2509700e-01
  1.1692669e-01
  1.2656459e-01
  4.9752988e-02
  1.7768232e-02
 -6.1183739e-01
  6.4814711e-01
  1.3782559e-01
  1.9853410e-01
  6.6464061e-01
  9.2269138e-02
  5.1931930e-01
 -1.1122265e+00
  6.3882059e-01
 -1.7212172e-01
  7.0045805e-01
  3.2001638e-01
 -9.7273678e-02
  2.6895675e-01
 -7.2953951e-01
 -4.7811297e-01
 -1.1885790e+00
  9.0202525e-02
  1.1512339e-01
 -3.1742531e-01
 -3.6839712e-01
 -5.6773037e-01
 -2.5428046e-02
  3.6387074e-01
 -4.5641258e-02
  2.6677614e-01
  1.4228478e-01
 -1.5948831e+00
  6.9405861e-02
 -1.8414412e-02
  1.7761099e-01
  1.5176131e-01
 -4.3080069e-02
 -5.1327189e-03
  2.5819051e-01
 -2.5324896e-01
 -2.9126996e-01
  4.0617579e-01
  1.4130045e-01
  4.7656320e-02
  3.3340473e-02
  1.6041687e-03
 -2.0990187e-01
  1.5878689e-01
 -1.0195878e-01
  1.4970806e-01
  2.4353746e-01
  4.2595059e-02
 -2.1808188e-02
 -1.1266943e-04
  4.3022239e-01
 -5.5959201e-01
  2.0547421e-01
  1.3034893e-02
 -6.0731076e-02
  2.2404547e-01
 -2.0087335e-01
 -8.6408570e-02
  1.0201117e-01
  3.3099890e-02
  2.8290880e-01
 -1.7446421e-02
 -3.3411989e-01
  8.0422431e-01
 -2.9521236e-01
  9.6853012e-01
  8.6809134e-01
  7.6218635e-02
 -6.7519873e-01
  1.0436444e+00
 -1.3539192e-01
 -9.3450695e-01
  4.3048363e-02
  5.7516163e-03
 -4.2113075e-01
 -1.4473847e-01
  3.8510218e-01
  6.3337469e-03
  7.1564339e-02
  3.2684345e+00
 -4.8811334e-01
 -5.7279155e-02
  3.6552492e-01
  1.3433275e-01
  7.3054641e-01
 -8.0135143e-01
  1.0594654e+00
 -2.8717408e-01
 -8.2454160e-02
 -1.2722371e-02
 -1.5656032e-01
 -6.8000652e-02
  5.6196786e-02
 -8.4712172e-01
 -1.4731762e+00
  4.3650860e-01
  7.5991400e-02
  1.0005400e-01
 -2.4039674e+00
 -1.1284986e+00
  6.1010462e-01
  2.0619411e+00
  2.0420165e+00
 -1.4586045e+00
  1.8247067e+00
 -4.9096128e-01
 -2.3888218e+00
 -4.0621707e-01
 -3.0873209e-02
 -2.5909632e-01
  4.7921893e-01
 -2.3569351e-01
 -7.1206046e-03
  5.4960722e-01
  1.9457170e+00
  1.8939080e+00
 -6.8190753e-01
  5.2237087e-01
 -1.8290076e+00
 -8.1224144e-02
 -7.9431593e-01
 -1.5065638e+00
 -4.6526518e-02
 -1.7928155e-01
 -1.0389089e-01
 -1.1625174e-01
  6.9814615e-02
  4.3261367e-01
 -6.8915866e-02
 -5.4340530e-02
  7.0835468e-03
 -2.2955848e-02
 -8.4426254e-04
  6.7088127e-02
  4.6622191e-02
 -1.0665884e+00
  8.3538786e-02
 -8.1353962e-02
  8.6350977e-02
 -1.0573493e-02
 -2.1609773e-01
 -7.3964608e-01
 -3.1204663e-02
  1.7349649e-02
 -6.3071571e-02
  1.7187026e-01
 -3.5687503e-01
  6.2453635e-02
  2.6069585e-02
 -5.1815070e-02
  2.9912373e-02
 -8.4316880e-03
 -1.1662123e-02
 -6.9992512e-01
 -6.1733413e-01
  4.9704072e-01
  1.7349610e-01
 -7.0423436e-01
 -3.3818418e-01
 -1.1081905e-02
 -6.1063319e-03
  2.5495085e-01
  5.6865096e-02
  2.3435813e-01
 -1.4309701e-01
  6.6702545e-02
  1.7963664e-01
  6.5130755e-02
 -2.3250204e-02
 -5.9616685e-02
 -2.8227249e-01
 -1.1523068e-01
 -7.5914025e-02
  1.2354877e-02
 -2.9494253e-01
 -3.3713996e-01
 -7.7760123e-02
  2.3061782e-01
 -5.8963206e-03
  4.9884569e-02
  2.7053077e-02
 -1.5328500e-01
  3.4619197e-02
 -2.9021972e-01
 -3.6605176e-01
  3.0214679e-01
 -1.7817748e+00
  8.6074507e-01
  2.1476720e-02
  4.0979946e-01
 -1.1991290e-02
  1.6247321e+00
  1.5049543e-02
 -1.6724913e-01
  7.3916525e-01
 -2.4650089e-02
 -4.2400712e-01
 -1.0066167e+00
 -6.8737000e-02
 -6.1464105e-02
  6.5282565e-01
 -1.8220435e-01
  2.1319509e-01
 -3.8274556e-02
  1.0708894e-01
  4.3644288e-01
  1.7020462e-01
 -4.8712131e-01
 -4.4018105e-02
 -6.6807145e-01
 -5.3964611e-02
  9.0009177e-01
 -3.7578425e-01
 -2.6735142e-01
  7.6914978e-01
 -1.9081883e-01
 -2.9803544e-01
  5.5092758e-01
 -1.8168540e+00
 -1.4634107e-01
  5.0302207e-01
  3.7575271e+00
  8.7443151e-02
 -1.1729908e+00
 -3.1994030e+00
 -2.9221740e-01
 -1.5082854e-01
 -6.2556624e-01
 -2.2563713e+00
 -1.2803912e-01
 -2.8915741e+00
  2.5124698e+00
 -4.9397234e-02
  1.3259599e-01
 -7.1303445e-01
 -5.0269043e-01
 -9.5517948e-02
  2.5286376e+00
  1.6152551e+00
  1.4652876e+00
  8.1755620e-01
 -1.9967139e+00
 -2.6371700e-01
  1.3743384e-02
  1.0908598e-01
  9.0296733e-01
 -3.8266608e-01
 -4.6230629e-01
  4.2226657e-02
 -3.5910141e-02
  1.0848811e-01
  3.7686072e-02
  4.0338904e-02
  1.0679428e-01
  3.9600320e-03
  6.8774596e-02
  1.8397868e-02
 -1.0108289e-01
 -1.1569434e-01
 -3.6325160e-02
  6.2510287e-03
  5.4188192e-01
 -2.9521894e-02
  1.0372423e-02
  1.7369515e-01
 -3.5262164e-01
  1.6663566e-01
  2.6592543e-02
  4.8667239e-04
  4.0216081e-02
  2.8287116e-02
  6.1882861e-02
 -4.6664502e-02
  7.3054917e-02
  1.8330179e-02
 -3.2378748e-01
  9.3940951e-02
 -3.8843721e-01
  4.1089620e-02
  5.7290163e-02
  2.8223065e-01
  4.9506845e-03
 -1.8887447e-01
  1.6383033e-02
  4.5366678e-02
 -9.7949773e-02
 -2.8367347e-01
  3.4793451e-02
  1.7095844e-01
 -9.8850420e-03
 -2.1360964e-02
  4.1687217e-01
  1.3367720e-01
 -5.4275464e-02
  5.0790500e-02
 -1.7937340e-02
 -3.2757160e-01
 -3.6952738e-03
  4.1919291e-02
  5.5298779e-02
 -3.8333833e-03
  3.3160608e-02
  5.4943666e-02
  7.7985927e-02
 -1.1382866e+00
 -3.4381226e-01
  7.5967170e-02
 -1.2245216e+00
 -2.2185409e-01
  6.2668985e-03
  2.5048789e-02
 -6.8751788e-01
 -4.1648820e-02
  5.8033995e-02
 -1.5248470e-01
  5.0411481e-02
 -2.3046686e-01
 -1.1573301e-01
 -4.1773248e-01
  1.0609351e-01
 -7.6015055e-02
  2.9520991e-01
 -1.0299005e-01
 -1.8459266e-01
 -1.1673562e-02
 -1.4283954e-01
 -1.8962811e-01
  5.3417158e-01
  5.0199885e-02
  1.9440051e-02
  1.0154378e-01
 -6.1157867e-02
  9.2944339e-02
  2.3107307e-01
  5.2171141e-01
  8.8724464e-01
 -3.5820776e-01
  8.4790295e-01
 -6.5211993e-01
  1.4735729e+00
  3.4262614e+00
  1.4173661e+00
 -2.8633401e+00
 -1.4195739e+00
  8.0387682e-01
  5.6814318e+00
  4.7751227e-01
  1.1264915e+00
  1.0121740e+00
  2.1742518e+00
  9.1811436e-01
 -1.2186712e+00
 -9.4787431e-01
 -1.3829380e-01
  9.3588418e-01
  7.9443502e-01
 -3.8744521e-01
 -3.9283371e-01
 -4.1821077e-01
  2.8049889e+00
  4.6377963e-01
  1.5334750e+00
  1.0533174e-01
 -9.2095190e-01
  3.0352485e-01
 -3.5256663e-01
  2.3509181e-01
  1.1494111e+00
  2.1626201e-01
 -1.6738097e-01
  3.5540707e-02
  1.1846814e+00
  2.6834155e-02
  1.3904428e-01
 -7.3007129e-02
  4.3975353e-01
 -4.0345275e-01
 -3.2770280e-03
 -1.3413131e-01
 -2.7828804e-01
  4.8944496e-02
  5.6497163e-01
 -2.3342548e-02
 -9.3625754e-01
  2.3140983e-01
 -4.5140959e-02
  2.6977296e+00
  7.8748894e-01
  9.6277498e-02
  5.7716016e-02
 -2.9331940e-01
 -5.5237230e-02
 -4.4872954e-02
  1.0029159e-02
 -5.6070077e-01
  1.4265180e-02
  3.8355473e-02
  1.3412384e+00
 -1.1744314e-01
 -5.3007305e-02
 -3.0594310e-02
 -1.3904865e-02
  1.5719336e-02
  2.0165842e-02
  2.3816326e-03
  5.3777941e-02
 -2.0746626e-03
  4.4572316e-02
  3.8620043e-03
  3.0534962e-02
 -1.1269415e-01
  1.9093595e-01
  1.2502058e-01
 -1.7525432e-01
  6.3652587e-03
 -4.0246896e-03
  4.5955990e-02
 -1.4280611e-02
  2.2774009e-02
 -6.2850386e-02
 -2.0853892e-02
  1.8581033e-01
  1.2148425e-01
  1.0480269e-01
  1.4403962e-02
 -1.7321669e-03
  1.6273436e-01
  3.5189897e-02
 -7.5484231e-02
 -1.0548387e-01
 -1.9906543e-02
 -8.6632788e-02
  2.2195986e-01
 -6.7391805e-04
 -1.2156022e-02
  1.1965895e-01
 -8.8344544e-02
  2.6034380e-03
  3.1848397e-02
 -4.6671506e-02
  4.4478267e-01
 -1.6546981e-01
 -2.8050542e-02
  8.6519331e-02
 -3.3356082e-02
 -7.0871189e-02
 -8.9236766e-02
 -1.0754873e-02
 -6.4691514e-02
  4.1038436e-01
  5.8495793e-02
 -1.1785330e-01
  1.4102499e-01
  9.6465170e-02
  8.3651197e-01
 -9.7718157e-02
 -5.2198881e-01
  1.3645916e-01
 -3.4162037e-02
 -1.3587986e-01
  1.5674055e-01
 -1.0893659e-01
  1.1181559e-02
 -1.2697689e-03
  3.4717783e-01
 -4.2876348e-01
 -6.3284636e-02
 -1.4515550e-01
  1.2200775e-01
  6.4594232e-02
 -1.1941891e-01
 -2.5263298e-01
 -3.0094942e-02
  5.4812711e-02
  2.6648718e-01
 -3.6788251e-02
  7.2899394e-02
  4.0659884e-01
  7.4723631e-02
 -1.7755584e-01
  7.2067887e-02
  5.8192261e-02
  9.6096054e-02
  8.3902799e-02
 -8.9466506e-01
  6.4112417e-02
 -1.7243797e+00
  4.9565056e-01
  6.8961042e-03
  7.5267397e-02
 -1.4383706e-01
 -5.2182484e-02
  7.0317112e-02
  2.0311726e-02
 -1.0907333e-01
 -3.3884525e-02
  1.5609513e-01
  5.5643760e-02
 -6.5631390e-02
  1.4521889e-01
  7.6793078e-03
  3.1911439e-01
 -2.0377992e-02
  1.6854990e-01
 -7.8763813e-03
 -4.6064503e-02
  1.6620707e-02
  2.3810244e-01
  2.9545818e-02
  2.2323698e-01
  4.2808768e-01
  1.5336037e-01
 -5.6545619e-02
  1.0784429e+00
 -1.0643944e-01
  4.8326281e-01
 -2.0661160e-01
 -1.2483577e+00
  1.3685930e-01
 -4.6048585e-02
 -5.7139983e+00
  6.8432516e-01
  1.3726581e+00
 -1.4732280e+00
  1.5844148e-01
 -3.0803771e+00
  1.2629596e+00
  4.4052682e+00
 -2.2511079e+00
 -2.4343358e-01
 -2.1919129e+00
  3.4149528e-01
 -4.3945947e+00
 -1.2083061e+00
 -9.7358525e-02
 -1.0737267e+00
  6.9775867e-01
 -1.4843072e+00
  7.2568285e-01
  1.4027638e+00
  1.1444368e+00
 -1.0644199e+00
 -1.9428544e-01
 -6.7975722e-02
 -5.1466942e-01
  2.4100240e-01
 -2.2953151e-02
 -4.4828448e-01
 -1.1027052e-01
  2.0607500e-01
  7.1142703e-02
 -1.7486630e-01
  5.7857686e-01
 -3.9983205e-02
 -1.8823631e-02
  1.0968206e-02
 -6.5133758e-02
 -1.2892559e-01
  1.0838065e-01
  9.2480496e-02
  7.9903537e-03
 -3.9610632e-02
 -2.4317132e-02
 -1.9846806e-01
  1.9745756e-02
  7.0909895e-02
 -1.4888389e-01
 -6.6825122e-02
  6.9040000e-02
 -3.0799847e-02
 -1.2731305e-01
 -3.7446690e-01
  7.2885528e-02
 -3.4682527e-03
 -4.6498343e-01
 -1.2732789e-02
  6.7048229e-02
  9.7641118e-02
 -4.0308982e-03
  5.3399289e-03
 -1.7292200e-02
  1.6079206e-02
  1.5347905e-02
  7.9514962e-03
  2.8812319e-02
  2.4090871e-02
  1.2617849e-01
 -2.1815998e-03
  3.3097021e-02
  1.1409611e-01
  1.0991801e+00
 -1.2722477e-02
  9.8554082e-02
  1.3033435e-01
 -2.8617522e-01
  1.0478047e-01
 -2.3874957e-02
 -1.3774158e-01
 -1.6588855e-01
  1.0019121e-01
 -4.4371009e-02
 -1.9477986e-01
  3.5081994e-02
  3.0418360e-01
 -1.0386886e-01
  8.8122892e-01
 -2.1462688e-01
 -1.6314785e-01
 -6.1335874e-01
  7.4035823e-01
 -2.5373641e-01
  2.8687030e-01
 -2.1330191e-02
  2.9275408e-01
  5.5068707e-01
 -8.1580585e-01
 -1.8470968e-01
 -1.2865926e+00
  5.4688383e-02
  3.4801894e-01
 -1.9013423e-01
 -3.3012304e-01
 -2.5096166e-01
 -1.6585836e-01
  1.9990396e-02
  5.5056512e-01
 -1.3454589e-01
 -2.6547279e-02
  1.4370153e-02
  1.3095975e-01
 -4.0503526e-01
  1.2537046e-01
 -7.3381698e-01
  1.3578342e-01
  2.1085396e-01
  3.4473205e-01
 -2.4314837e-01
  3.7143409e-01
 -1.6154464e-01
  2.0982771e+00
  6.7138922e-01
 -3.0084908e-02
 -3.5658622e+00
  1.6310608e+00
  9.1020799e-01
  1.2939433e+00
 -2.4576022e-01
  1.1715242e+00
  1.1874596e+00
  1.9024189e+00
 -5.5127344e-03
 -2.4294028e+00
  1.8569803e+00
  1.1064730e+00
  3.0326906e-01
  3.1590259e-01
  2.0753327e-01
 -1.2551670e+00
 -4.3217570e-02
  2.0970997e-01
  1.4184538e+00
 -2.2909961e+00
 -2.5973701e+00
 -2.4697916e-01
 -9.8695152e-02
  6.9403410e-01
  1.1372013e-01
  1.1133327e+00
 -5.7741952e-01
  1.5862761e-01
  1.8589056e-01
 -6.9236094e-01
  1.3651351e+00
 -2.0379999e+00
  1.8324267e+00
  2.8312550e+00
  1.3102894e-01
  3.7456706e+00
 -9.1141850e-02
  4.7634864e-01
  8.6195761e-01
  2.6400642e+00
  1.1826271e-01
 -8.4477955e-01
  5.8006936e-01
  6.3086843e-01
 -3.0876860e-01
 -1.1475376e+00
  1.8634421e+00
 -1.0316802e+00
  1.5297416e+00
  2.3656068e+00
 -1.1419002e+00
  6.9217497e-01
 -9.9837852e-01
  1.9250873e+00
  1.0629562e+00
  7.2472610e-02
 -8.8571894e-01
  2.0170143e-01
 -5.6434792e-01
  1.6264660e+00
 -8.9504197e-02
 -8.6749840e-01
  3.0436072e+00
 -2.1851219e-01
 -1.4790566e+00
 -2.2526845e-02
 -2.4372613e-02
 -2.6777363e+00
 -4.9297422e-01
 -5.4148084e-01
 -2.9497117e-01
 -1.8748116e+00
 -1.8179899e+00
 -3.2716286e-01
 -1.4382023e+00
 -5.6271935e-01
  3.8826495e-01
 -5.7221192e-01
  4.9742183e-01
 -1.1245418e+00
  5.1737886e-02
  3.3964884e-02
  2.8592607e-02
 -1.6473942e-02
 -8.8838637e-01
  6.8686777e-01
 -1.1902672e+00
  1.0312394e+00
 -5.2744325e-02
  4.6414372e-01
  1.9857371e-01
  1.8170136e-01
  3.8800675e-01
 -3.4110304e-02
 -1.8816426e-01
 -6.4663678e-02
  7.0511907e-02
 -1.0323025e-01
 -2.6801431e-01
  6.1726624e-01
 -6.3762581e-04
 -5.0964400e-02
  2.4506586e-02
 -1.3495104e-02
  3.7728102e+00
 -1.4991736e+00
  1.0437845e-01
  6.1454338e-01
  2.3806514e-01
 -1.9148915e-01
 -1.1240326e+00
 -3.3567598e-04
 -3.8826162e-01
 -6.3474127e-03
 -4.0353337e-01
 -8.5818797e-01
  1.3628008e+00
  1.8481511e+00
  1.0527634e-01
 -1.9650924e-01
 -8.4047300e-01
 -2.0469581e-01
 -1.0911542e-01
  3.6405468e-01
 -3.9603052e-01
  5.9153736e-01
 -1.0840509e-02
 -4.5390069e-02
  7.3599762e-01
 -1.3103487e-01
 -1.7037746e-02
  5.9564281e-03
 -1.0013426e-02
 -8.7682411e-02
 -8.3184814e-01
 -1.1526828e-01
 -1.5303193e-04
 -2.5964060e-01
  5.4232144e-01
 -7.0553321e-01
  8.7601727e-01
  6.3750267e-01
  2.3009162e-01
  1.6226360e-01
  1.4050469e+00
 -1.3238077e+00
  2.8354147e-01
 -1.1301709e+00
  6.9976211e-01
 -4.1894355e-01
  3.2502861e+00
 -3.6946678e+00
 -3.8146770e-01
 -9.0241030e-02
  2.0870449e-01
 -5.5097211e-02
 -2.1793420e+00
  1.4460702e+00
 -1.1316479e+00
  4.8347208e-01
  9.2625916e-02
  7.7437955e-01
  1.3687823e+00
 -3.5796791e-01
 -1.9198785e+00
  4.3952116e-01
 -1.1933618e+00
 -4.4225516e+00
 -3.4590037e+00
 -9.5138296e-02
  7.3932827e-02
  8.0631942e-01
  2.9682118e-01
  9.8411220e-01
 -5.0377661e-01
  2.9348671e-01
  2.4965544e+00
  1.4428174e+00
 -1.4496922e+00
  7.8768665e-01
  1.0255079e+00
  2.2648196e+00
  2.7898005e-01
  1.6436908e+00
 -2.4158268e+00
 -3.4801886e+00
 -1.7850782e+00
  6.8222657e-02
  7.9960799e-01
  1.9941815e+00
  3.9308810e-01
 -2.2117040e+00
  1.3724308e+00
 -5.3710824e-01
  6.2232196e-02
 -2.0959727e-01
 -5.5077332e-01
  2.7998366e+00
 -4.8730907e-01
 -1.3519467e-01
 -1.0295315e+00
 -1.3102694e+00
  6.0644263e-01
  4.6135753e-01
 -4.1694897e-01
  8.5910410e-01
  7.5648677e-01
  8.0964321e-01
  1.9808774e+00
  3.1378076e+00
  1.3737167e+00
 -5.1551831e-01
 -5.2119410e-01
  5.8129668e-01
  1.0068390e+00
  4.0521124e-01
  1.9590560e+00
 -4.3147296e-01
  8.1681991e-01
 -2.0932028e-01
 -1.3046515e+00
 -1.1620197e-02
 -1.4636102e-01
  9.4629121e-01
 -8.7034297e-01
 -3.0481476e-01
 -2.2719671e-01
  1.3568048e+00
  1.8771012e-01
  2.2669585e+00
  4.9040893e-01
  3.9659175e-01
  7.0265836e-01
  3.4335963e-02
 -4.4458035e-01
  1.2118074e-01
  6.7990243e-01
  5.4129448e-02
 -3.0777953e-03
 -9.8337263e-02
  7.7760935e-02
  8.7357335e-02
 -4.3229160e-01
 -4.3755779e-01
  2.6031485e-01
  2.6650780e-01
 -2.4266239e-01
  9.1655679e-02
  2.1086000e-01
 -1.9426413e+00
  1.7894909e-01
 -9.3511981e-01
  2.9904222e-02
  7.8242069e-01
  5.8713096e-01
  7.7833641e-01
  6.1832672e-01
  2.0899425e-01
 -4.8268420e-01
  1.3739744e-01
  2.7938452e-01
  1.8875645e+00
 -1.9745915e-01
 -3.9057156e-01
 -1.7008080e+00
  1.1751150e+00
  3.1628993e+00
 -1.6767372e+00
 -1.1392652e+00
 -1.6940457e-01
  8.4578848e-01
  1.5428191e+00
  2.1759911e+00
 -2.6439211e-01
 -4.5692104e-01
  1.4360453e+00
 -1.4101392e+00
  3.6477637e-01
 -1.0843767e+00
  1.3546308e+00
  2.1613822e+00
 -6.2095052e-01
 -2.6827400e+00
  3.2473513e-01
  1.2498739e+00
  4.7779408e-01
  1.3572654e+00
 -9.1494191e-03
  2.0069284e+00
  3.2645798e-01
  6.1317030e-02
  5.3085381e-01
 -2.7496628e-03
 -7.2257870e-01
 -2.1274082e-01
 -8.8472295e-01
  1.2386893e-01
  1.4582123e-01
 -2.3296648e-01
  9.3506373e-02
  1.4469853e-01
  3.7755555e-01
 -1.1659526e-01
 -2.1753360e-02
  2.6159065e-02
  2.4263540e-01
  7.3566258e-02
  7.0041187e-02
  2.5424400e-01
 -4.0684518e-01
  4.0597487e-02
 -9.5152062e-01
 -1.5125524e-01
 -1.2669206e-01
  1.5414944e-01
  7.2323883e-01
  9.1942742e-02
  7.1335977e-01
 -3.4778994e-02
  9.5969957e-01
  5.6866296e-02
  2.3456262e-02
 -1.6437262e-01
  1.7997494e-02
  9.6811816e-02
  1.7205895e+00
  2.6272261e-01
 -8.3701074e-02
  1.0421276e-01
 -4.3432757e-02
 -1.3637140e-01
 -1.0864650e-01
  1.2793558e-02
 -4.8821300e-02
 -2.4263117e-02
 -3.4316197e-02
  6.8681762e-02
 -6.3805342e-02
 -1.9624170e-02
  2.4411317e-02
  1.6177377e-01
 -1.4699195e-01
 -4.1615266e-02
 -7.5094566e-02
 -7.0427999e-02
 -1.1238835e+00
  2.6564624e-02
  5.0836507e-02
  2.5308286e-03
 -4.4341081e-01
 -2.3867559e-02
  1.9620363e-02
 -1.3204560e-01
  3.0872118e-01
 -2.1845359e-01
 -6.5671042e-02
 -2.2403402e+00
  4.5521250e+00
  1.3778448e+00
 -1.0885669e+00
 -5.5823946e-01
 -1.9267912e+00
  1.2819163e+00
 -1.2445177e+00
  2.1773754e-01
  1.3722652e+00
  3.7925766e+00
  2.0133181e+00
  1.6706449e+00
 -2.1839421e+00
  1.7977614e+00
 -7.0127718e-02
 -1.0625494e-01
  1.4968953e-01
  1.4131187e+00
  1.6827047e-01
  1.5244237e+00
 -4.6700354e+00
  2.2959447e+00
 -1.5101756e-01
 -5.5704403e-01
  1.9719110e+00
 -4.1706881e-01
 -4.6212178e-02
  3.3553916e-01
 -7.2770989e-01
 -3.6133248e-01
  1.5005996e+00
  1.0033647e+00
  8.8770461e-01
  2.0252762e+00
  9.1930712e-03
 -2.0522346e+00
  1.9779756e+00
  1.0328929e-01
  3.8295570e-01
 -3.4814230e-01
 -1.1071969e+00
  1.9652343e+00
 -8.0713636e-01
  1.3913400e-01
 -4.4762504e-01
 -1.6217821e+00
  9.0253443e-01
 -5.3336376e-01
  1.1127809e+00
  6.5576488e-01
 -1.5114732e+00
 -1.9476717e+00
  7.0195299e-01
  2.9304770e-01
 -3.1607130e-01
 -4.2669851e-01
  9.9670291e-03
 -4.5191997e-01
 -1.1421733e-01
  9.8295158e-01
  3.7698883e-01
  1.0018358e+00
  2.6970556e-01
  1.4343056e-01
 -2.1776417e-01
 -2.1392088e-01
  2.1653821e-01
  2.2009192e-03
  9.3887314e-02
  9.2705888e-01
 -6.0259640e-01
  1.1661930e+00
 -4.5750770e-01
  1.5797944e-01
 -2.2692482e-01
  2.6951241e-01
 -7.7511925e-01
  8.7384576e-01
  2.3084095e+00
 -3.7480888e-01
 -3.6793190e-01
 -2.0819005e-01
 -8.5391372e-01
 -2.2674096e+00
  1.9713691e-01
 -1.7104998e-02
 -8.2803488e-01
 -3.5784502e-02
 -8.6262278e-02
 -4.2897984e-01
 -9.0607196e-02
 -5.6737661e-01
  1.5691833e-01
  8.3342546e-01
  2.8001776e-02
  1.3451323e-01
 -4.9702942e-01
  5.7123178e-01
  1.8380213e-01
 -5.5516049e-02
  4.2669347e-01
 -9.0522105e-01
 -2.5503349e-01
 -7.3810023e-01
 -3.0663502e+00
  6.0193664e-01
  8.3921822e-03
 -2.3215874e-01
 -6.4544398e-01
 -2.3067052e+00
  4.6269752e-02
  4.5118209e-02
 -5.0024980e-01
 -6.2810235e-02
 -1.0760070e-01
 -1.1500852e+00
 -2.6082659e-01
 -6.4294197e-02
 -7.8830314e-01
  6.2906909e-01
 -1.1302742e-01
  4.3676469e-01
  4.3836221e-01
 -4.4585600e-01
 -8.5434645e-01
 -2.8921745e+00
  5.7340062e-01
  8.9251649e-01
 -8.4167439e-01
 -3.0725982e+00
 -1.3097968e+00
  1.4349340e+00
  1.3307412e-01
 -1.4825031e+00
 -4.5770404e-01
 -2.9151019e-01
  1.3506130e+00
  2.3046236e-01
  1.7920948e+00
  4.4704008e-01
  9.5055722e-02
 -9.7142154e-01
  3.2072386e-01
 -2.4799554e+00
  8.1203990e-03
  7.6862033e-03
  8.5926808e-02
  6.4918711e-03
 -2.9157627e-01
  1.4731139e-01
 -2.3532141e-02
 -1.3375787e-02
 -2.2163568e-02
 -2.1846853e-03
  3.9748538e-02
 -5.1506497e-02
 -6.5139994e-02
  1.3050333e-01
  1.3127130e+00
  7.9959184e-03
 -1.6688171e-01
 -3.1874314e-02
  1.2472048e-01
  8.7679401e-03
 -1.8480437e-01
  1.7545439e-01
 -3.5060290e-03
 -3.2993775e-02
 -1.0439876e-01
 -1.3319748e-03
  3.3536583e-02
  5.0932160e-03
  2.9682700e-02
  5.3617358e-03
  1.4298348e-01
  1.6620579e-01
  4.8581395e-01
 -2.2151338e-01
 -8.8412763e-04
  2.1313253e-01
  7.6507226e-02
 -1.6320368e+00
 -2.6379984e-02
 -9.0926282e-02
  2.6412645e-02
 -5.6638733e-02
  3.8584147e-02
  6.1845113e-02
 -7.8443155e-02
  7.6369911e-02
 -1.8456941e-02
 -1.4580703e-01
  3.3757530e-02
 -7.3721506e-02
  2.1234445e-01
  2.3046127e-01
  8.2542747e-02
 -6.8743512e-02
  5.8225477e-03
 -5.9554920e-02
  3.6423039e-03
  9.9720769e-02
 -1.6238865e-02
  4.7190592e-02
  1.6823342e-01
 -1.2836631e-01
  1.4934241e+00
  6.0767066e-01
  1.6713000e-03
  3.9700648e-01
 -2.3459716e-01
  9.4791688e-03
  4.4345994e-02
  5.2177049e-02
  4.0612486e-01
 -1.8986955e+00
 -1.6274492e-01
  2.9184821e-01
  1.7265808e-02
 -6.5565430e-02
 -5.0390506e-01
 -5.1323775e-02
  4.0826941e-01
  3.6035308e-01
  6.2813275e-02
  4.2634436e-01
 -6.6905521e-02
  1.3502220e-02
  4.7495207e-01
 -2.5980610e-01
  3.9009385e-02
 -5.2077305e-02
  3.6586598e-01
 -9.6971118e-01
  3.8551111e-02
  2.7648944e-01
  2.4515496e-01
  1.2919353e-01
  1.1803747e-01
 -2.0877585e-01
  7.2575170e-01
  1.4907078e-01
 -7.8410560e-01
  9.1512692e-01
  9.3466634e-01
 -4.6646902e-01
  2.3243517e-01
 -2.3585926e-01
 -7.1411854e-01
  6.3698328e-01
 -2.1804191e-01
 -9.8867011e-01
  8.7538764e-02
  3.8901657e-02
  9.4626427e-01
  8.9526933e-01
  6.3091105e-01
  3.9885458e-01
  1.4202234e-01
  2.1288102e+00
 -6.2657094e-01
  5.6736910e-01
  1.7317264e-01
  7.6927590e-01
 -1.6139237e+00
 -1.3915470e-01
  2.2596835e-01
  2.6751330e-01
 -6.8225211e-01
 -1.6160183e-01
  4.9414527e-02
 -4.3964723e-01
 -3.3089724e-01
  6.3167438e-02
 -2.8017297e-01
  2.3038620e-01
  8.4863263e-01
  1.1641777e-01
 -3.4066591e-01
 -8.3294608e-02
 -1.1568017e-01
 -3.8687430e-02
  2.1451180e-01
 -7.6018840e-01
 -1.2985262e-01
 -7.0246446e-01
 -5.4407805e-01
 -2.6681086e-01
 -2.1075263e+00
 -8.2100384e-02
 -1.8811957e+00
 -4.1038451e-01
  3.0375991e+00
  2.5849395e+00
  5.0137180e-01
 -7.9763591e-01
 -2.7405807e-01
  1.5328389e+00
 -1.7705430e+00
 -2.4726601e-01
 -1.1407127e-02
  6.0018170e-01
  4.8336732e-01
  1.0236076e+00
 -1.7429563e-01
  4.8472288e-01
  2.9246750e-01
  2.9958677e-01
  2.0564130e-01
  2.3048128e-01
 -2.3692814e-01
 -1.7433909e+00
  5.1365501e-01
  9.3118930e-01
  1.2801288e-01
  8.4957890e-03
 -7.0539391e-01
 -1.1530968e-01
  3.5459545e-01
 -3.6802930e-01
 -1.7676748e+00
 -5.5623680e-01
 -1.5337616e-02
  1.0579548e+00
 -5.3145432e-01
 -1.7575358e-01
  5.6242388e-01
 -4.9012461e-01
  1.1327977e-01
 -4.8591971e-01
  2.5818613e-01
 -3.7256375e-02
  4.8079252e-01
 -1.4823541e-01
  4.4614500e-01
 -6.9575096e-03
  5.6836599e-01
  2.1771270e-01
 -5.2831042e-01
  3.0255148e-01
 -3.8704705e-01
  7.6567791e-02
 -3.6365134e-01
 -3.3993211e-02
 -1.4701682e-01
  4.8248488e-01
  6.4581180e-01
  2.0029515e-01
  3.7210524e-02
 -6.9103008e-03
 -8.4096409e-02
 -6.8970300e-02
 -4.5246685e-01
 -3.3179492e-01
 -2.4564104e+00
 -9.6120760e-03
  2.2694559e+00
 -2.4837596e-02
  9.4784784e-01
 -4.9466321e-01
 -1.1884913e+00
 -8.4819841e-01
  1.9210892e+00
  1.8384416e+00
 -6.4356750e-01
  7.3531973e-01
 -1.5032436e+00
  1.4669372e-01
  2.0249410e-01
  5.2813407e-02
  1.6090657e+00
  1.0763299e+00
  4.8144048e-01
  3.0297121e-01
  2.1090977e+00
 -1.7877109e-01
  3.9142323e-01
 -2.3614641e-02
  1.1766240e-01
  2.2018905e+00
 -3.2026463e+00
  3.1330566e+00
  2.2479828e-01
 -2.0297909e+00
 -3.4968197e-02
  1.1044282e-02
 -9.0974945e-01
  3.9288297e-01
 -2.7018821e-01
  7.8060955e-02
 -1.1331800e-01
 -1.8111654e-01
 -3.1118087e-02
 -1.0655476e+00
 -1.9485701e-02
  7.6763287e-02
  3.1033371e-02
  2.9965597e-03
  5.7263806e-02
  2.4964897e-01
 -3.1721059e-02
 -2.0741421e-01
 -1.1194295e-01
 -8.6850129e-02
 -5.8632109e-02
  1.1065335e-01
  7.0598960e-02
 -1.3524388e-01
  1.7781556e-01
 -7.8404211e-02
  1.0024581e-01
  8.4526055e-02
  4.6044275e-02
  2.7317388e-02
  4.8297077e-01
 -2.6433749e-02
  2.4065688e-01
 -3.7306305e-02
 -1.0624774e+00
  1.5817416e-01
  1.7017236e+00
 -2.0378826e-02
  7.3952191e-03
  1.6348538e-01
 -1.0540562e-01
  1.3085197e-01
 -1.2710700e-02
 -2.0562604e-02
  1.0436746e-01
 -2.2702668e-02
 -1.0164640e-01
 -1.0499848e-02
  9.1023929e-02
 -5.9097987e-02
  4.4353963e-03
 -2.2238725e-01
  1.0719074e-01
  2.8477393e-02
 -1.6512065e-01
  2.6365314e-02
  1.9535324e-02
  1.0980962e-02
  1.6071916e-02
 -6.1346307e-02
  3.7535313e-01
  2.4419553e+00
 -2.2790608e-01
  8.2523733e-02
 -4.9238181e-01
 -3.2240037e-02
  1.1127135e-01
 -4.8648956e-01
 -3.1002363e-02
  1.9380563e-01
 -1.2026703e-01
  1.2218293e+00
  1.5395264e-01
  8.5876340e-01
 -5.3261407e-02
 -1.6987257e-01
  7.8975338e-01
  7.0077980e-01
  1.1867737e-01
 -1.0195892e-01
  8.3523554e-01
  3.2653514e-01
  4.5158026e-01
 -1.8681961e-01
 -7.6558304e-01
 -6.6581346e-02
  7.7369469e-01
  1.9887872e-01
  1.4013384e-01
  6.4980316e+00
 -4.7102037e-01
  7.7429509e-01
  1.9257718e+00
  4.1680014e-01
  5.2716434e-01
  7.2624075e-01
 -1.9970669e-01
  7.4402487e-01
 -3.7079620e+00
 -7.9650980e-01
  2.7189379e+00
  1.7999858e-01
  6.9298571e-01
 -2.3577881e+00
 -8.8964462e-01
  1.1838275e+00
 -4.6708533e-01
  1.5695124e+00
 -6.3854808e-01
  6.1018085e-01
  3.8849466e+00
  1.1019889e+00
  4.2116375e+00
  2.7325685e+00
  1.4027022e+00
 -1.5476114e+00
  2.6145092e-01
  4.3987703e-01
 -1.2287972e+00
 -5.5222589e-01
 -5.3921837e-02
 -4.0625632e-02
 -2.7688876e-01
 -1.7625918e+00
  3.7662899e-01
 -1.7518887e-02
  2.5614701e-02
 -6.3921236e-02
  4.4166788e-02
 -9.6802652e-01
  4.1387014e-02
 -9.0643115e-02
  7.9703373e-01
  1.3964601e-01
  2.0048995e-01
 -1.8908805e-01
 -1.7129180e-01
  2.1878883e-02
  1.9301549e-01
  1.4377132e-01
 -1.5658739e-01
 -2.8149629e-01
  1.0555811e-01
  1.0984374e-01
  2.3408394e-01
  6.0178685e-01
  5.9894216e-01
 -5.2407348e-01
  1.1460774e+00
  3.1513834e-01
  8.9334771e-02
  2.0471574e-01
 -1.8158734e-01
  2.8220412e-01
  6.8621337e-01
 -1.0002691e-01
 -3.6834535e-01
 -1.2348574e-01
 -5.4199796e-02
 -1.9249417e-01
  5.7670462e-01
 -9.0484075e-02
  1.1142364e-01
 -2.0777061e+00
  6.9214642e-01
  1.3423441e-01
 -1.5235958e-01
  7.4003004e-02
 -4.3221261e-02
  1.6414189e-01
 -2.7674466e-02
 -4.1492328e-01
 -4.0525384e-02
  1.4843319e-01
 -1.2353835e-02
 -3.2356106e-02
  1.5278487e-03
 -2.3679852e-02
 -6.4500295e-02
  1.2174028e-01
  8.3048400e-03
 -1.8352626e-02
 -6.3870111e-03
  4.1770369e-01
  1.2782900e-01
 -2.2980864e-01
  1.0881414e-01
  9.7800996e-03
  7.1595863e-02
 -2.8370973e-02
 -5.7518911e-03
 -1.3874735e-01
 -2.2949252e-02
 -8.7464251e-02
 -3.3617221e-02
 -5.4960784e-02
 -8.5264303e-02
 -9.1482759e-02
 -1.3434425e-02
 -2.9205941e-02
 -1.8263385e-01
 -6.7443866e-03
 -5.9828240e-02
  3.6033060e-02
  2.4490002e-01
 -4.6575814e-02
 -9.8994849e-03
  1.0836487e-01
  1.8445780e-03
 -1.0410941e-01
 -3.1021094e+00
 -2.4657822e-01
  1.6376635e-01
  1.7556132e-01
  6.9446141e-01
 -3.5586845e-02
 -3.8961090e-02
 -2.3230441e-01
 -1.0416037e+00
  1.4060879e-01
  2.1857725e-01
 -1.8427248e+00
  1.1409218e+00
  2.6765820e-01
  6.9401610e-01
  2.4419399e-02
 -1.8970598e+00
  4.7658500e-01
 -1.9271855e+00
 -5.7446736e-01
  9.8518169e-01
 -1.0965754e-01
 -2.1482820e-02
 -6.9881237e-01
 -2.4461983e-01
 -4.8693041e-03
 -3.6930045e-01
 -1.2432187e+00
 -1.0345982e+00
 -4.0705320e-01
 -1.7459375e+00
 -1.3006942e-01
 -1.4652951e-01
 -1.0457498e+00
  9.1319710e-01
 -6.0886279e-02
 -3.5392281e-01
  1.2114397e+00
 -3.6483724e+00
 -2.1451710e-01
 -4.8669606e-01
  1.3203272e+00
  9.7756028e-02
  1.9620725e+00
  5.4917055e-01
 -3.4785300e-01
  2.1483722e+00
 -1.2077949e+00
  1.1082257e-01
  6.9082826e-01
 -8.2119006e-01
  5.9219837e-01
 -3.9253306e+00
 -6.9629842e-01
  3.8503683e-01
  6.3711792e-01
 -1.2970464e+00
  1.0809165e+00
 -9.3572062e-01
 -1.4291718e+00
  6.8868440e-01
  3.4987148e-02
 -1.8585788e-01
 -8.2859993e-01
 -8.1412546e-02
  4.9384497e-02
 -1.3097062e+00
  5.9454679e-01
 -2.3305617e-02
 -3.6485702e-01
 -4.8680040e-01
 -1.6519989e+00
  1.2281891e-01
  1.7470478e-01
 -2.4623975e-02
 -1.8416790e-02
  2.5633648e-02
  1.9755815e+00
 -3.1598279e-01
 -1.7232831e-01
  7.5562727e-01
 -6.6738242e-01
  1.4462353e+00
  2.3304854e-02
  9.6873038e-02
  3.7605408e-01
 -8.8835818e-01
 -1.9066092e+00
 -2.9906672e-01
  7.7473629e-01
 -1.1773560e+00
 -1.3149058e+00
  6.0719173e-02
 -3.9338800e-01
 -9.0515417e-01
  6.4069174e-02
 -1.6894255e+00
 -1.5302734e+00
  6.0349190e-01
 -1.8938842e-01
  5.6499988e-01
  1.0341476e+00
  1.7694477e-03
 -3.5511816e-01
 -4.1287854e-01
 -2.1837297e-01
  9.3874551e-02
  3.2842368e-01
 -4.1719306e-01
 -1.1251765e+00
  7.9130970e-02
 -9.2365913e-02
  1.3314739e-01
  1.2300069e+00
  3.5898667e-02
  6.6206898e-03
 -4.1579511e-02
 -6.3111281e-01
 -1.5576847e-02
 -2.0425858e-01
 -4.3162149e-01
  1.4909902e+00
  5.0277048e-01
  1.8170395e-01
 -5.9364712e-01
 -6.9348514e-01
  1.3452234e-02
  9.9593520e-02
  2.6236707e-01
  1.1562381e-01
  2.3296723e-01
 -6.6133380e-01
  2.0637906e-03
 -2.0090139e-02
 -7.2681630e-01
  5.0945502e-02
  3.9384168e-02
  1.1417585e-01
  2.3012881e-01
  5.7601219e-01
 -2.7984110e-01
 -1.9995739e-01
  5.5457550e-01
  6.0548925e-01
  3.6928603e-01
 -3.4327805e-02
  8.7746037e-03
 -3.3097187e-01
  3.9706883e-01
 -6.6510504e-01
 -5.7158947e-01
 -1.1460971e+00
 -2.5809157e-01
 -5.9261876e-01
  4.1695040e-02
 -1.3994480e+00
  6.8200976e-01
 -1.1655264e+00
  1.4109282e+00
 -1.5644358e+00
 -1.3046956e+00
  4.6081982e+00
  1.6989545e+00
  7.6855898e-01
 -1.1978135e-01
  2.7289733e-01
 -8.9483567e-02
  4.8074193e-02
 -6.0234413e-02
 -5.6246006e-01
 -2.4246776e+00
  1.1591643e+00
 -4.0229276e-01
  1.6484818e+00
 -4.2754689e-01
  1.6139834e-01
  8.8357645e-01
 -5.0713189e-02
 -3.0267942e-01
  9.6252060e-01
 -9.6057780e-02
 -3.1555712e-01
 -5.8432743e-03
 -9.9790692e-01
 -1.6555439e-01
  6.9975243e+00
 -2.5348377e-01
 -1.5950160e+00
  8.9427406e-01
 -8.2329386e-01
  3.0238408e-01
 -4.3749857e-01
 -1.2933268e-01
  2.5266297e+00
  1.1890894e+00
 -8.9925987e-01
 -5.9263122e-01
 -5.0893331e-01
  2.7800934e-02
 -4.4601111e+00
  5.6450646e-02
 -2.0585504e+00
 -4.5442898e-02
 -2.4889304e-01
  1.7189007e+00
  2.3415193e-01
 -1.0205910e+00
  3.8094860e-01
 -3.8865736e-01
  2.8868392e+00
 -2.2507985e+00
 -4.9528480e-01
 -5.8333391e-01
 -1.1903748e-01
 -2.1585710e-01
  2.5627110e+00
 -2.0489042e-01
  1.6621081e+00
 -2.0282781e+00
  2.1371901e+00
  5.0051469e-01
 -2.8621736e-01
 -3.8587472e-01
  5.7724136e-01
 -6.3895315e-02
 -1.1151526e+00
  4.2282033e-01
  1.1739492e+00
  1.0480888e-02
 -5.9751507e-02
 -2.4505963e+00
 -1.2569821e+00
 -1.7891864e+00
 -1.8398331e+00
 -7.7879417e-01
 -2.4448993e+00
 -6.5700895e-01
  3.7656963e+00
 -4.3700010e-01
  3.1979853e-01
 -2.0752527e-01
 -9.6912241e-01
 -1.5049046e+00
 -3.1496781e-01
  1.2859465e+00
 -2.6249225e+00
 -1.7352662e+00
 -1.2836204e+00
  7.9792835e-02
 -1.0911962e+00
  1.1599575e+00
  1.1815382e+00
  1.7125229e+00
  5.6865716e-01
 -2.9816127e-01
 -3.3683360e-01
  1.0492317e-01
  1.0504912e+00
  1.4396894e-01
  1.2414177e-01
 -6.2745726e-01
  6.6931539e+00
 -1.0483843e+00
  9.6444440e-01
  1.1409955e+00
  5.3266680e-01
 -5.0421578e-01
 -9.8805588e-01
  6.9903845e-01
  6.9258906e-02
  1.3963990e-01
 -9.7977531e-01
 -8.5503936e-02
 -2.2421389e+00
  1.0800545e+00
 -3.5932596e+00
 -1.4167980e+00
  1.4899855e+00
  1.7381850e+00
 -5.2080345e-01
  1.3462721e+00
  2.9573822e+00
  9.3900639e-01
 -8.2852709e-01
 -5.8981501e-02
  6.5045792e-01
  5.9448916e-01
  1.0230315e+00
 -5.7047106e-02
 -3.6954083e+00
 -8.3808917e-01
 -3.3796098e+00
  9.1314465e-01
 -5.7128072e-01
 -6.3286459e-01
  1.0467144e+00
  7.0418425e-02
  5.8579975e-01
  1.6234603e+00
  6.6772908e-02
 -1.8338208e-01
  1.0926007e+00
  5.6918502e-01
 -5.7924306e-01
 -9.8523013e-03
 -1.3755897e+00
  8.5284090e-01
 -2.1951215e+00
 -6.7516547e-01
  1.6117652e-01
 -6.8211347e-01
  2.4795456e+00
 -5.0431323e-01
 -5.0890964e-01
  1.1318508e+00
  1.2050037e+00
 -7.0725405e-01
  1.6543137e+00
  5.3126755e+00
 -4.5647770e-01
 -9.7209889e-01
  9.3497902e-01
  1.9595619e-01
  1.0029850e+00
 -6.9410926e-01
 -1.7603827e-01
  7.9941005e-01
 -3.9853162e-01
 -1.0339584e+00
 -1.6709682e+00
 -5.8538115e-01
 -1.5866750e+00
  1.3702155e+00
  6.5510452e-01
  1.2854263e-01
  4.4195598e-01
  1.6203864e+00
  9.0271823e-02
 -1.9171798e+00
  1.8087630e+00
 -1.4936346e+00
 -6.9208866e-01
  3.4893861e+00
  5.9833944e-01
 -2.2391717e+00
 -3.4234083e+00
  1.5691394e+00
  1.9107340e-01
  5.6775074e-02
  1.2332423e+00
 -8.7759778e-02
  1.4172252e+00
  4.3926567e-01
  2.3880110e+00
 -6.0751414e-01
 -1.3720917e+00
  1.8866774e+00
 -1.5679506e+00
  1.5145854e+00
  1.4792697e-01
  1.0070645e+00
  3.9379758e-01
 -4.7679849e+00
  7.0649791e-01
 -1.6795532e+00
 -2.7051806e-01
 -7.4729192e-01
 -1.3879597e-01
  9.0678996e-01
  1.8845036e+00
  1.7549510e+00
 -1.5185843e+00
 -1.2565873e+00
 -3.5362169e-01
  1.5062716e+00
 -2.2493210e+00
  2.1122458e+00
 -2.8913245e-01
 -1.7505177e+00
 -9.2932545e-02
 -8.6006194e-01
 -2.4967053e+00
  1.7454761e+00
 -2.8189011e+00
  1.1366448e-01
 -3.9682326e+00
  4.6528277e+00
 -4.4424791e+00
  2.0791161e+00
 -1.4456216e-01
 -2.4571831e+00
  8.3126622e-01
  2.6569433e+00
  1.1010795e+00
 -2.8425393e-01
  1.4701103e+00
  2.4194388e+00
  3.4945264e+00
 -1.6053040e+00
 -8.7647921e-01
 -2.2405808e+00
 -1.8281224e+00
  1.0438945e+00
  2.9304581e+00
  1.4842418e-01
  7.4999648e-01
  1.7168596e+00
  2.8363198e-01
 -3.8503587e-01
  1.5255389e+00
  1.4943510e+00
  1.0782301e+00
  6.6012198e-01
  6.3634664e-01
 -2.7194111e+00
  1.7867832e+00
 -1.3999213e+00
  2.6412632e+00
  3.0370004e+00
 -1.5359397e+00
  9.9246728e-01
  2.0095141e+00
 -9.4995397e-01
  2.9195838e+00
 -1.5394423e+00
 -4.4501728e-01
 -5.1789761e+00
  5.8421969e-01
 -3.1356344e-01
 -1.9077126e+00
  5.1217371e-01
  8.9108258e-01
  5.7805967e-01
 -8.6043966e-01
 -1.2343255e+00
  3.2102388e-01
  9.7347343e-01
 -9.2453712e-01
 -1.1021885e+00
 -1.8417151e-01
 -6.8965214e-01
  5.6440902e-01
 -8.8488311e-01
 -3.3702802e-02
  1.1342759e+00
  8.9231735e-01
  4.9941295e-01
  5.7862582e+00
 -2.0299823e+00
 -3.0269866e+00
  2.7064478e+00
  9.6254599e-01
  1.2702260e+00
 -5.6465440e+00
  5.8493176e+00
  7.7757978e-01
  2.1302879e+00
  2.4392693e+00
  7.3661578e-01
  3.8269383e-01
 -2.7519172e-01
  2.7752581e-01
 -2.4210198e-01
  1.6204673e-01
 -1.1532196e+00
 -7.1529059e+00
  1.5571368e+00
  2.0072105e+00
 -8.6608481e-01
 -3.1342809e+00
  1.7645876e-01
 -7.9013675e-02
  2.1425235e+00
 -2.2514286e+00
 -2.3598373e+00
 -1.2603098e+00
  9.2262393e-01
  2.2014878e+00
 -2.5038133e+00
 -5.1565397e-01
  8.3595800e-01
 -2.9346423e+00
 -1.7132142e-01
  1.3304842e+00
 -5.2115788e+00
  8.3915979e-01
  3.1538370e+00
  4.3169823e-01
  1.3196924e-01
 -4.7636699e-02
  1.0263701e-01
 -4.5140561e-01
 -8.6860263e-01
  5.6965137e-01
  7.4996626e-01
 -1.7619566e+00
  2.7324256e-01
  1.3565271e+00
  2.2160890e+00
  8.2898521e-01
  1.2686503e+00
  3.2089655e+00
  1.0011072e+00
 -3.5902658e-01
 -3.4202686e-01
 -4.7916136e+00
 -2.6460769e+00
  5.3059632e-01
  2.9699573e-01
 -1.3225164e+00
 -2.6857369e+00
  2.5812665e-01
  2.5812665e-01
  2.5812665e-01
  2.5812665e-01
  2.5812665e-01
  2.8173376e-02
  2.8173376e-02
  2.8173376e-02
  2.8173376e-02
  2.8173376e-02
  3.9238561e-02
  3.9238561e-02
  3.9238561e-02
  3.9238561e-02
  3.9238561e-02
  1.0548169e-02
  1.0548169e-02
  1.0548169e-02
  1.0548169e-02
  1.0548169e-02
  1.7803196e-02
  1.7803196e-02
  1.7803196e-02
  1.7803196e-02
  1.7803196e-02
  2.9532490e-02
  2.9532490e-02
  2.9532490e-02
  2.9532490e-02
  2.9532490e-02
